=== Run information ===

Scheme:       weka.classifiers.trees.J48 -C 0.25 -M 2
Relation:     train_InfoGainAttributeEval
Instances:    74014
Attributes:   17
              state
              longitude
              huc2
              nidStorage
              maxStorage
              femaRegion
              latitude
              damHeight
              normalStorage
              nidHeight
              primaryPurposeId
              hydraulicHeight
              nidHeightId
              structuralHeight
              volume
              maxDischarge
              hazardId
Test mode:    evaluate on training data

=== Classifier model (full training set) ===

J48 pruned tree
------------------

state = Texas
|   maxDischarge = (10826.32, 16252.94]: val_4 (121.0/41.0)
|   maxDischarge = (263.0, 300.0]
|   |   nidHeightId = val_3: val_2 (4.0/1.0)
|   |   nidHeightId = val_4: val_4 (4.0)
|   |   nidHeightId = val_2: val_2 (1.0)
|   |   nidHeightId = val_1: val_4 (0.0)
|   |   nidHeightId = val_5: val_4 (0.0)
|   maxDischarge = (3274.94, 4000.0]: val_4 (87.0/37.0)
|   maxDischarge = (6206.0, 8423.08]: val_2 (3785.0/158.0)
|   maxDischarge = (236.0, 263.0]: val_2 (3.0/1.0)
|   maxDischarge = (120.0, 140.0]: val_4 (2.0)
|   maxDischarge = (790.0, 864.0]: val_2 (24.0/14.0)
|   maxDischarge = (864.0, 960.0]: val_4 (21.0/10.0)
|   maxDischarge = (82.0, 100.0]: val_4 (7.0/4.0)
|   maxDischarge = (400.0, 448.0]: val_4 (6.0/2.0)
|   maxDischarge = (100.0, 120.0]: val_4 (8.0/3.0)
|   maxDischarge = (2757.8, 3274.94]: val_4 (67.0/26.0)
|   maxDischarge = (140.0, 161.0]: val_4 (4.0)
|   maxDischarge = (8423.08, 10826.32]: val_4 (95.0/34.0)
|   maxDischarge = (29433.0, 75980.0]: val_4 (95.0/20.0)
|   maxDischarge = (1040.0, 1160.0]: val_4 (28.0/12.0)
|   maxDischarge = (1801.0, 2051.46]: val_4 (41.0/21.0)
|   maxDischarge = (540.0, 600.0]: val_4 (20.0/8.0)
|   maxDischarge = (327.0, 362.0]
|   |   primaryPurposeId = val_9.0: val_4 (6.0)
|   |   primaryPurposeId = val_2.0: val_4 (0.0)
|   |   primaryPurposeId = val_10.0: val_4 (0.0)
|   |   primaryPurposeId = val_1.0: val_4 (0.0)
|   |   primaryPurposeId = val_11.0: val_4 (0.0)
|   |   primaryPurposeId = val_12.0: val_4 (0.0)
|   |   primaryPurposeId = val_5.0: val_2 (4.0/1.0)
|   |   primaryPurposeId = val_8.0: val_3 (1.0)
|   |   primaryPurposeId = val_4.0: val_4 (0.0)
|   |   primaryPurposeId = val_6.0: val_4 (0.0)
|   |   primaryPurposeId = val_7.0: val_4 (0.0)
|   |   primaryPurposeId = val_3.0: val_4 (0.0)
|   maxDischarge = (1425.0, 1600.0]: val_4 (30.0/13.0)
|   maxDischarge = (64.0, 82.0]: val_2 (10.0/5.0)
|   maxDischarge = (161.0, 185.0]
|   |   volume = (110169.3, 149261.956]: val_2 (3.0)
|   |   volume = (14400.0, 15600.0]: val_2 (0.0)
|   |   volume = (17100.0, 18817.68]: val_2 (0.0)
|   |   volume = (-0.001, 100.0]: val_3 (3.0/1.0)
|   |   volume = (18817.68, 20624.75]: val_2 (0.0)
|   |   volume = (56829.14, 68643.1]: val_2 (0.0)
|   |   volume = (10958.486, 12000.0]: val_2 (0.0)
|   |   volume = (39548.0, 47399.76]: val_2 (0.0)
|   |   volume = (47399.76, 56829.14]: val_2 (0.0)
|   |   volume = (68643.1, 85000.0]: val_2 (0.0)
|   |   volume = (20624.75, 23000.0]: val_2 (0.0)
|   |   volume = (8772.26, 9959.59]: val_2 (0.0)
|   |   volume = (12000.0, 13200.0]: val_2 (0.0)
|   |   volume = (28889.46, 33300.0]: val_2 (0.0)
|   |   volume = (910000.0, 125628000.0]: val_2 (0.0)
|   |   volume = (9959.59, 10958.486]: val_2 (0.0)
|   |   volume = (154214.01, 271898.0]: val_2 (0.0)
|   |   volume = (271898.0, 910000.0]: val_2 (0.0)
|   |   volume = (100.0, 1858.7]: val_2 (0.0)
|   |   volume = (85000.0, 110169.3]: val_2 (0.0)
|   |   volume = (23000.0, 25488.48]: val_2 (0.0)
|   |   volume = (6391.16, 7672.25]: val_2 (0.0)
|   |   volume = (13200.0, 14400.0]: val_2 (0.0)
|   |   volume = (15600.0, 17100.0]: val_2 (0.0)
|   |   volume = (33300.0, 39548.0]: val_2 (0.0)
|   |   volume = (7672.25, 8772.26]: val_2 (0.0)
|   |   volume = (25488.48, 28889.46]: val_2 (0.0)
|   |   volume = (4700.0, 6391.16]: val_2 (0.0)
|   |   volume = (1858.7, 4700.0]: val_2 (0.0)
|   |   volume = (149261.956, 154214.01]: val_2 (0.0)
|   maxDischarge = (-0.001, 1.0]
|   |   volume = (110169.3, 149261.956]: val_4 (56.0/19.0)
|   |   volume = (14400.0, 15600.0]: val_2 (0.0)
|   |   volume = (17100.0, 18817.68]: val_4 (1.0)
|   |   volume = (-0.001, 100.0]: val_2 (307.0/143.0)
|   |   volume = (18817.68, 20624.75]: val_4 (1.0)
|   |   volume = (56829.14, 68643.1]: val_2 (2.0/1.0)
|   |   volume = (10958.486, 12000.0]: val_2 (0.0)
|   |   volume = (39548.0, 47399.76]: val_4 (1.0)
|   |   volume = (47399.76, 56829.14]: val_2 (6.0/1.0)
|   |   volume = (68643.1, 85000.0]: val_2 (2.0)
|   |   volume = (20624.75, 23000.0]: val_4 (1.0)
|   |   volume = (8772.26, 9959.59]: val_2 (0.0)
|   |   volume = (12000.0, 13200.0]: val_2 (0.0)
|   |   volume = (28889.46, 33300.0]: val_2 (1.0)
|   |   volume = (910000.0, 125628000.0]: val_4 (1.0)
|   |   volume = (9959.59, 10958.486]: val_2 (0.0)
|   |   volume = (154214.01, 271898.0]: val_2 (7.0/2.0)
|   |   volume = (271898.0, 910000.0]: val_2 (1.0)
|   |   volume = (100.0, 1858.7]: val_2 (0.0)
|   |   volume = (85000.0, 110169.3]: val_4 (5.0/3.0)
|   |   volume = (23000.0, 25488.48]: val_2 (3.0/1.0)
|   |   volume = (6391.16, 7672.25]: val_2 (0.0)
|   |   volume = (13200.0, 14400.0]: val_2 (1.0)
|   |   volume = (15600.0, 17100.0]: val_2 (1.0)
|   |   volume = (33300.0, 39548.0]: val_2 (1.0)
|   |   volume = (7672.25, 8772.26]: val_2 (0.0)
|   |   volume = (25488.48, 28889.46]: val_4 (2.0/1.0)
|   |   volume = (4700.0, 6391.16]: val_2 (2.0/1.0)
|   |   volume = (1858.7, 4700.0]: val_2 (1.0)
|   |   volume = (149261.956, 154214.01]: val_2 (1.0)
|   maxDischarge = (2051.46, 2380.0]: val_4 (38.0/18.0)
|   maxDischarge = (16252.94, 29433.0]: val_4 (110.0/32.0)
|   maxDischarge = (1275.0, 1425.0]: val_4 (33.0/17.0)
|   maxDischarge = (75980.0, 3707516.0]: val_4 (105.0/9.0)
|   maxDischarge = (300.0, 327.0]
|   |   primaryPurposeId = val_9.0: val_2 (2.0/1.0)
|   |   primaryPurposeId = val_2.0: val_4 (0.0)
|   |   primaryPurposeId = val_10.0: val_4 (0.0)
|   |   primaryPurposeId = val_1.0: val_4 (0.0)
|   |   primaryPurposeId = val_11.0: val_4 (0.0)
|   |   primaryPurposeId = val_12.0: val_4 (0.0)
|   |   primaryPurposeId = val_5.0: val_4 (2.0)
|   |   primaryPurposeId = val_8.0: val_4 (0.0)
|   |   primaryPurposeId = val_4.0: val_4 (0.0)
|   |   primaryPurposeId = val_6.0: val_4 (0.0)
|   |   primaryPurposeId = val_7.0: val_4 (0.0)
|   |   primaryPurposeId = val_3.0: val_4 (0.0)
|   maxDischarge = (495.0, 540.0]: val_3 (7.0/2.0)
|   maxDischarge = (17.502, 30.0]: val_3 (6.0/3.0)
|   maxDischarge = (960.0, 1040.0]: val_4 (20.0/10.0)
|   maxDischarge = (5.394, 17.502]
|   |   nidHeightId = val_3: val_4 (2.0)
|   |   nidHeightId = val_4: val_3 (2.0)
|   |   nidHeightId = val_2: val_4 (0.0)
|   |   nidHeightId = val_1: val_4 (0.0)
|   |   nidHeightId = val_5: val_4 (0.0)
|   maxDischarge = (2380.0, 2757.8]: val_4 (65.0/16.0)
|   maxDischarge = (713.0, 790.0]: val_2 (19.0/11.0)
|   maxDischarge = (362.0, 400.0]: val_4 (7.0/4.0)
|   maxDischarge = (48.0, 64.0]
|   |   volume = (110169.3, 149261.956]: val_2 (2.0/1.0)
|   |   volume = (14400.0, 15600.0]: val_4 (0.0)
|   |   volume = (17100.0, 18817.68]: val_4 (0.0)
|   |   volume = (-0.001, 100.0]: val_4 (5.0/1.0)
|   |   volume = (18817.68, 20624.75]: val_4 (0.0)
|   |   volume = (56829.14, 68643.1]: val_4 (0.0)
|   |   volume = (10958.486, 12000.0]: val_4 (0.0)
|   |   volume = (39548.0, 47399.76]: val_4 (0.0)
|   |   volume = (47399.76, 56829.14]: val_4 (0.0)
|   |   volume = (68643.1, 85000.0]: val_4 (0.0)
|   |   volume = (20624.75, 23000.0]: val_4 (0.0)
|   |   volume = (8772.26, 9959.59]: val_4 (0.0)
|   |   volume = (12000.0, 13200.0]: val_4 (0.0)
|   |   volume = (28889.46, 33300.0]: val_4 (0.0)
|   |   volume = (910000.0, 125628000.0]: val_4 (0.0)
|   |   volume = (9959.59, 10958.486]: val_4 (0.0)
|   |   volume = (154214.01, 271898.0]: val_4 (0.0)
|   |   volume = (271898.0, 910000.0]: val_4 (0.0)
|   |   volume = (100.0, 1858.7]: val_4 (0.0)
|   |   volume = (85000.0, 110169.3]: val_3 (1.0)
|   |   volume = (23000.0, 25488.48]: val_4 (0.0)
|   |   volume = (6391.16, 7672.25]: val_4 (0.0)
|   |   volume = (13200.0, 14400.0]: val_4 (0.0)
|   |   volume = (15600.0, 17100.0]: val_4 (0.0)
|   |   volume = (33300.0, 39548.0]: val_2 (1.0)
|   |   volume = (7672.25, 8772.26]: val_4 (0.0)
|   |   volume = (25488.48, 28889.46]: val_4 (0.0)
|   |   volume = (4700.0, 6391.16]: val_4 (0.0)
|   |   volume = (1858.7, 4700.0]: val_4 (0.0)
|   |   volume = (149261.956, 154214.01]: val_4 (0.0)
|   maxDischarge = (600.0, 650.0]
|   |   primaryPurposeId = val_9.0: val_2 (2.0)
|   |   primaryPurposeId = val_2.0: val_3 (1.0)
|   |   primaryPurposeId = val_10.0: val_4 (0.0)
|   |   primaryPurposeId = val_1.0: val_4 (0.0)
|   |   primaryPurposeId = val_11.0: val_4 (0.0)
|   |   primaryPurposeId = val_12.0: val_3 (1.0)
|   |   primaryPurposeId = val_5.0: val_4 (3.0)
|   |   primaryPurposeId = val_8.0: val_4 (0.0)
|   |   primaryPurposeId = val_4.0: val_4 (0.0)
|   |   primaryPurposeId = val_6.0: val_4 (0.0)
|   |   primaryPurposeId = val_7.0: val_2 (1.0)
|   |   primaryPurposeId = val_3.0: val_4 (0.0)
|   maxDischarge = (4900.0, 6206.0]: val_4 (102.0/44.0)
|   maxDischarge = (1.0, 5.394]: val_4 (309.0/125.0)
|   maxDischarge = (1600.0, 1801.0]: val_4 (44.0/17.0)
|   maxDischarge = (209.0, 236.0]: val_4 (6.0/4.0)
|   maxDischarge = (448.0, 495.0]: val_4 (15.0/8.0)
|   maxDischarge = (30.0, 48.0]: val_4 (4.0/2.0)
|   maxDischarge = (650.0, 713.0]: val_3 (20.0/11.0)
|   maxDischarge = (1160.0, 1275.0]: val_4 (22.0/11.0)
|   maxDischarge = (4000.0, 4900.0]: val_4 (87.0/38.0)
|   maxDischarge = (185.0, 209.0]: val_4 (5.0/3.0)
state = Kansas: val_2 (5211.0/474.0)
state = Maryland
|   nidStorage = (2880.0, 3586.0]: val_4 (1.0)
|   nidStorage = (57.5, 59.0]: val_4 (4.0/2.0)
|   nidStorage = (341.0, 362.0]
|   |   nidHeightId = val_3: val_4 (3.0/1.0)
|   |   nidHeightId = val_4: val_2 (3.0/1.0)
|   |   nidHeightId = val_2: val_2 (0.0)
|   |   nidHeightId = val_1: val_2 (0.0)
|   |   nidHeightId = val_5: val_2 (0.0)
|   nidStorage = (53.0, 55.0]: val_2 (5.0/1.0)
|   nidStorage = (63.8, 65.0]: val_2 (4.0/2.0)
|   nidStorage = (29.0, 32.719]
|   |   maxStorage = (3000.0, 3800.0]: val_3 (0.0)
|   |   maxStorage = (57.0, 59.0]: val_3 (0.0)
|   |   maxStorage = (336.0, 357.0]: val_3 (0.0)
|   |   maxStorage = (54.0, 55.5]: val_3 (0.0)
|   |   maxStorage = (63.0, 65.0]: val_3 (0.0)
|   |   maxStorage = (27.0, 30.343]: val_3 (3.0/1.0)
|   |   maxStorage = (1000.0, 1140.0]: val_3 (0.0)
|   |   maxStorage = (242.0, 253.0]: val_3 (0.0)
|   |   maxStorage = (184.0, 192.0]: val_3 (0.0)
|   |   maxStorage = (111.0, 115.0]: val_3 (0.0)
|   |   maxStorage = (143.0, 147.6]: val_3 (0.0)
|   |   maxStorage = (42.8, 47.0]: val_3 (0.0)
|   |   maxStorage = (300.0, 315.0]: val_3 (0.0)
|   |   maxStorage = (30.343, 35.0]: val_4 (3.0/1.0)
|   |   maxStorage = (281.0, 300.0]: val_3 (0.0)
|   |   maxStorage = (1295.0, 1494.45]: val_3 (0.0)
|   |   maxStorage = (253.0, 267.0]: val_3 (0.0)
|   |   maxStorage = (73.0, 75.0]: val_3 (0.0)
|   |   maxStorage = (115.0, 119.0]: val_3 (0.0)
|   |   maxStorage = (7200.0, 11400.0]: val_3 (0.0)
|   |   maxStorage = (55.5, 57.0]: val_3 (0.0)
|   |   maxStorage = (47.0, 50.0]: val_3 (0.0)
|   |   maxStorage = (607.0, 666.0]: val_3 (0.0)
|   |   maxStorage = (157.0, 162.0]: val_3 (0.0)
|   |   maxStorage = (814.0, 900.0]: val_3 (0.0)
|   |   maxStorage = (476.0, 514.0]: val_3 (0.0)
|   |   maxStorage = (39.0, 42.8]: val_3 (0.0)
|   |   maxStorage = (1494.45, 1740.0]: val_3 (0.0)
|   |   maxStorage = (94.9, 97.0]: val_3 (0.0)
|   |   maxStorage = (85.0, 87.0]: val_3 (0.0)
|   |   maxStorage = (68.0, 70.0]: val_3 (0.0)
|   |   maxStorage = (209.0, 220.0]: val_3 (0.0)
|   |   maxStorage = (383.0, 408.0]: val_3 (0.0)
|   |   maxStorage = (37533.2, 138182.0]: val_3 (0.0)
|   |   maxStorage = (19.0, 23.0]: val_3 (0.0)
|   |   maxStorage = (192.0, 200.0]: val_3 (0.0)
|   |   maxStorage = (121.0, 125.0]: val_3 (0.0)
|   |   maxStorage = (514.0, 560.0]: val_3 (0.0)
|   |   maxStorage = (177.0, 184.0]: val_3 (0.0)
|   |   maxStorage = (50.0, 51.0]: val_3 (0.0)
|   |   maxStorage = (5008.64, 7200.0]: val_3 (0.0)
|   |   maxStorage = (560.0, 607.0]: val_3 (0.0)
|   |   maxStorage = (3800.0, 5008.64]: val_3 (0.0)
|   |   maxStorage = (357.0, 383.0]: val_3 (0.0)
|   |   maxStorage = (315.0, 336.0]: val_3 (0.0)
|   |   maxStorage = (71.0, 73.0]: val_3 (0.0)
|   |   maxStorage = (66.0, 68.0]: val_3 (0.0)
|   |   maxStorage = (138182.0, 277540000.0]: val_3 (0.0)
|   |   maxStorage = (2026.79, 2461.96]: val_3 (0.0)
|   |   maxStorage = (11400.0, 15557.342]: val_3 (0.0)
|   |   maxStorage = (900.0, 1000.0]: val_3 (0.0)
|   |   maxStorage = (75.0, 77.0]: val_3 (0.0)
|   |   maxStorage = (2461.96, 3000.0]: val_3 (0.0)
|   |   maxStorage = (119.0, 121.0]: val_3 (0.0)
|   |   maxStorage = (59.0, 60.0]: val_3 (0.0)
|   |   maxStorage = (125.0, 129.0]: val_3 (0.0)
|   |   maxStorage = (105.0, 108.0]: val_3 (0.0)
|   |   maxStorage = (735.0, 814.0]: val_3 (0.0)
|   |   maxStorage = (90.0, 92.0]: val_3 (0.0)
|   |   maxStorage = (87.0, 90.0]: val_3 (0.0)
|   |   maxStorage = (23.0, 27.0]: val_3 (0.0)
|   |   maxStorage = (138.0, 143.0]: val_3 (0.0)
|   |   maxStorage = (666.0, 735.0]: val_3 (0.0)
|   |   maxStorage = (15932.0, 37533.2]: val_3 (0.0)
|   |   maxStorage = (35.0, 39.0]: val_3 (0.0)
|   |   maxStorage = (108.0, 111.0]: val_3 (0.0)
|   |   maxStorage = (267.0, 281.0]: val_3 (0.0)
|   |   maxStorage = (12.0, 19.0]: val_3 (0.0)
|   |   maxStorage = (151.0, 157.0]: val_3 (0.0)
|   |   maxStorage = (60.0, 61.0]: val_3 (0.0)
|   |   maxStorage = (80.0, 83.0]: val_3 (0.0)
|   |   maxStorage = (100.0, 102.0]: val_3 (0.0)
|   |   maxStorage = (162.0, 170.0]: val_3 (0.0)
|   |   maxStorage = (408.0, 440.0]: val_3 (0.0)
|   |   maxStorage = (51.0, 53.0]: val_3 (0.0)
|   |   maxStorage = (230.0, 242.0]: val_3 (0.0)
|   |   maxStorage = (1140.0, 1295.0]: val_3 (0.0)
|   |   maxStorage = (102.0, 105.0]: val_3 (0.0)
|   |   maxStorage = (77.0, 80.0]: val_3 (0.0)
|   |   maxStorage = (200.0, 209.0]: val_3 (0.0)
|   |   maxStorage = (53.0, 54.0]: val_3 (0.0)
|   |   maxStorage = (83.0, 85.0]: val_3 (0.0)
|   |   maxStorage = (1740.0, 2026.79]: val_3 (0.0)
|   |   maxStorage = (440.0, 476.0]: val_3 (0.0)
|   |   maxStorage = (61.0, 63.0]: val_3 (0.0)
|   |   maxStorage = (92.0, 94.9]: val_3 (0.0)
|   |   maxStorage = (-0.001, 12.0]: val_3 (0.0)
|   |   maxStorage = (133.5, 138.0]: val_3 (0.0)
|   |   maxStorage = (70.0, 71.0]: val_3 (0.0)
|   |   maxStorage = (129.0, 133.5]: val_3 (0.0)
|   |   maxStorage = (170.0, 177.0]: val_3 (0.0)
|   |   maxStorage = (220.0, 230.0]: val_3 (0.0)
|   |   maxStorage = (147.6, 151.0]: val_3 (0.0)
|   |   maxStorage = (97.0, 100.0]: val_3 (0.0)
|   |   maxStorage = (65.0, 66.0]: val_3 (0.0)
|   |   maxStorage = (15557.342, 15932.0]: val_3 (0.0)
|   nidStorage = (1000.0, 1130.0]: val_2 (0.0)
|   nidStorage = (248.0, 259.0]: val_2 (3.0)
|   nidStorage = (180.0, 188.888]: val_2 (1.0)
|   nidStorage = (110.0, 114.0]: val_4 (2.0/1.0)
|   nidStorage = (140.0, 145.0]: val_2 (2.0)
|   nidStorage = (44.2, 48.517]: val_3 (3.0/1.0)
|   nidStorage = (188.888, 197.0]: val_4 (4.0/1.0)
|   nidStorage = (300.0, 320.0]: val_3 (4.0/2.0)
|   nidStorage = (272.0, 288.0]: val_2 (0.0)
|   nidStorage = (1280.0, 1470.0]: val_2 (1.0)
|   nidStorage = (259.0, 272.0]: val_2 (2.0)
|   nidStorage = (73.0, 75.0]: val_2 (5.0/2.0)
|   nidStorage = (114.0, 118.0]: val_2 (4.0/1.0)
|   nidStorage = (6413.3, 9786.28]: val_4 (6.0/1.0)
|   nidStorage = (56.0, 57.5]: val_2 (0.0)
|   nidStorage = (48.517, 50.0]: val_2 (9.0/4.0)
|   nidStorage = (611.0, 670.0]: val_2 (0.0)
|   nidStorage = (155.0, 160.0]: val_2 (2.0)
|   nidStorage = (814.0, 900.0]
|   |   nidHeightId = val_3: val_3 (0.0)
|   |   nidHeightId = val_4: val_4 (2.0/1.0)
|   |   nidHeightId = val_2: val_3 (2.0)
|   |   nidHeightId = val_1: val_3 (0.0)
|   |   nidHeightId = val_5: val_3 (0.0)
|   nidStorage = (481.036, 520.0]: val_2 (4.0/1.0)
|   nidStorage = (36.232, 40.0]: val_2 (2.0)
|   nidStorage = (1470.0, 1700.0]: val_4 (3.0/1.0)
|   nidStorage = (96.0, 100.0]: val_2 (10.0/3.0)
|   nidStorage = (85.0, 87.0]: val_3 (1.0)
|   nidStorage = (68.0, 70.0]: val_2 (3.0/1.0)
|   nidStorage = (212.171, 224.0]: val_4 (3.0/1.0)
|   nidStorage = (390.0, 415.0]: val_4 (1.0)
|   nidStorage = (40200.0, 146877.43]: val_4 (5.0)
|   nidStorage = (17.451, 21.0]: val_3 (8.0/4.0)
|   nidStorage = (197.0, 203.0]: val_2 (0.0)
|   nidStorage = (124.0, 128.0]: val_2 (4.0/1.0)
|   nidStorage = (40.0, 44.2]: val_2 (3.0/1.0)
|   nidStorage = (520.0, 563.0]: val_3 (2.0)
|   nidStorage = (173.697, 180.0]: val_2 (4.0/2.0)
|   nidStorage = (50.0, 52.0]: val_2 (7.0/2.0)
|   nidStorage = (563.0, 611.0]: val_3 (3.0)
|   nidStorage = (3586.0, 4650.0]: val_2 (1.0)
|   nidStorage = (17000.0, 40200.0]: val_4 (1.0)
|   nidStorage = (362.0, 390.0]: val_2 (3.0/1.0)
|   nidStorage = (320.0, 341.0]: val_4 (2.0/1.0)
|   nidStorage = (71.432, 73.0]: val_2 (2.0/1.0)
|   nidStorage = (65.0, 67.0]: val_2 (4.0/2.0)
|   nidStorage = (146877.43, 277540000.0]: val_4 (1.0)
|   nidStorage = (2000.0, 2383.94]: val_3 (1.0)
|   nidStorage = (59.0, 60.0]: val_2 (5.0)
|   nidStorage = (900.0, 1000.0]: val_4 (4.0)
|   nidStorage = (75.0, 77.0]: val_2 (5.0/2.0)
|   nidStorage = (2383.94, 2880.0]: val_4 (3.0)
|   nidStorage = (118.0, 120.0]: val_2 (4.0/1.0)
|   nidStorage = (105.0, 108.0]: val_2 (4.0/2.0)
|   nidStorage = (120.0, 124.0]: val_2 (5.0)
|   nidStorage = (737.0, 814.0]: val_2 (3.0/1.0)
|   nidStorage = (90.0, 91.0]: val_2 (3.0)
|   nidStorage = (87.0, 90.0]: val_2 (4.0)
|   nidStorage = (25.0, 29.0]: val_3 (5.0/2.0)
|   nidStorage = (136.0, 140.0]: val_3 (1.0)
|   nidStorage = (4650.0, 6413.3]: val_4 (2.0/1.0)
|   nidStorage = (-0.001, 10.0]: val_3 (37.0/6.0)
|   nidStorage = (236.0, 248.0]: val_2 (2.0)
|   nidStorage = (670.0, 737.0]: val_4 (3.0/1.0)
|   nidStorage = (288.0, 300.0]: val_2 (4.0/2.0)
|   nidStorage = (32.719, 36.232]: val_2 (8.0/5.0)
|   nidStorage = (55.0, 56.0]: val_2 (1.0)
|   nidStorage = (9786.28, 17000.0]: val_4 (2.0/1.0)
|   nidStorage = (52.0, 53.0]: val_2 (2.0/1.0)
|   nidStorage = (150.0, 155.0]: val_3 (1.0)
|   nidStorage = (60.0, 62.0]: val_4 (2.0/1.0)
|   nidStorage = (80.0, 83.0]: val_2 (7.0/4.0)
|   nidStorage = (100.0, 101.0]: val_2 (0.0)
|   nidStorage = (160.0, 166.0]: val_3 (3.0/1.0)
|   nidStorage = (415.0, 448.0]: val_2 (2.0/1.0)
|   nidStorage = (1130.0, 1280.0]: val_4 (5.0/3.0)
|   nidStorage = (128.0, 132.0]: val_2 (3.0/1.0)
|   nidStorage = (224.0, 236.0]: val_2 (4.0/1.0)
|   nidStorage = (101.0, 105.0]: val_3 (1.0)
|   nidStorage = (77.0, 80.0]
|   |   primaryPurposeId = val_9.0: val_2 (1.0)
|   |   primaryPurposeId = val_2.0: val_4 (1.0)
|   |   primaryPurposeId = val_10.0: val_4 (0.0)
|   |   primaryPurposeId = val_1.0: val_4 (0.0)
|   |   primaryPurposeId = val_11.0: val_4 (0.0)
|   |   primaryPurposeId = val_12.0: val_4 (0.0)
|   |   primaryPurposeId = val_5.0: val_2 (4.0/2.0)
|   |   primaryPurposeId = val_8.0: val_4 (2.0)
|   |   primaryPurposeId = val_4.0: val_4 (0.0)
|   |   primaryPurposeId = val_6.0: val_4 (0.0)
|   |   primaryPurposeId = val_7.0: val_4 (0.0)
|   |   primaryPurposeId = val_3.0: val_4 (0.0)
|   nidStorage = (203.0, 212.171]: val_2 (2.0/1.0)
|   nidStorage = (83.0, 85.0]: val_2 (3.0)
|   nidStorage = (1700.0, 2000.0]: val_4 (4.0/2.0)
|   nidStorage = (448.0, 481.036]: val_2 (1.0)
|   nidStorage = (21.0, 25.0]: val_3 (8.0/4.0)
|   nidStorage = (91.0, 94.0]: val_2 (0.0)
|   nidStorage = (132.0, 136.0]: val_2 (6.0/1.0)
|   nidStorage = (70.0, 71.432]: val_2 (0.0)
|   nidStorage = (94.0, 96.0]: val_2 (0.0)
|   nidStorage = (10.0, 17.451]: val_3 (11.0/4.0)
|   nidStorage = (108.0, 110.0]: val_2 (0.0)
|   nidStorage = (67.0, 68.0]: val_2 (4.0/1.0)
|   nidStorage = (62.0, 63.8]: val_2 (2.0)
|   nidStorage = (166.0, 173.697]: val_4 (2.0/1.0)
|   nidStorage = (145.0, 150.0]: val_2 (4.0/1.0)
state = Virginia: val_1 (2179.0/745.0)
state = Iowa: val_2 (3314.0/303.0)
state = Michigan: val_2 (838.0/264.0)
state = Minnesota: val_2 (918.0/175.0)
state = Colorado
|   nidStorage = (2880.0, 3586.0]: val_4 (22.0/10.0)
|   nidStorage = (57.5, 59.0]: val_2 (9.0)
|   nidStorage = (341.0, 362.0]: val_2 (20.0/4.0)
|   nidStorage = (53.0, 55.0]: val_2 (10.0/1.0)
|   nidStorage = (63.8, 65.0]: val_2 (18.0/1.0)
|   nidStorage = (29.0, 32.719]
|   |   nidHeightId = val_3: val_2 (7.0)
|   |   nidHeightId = val_4: val_3 (2.0)
|   |   nidHeightId = val_2: val_2 (2.0)
|   |   nidHeightId = val_1: val_2 (0.0)
|   |   nidHeightId = val_5: val_2 (0.0)
|   nidStorage = (1000.0, 1130.0]: val_4 (20.0/10.0)
|   nidStorage = (248.0, 259.0]: val_2 (21.0/9.0)
|   nidStorage = (180.0, 188.888]
|   |   huc2 = val_13: val_2 (0.0)
|   |   huc2 = val_10: val_2 (9.0)
|   |   huc2 = val_2: val_2 (0.0)
|   |   huc2 = val_7: val_2 (0.0)
|   |   huc2 = val_4: val_2 (0.0)
|   |   huc2 = val_14: val_2 (7.0)
|   |   huc2 = val_11: val_3 (2.0)
|   |   huc2 = val_12: val_2 (0.0)
|   |   huc2 = val_1: val_2 (0.0)
|   |   huc2 = val_3: val_2 (0.0)
|   |   huc2 = val_18: val_2 (0.0)
|   |   huc2 = val_17: val_2 (0.0)
|   |   huc2 = val_15: val_2 (0.0)
|   |   huc2 = val_5: val_2 (0.0)
|   |   huc2 = val_8: val_2 (0.0)
|   |   huc2 = val_9: val_2 (0.0)
|   |   huc2 = val_6: val_2 (0.0)
|   |   huc2 = val_19: val_2 (0.0)
|   |   huc2 = val_16: val_2 (0.0)
|   |   huc2 = val_20: val_2 (0.0)
|   |   huc2 = val_21: val_2 (0.0)
|   |   huc2 = val_22: val_2 (0.0)
|   nidStorage = (110.0, 114.0]: val_2 (12.0/2.0)
|   nidStorage = (140.0, 145.0]: val_2 (11.0/4.0)
|   nidStorage = (44.2, 48.517]: val_2 (12.0/3.0)
|   nidStorage = (188.888, 197.0]: val_2 (22.0/8.0)
|   nidStorage = (300.0, 320.0]: val_2 (22.0/6.0)
|   nidStorage = (272.0, 288.0]: val_2 (19.0/3.0)
|   nidStorage = (1280.0, 1470.0]: val_4 (22.0/14.0)
|   nidStorage = (259.0, 272.0]: val_2 (22.0/3.0)
|   nidStorage = (73.0, 75.0]: val_2 (17.0/1.0)
|   nidStorage = (114.0, 118.0]: val_2 (13.0)
|   nidStorage = (6413.3, 9786.28]: val_4 (33.0/9.0)
|   nidStorage = (56.0, 57.5]: val_2 (3.0)
|   nidStorage = (48.517, 50.0]: val_2 (27.0/3.0)
|   nidStorage = (611.0, 670.0]
|   |   volume = (110169.3, 149261.956]: val_3 (9.0/3.0)
|   |   volume = (14400.0, 15600.0]: val_2 (0.0)
|   |   volume = (17100.0, 18817.68]: val_4 (1.0)
|   |   volume = (-0.001, 100.0]: val_2 (1.0)
|   |   volume = (18817.68, 20624.75]: val_2 (0.0)
|   |   volume = (56829.14, 68643.1]: val_2 (2.0)
|   |   volume = (10958.486, 12000.0]: val_2 (0.0)
|   |   volume = (39548.0, 47399.76]: val_2 (0.0)
|   |   volume = (47399.76, 56829.14]: val_2 (2.0)
|   |   volume = (68643.1, 85000.0]: val_2 (0.0)
|   |   volume = (20624.75, 23000.0]: val_2 (0.0)
|   |   volume = (8772.26, 9959.59]: val_2 (0.0)
|   |   volume = (12000.0, 13200.0]: val_2 (0.0)
|   |   volume = (28889.46, 33300.0]: val_2 (0.0)
|   |   volume = (910000.0, 125628000.0]: val_2 (0.0)
|   |   volume = (9959.59, 10958.486]: val_2 (0.0)
|   |   volume = (154214.01, 271898.0]: val_2 (0.0)
|   |   volume = (271898.0, 910000.0]: val_2 (0.0)
|   |   volume = (100.0, 1858.7]: val_4 (1.0)
|   |   volume = (85000.0, 110169.3]: val_4 (5.0/2.0)
|   |   volume = (23000.0, 25488.48]: val_2 (0.0)
|   |   volume = (6391.16, 7672.25]: val_2 (1.0)
|   |   volume = (13200.0, 14400.0]: val_2 (0.0)
|   |   volume = (15600.0, 17100.0]: val_3 (1.0)
|   |   volume = (33300.0, 39548.0]: val_4 (2.0/1.0)
|   |   volume = (7672.25, 8772.26]: val_2 (0.0)
|   |   volume = (25488.48, 28889.46]: val_3 (2.0)
|   |   volume = (4700.0, 6391.16]: val_2 (1.0)
|   |   volume = (1858.7, 4700.0]: val_2 (1.0)
|   |   volume = (149261.956, 154214.01]: val_2 (0.0)
|   nidStorage = (155.0, 160.0]: val_2 (17.0)
|   nidStorage = (814.0, 900.0]: val_2 (32.0/19.0)
|   nidStorage = (481.036, 520.0]: val_2 (25.0/9.0)
|   nidStorage = (36.232, 40.0]: val_2 (12.0/2.0)
|   nidStorage = (1470.0, 1700.0]
|   |   nidHeight = (34.0, 35.0]: val_4 (0.0)
|   |   nidHeight = (29.0, 30.0]: val_4 (0.0)
|   |   nidHeight = (28.0, 29.0]: val_4 (0.0)
|   |   nidHeight = (17.0, 18.0]: val_4 (0.0)
|   |   nidHeight = (31.0, 32.0]: val_4 (0.0)
|   |   nidHeight = (24.0, 25.0]: val_4 (0.0)
|   |   nidHeight = (44.0, 48.0]: val_4 (0.0)
|   |   nidHeight = (39.0, 41.0]: val_4 (0.0)
|   |   nidHeight = (19.0, 20.0]: val_4 (1.0)
|   |   nidHeight = (21.0, 22.0]: val_4 (0.0)
|   |   nidHeight = (20.0, 21.0]: val_4 (0.0)
|   |   nidHeight = (37.0, 39.0]: val_4 (0.0)
|   |   nidHeight = (32.0, 33.0]: val_4 (0.0)
|   |   nidHeight = (14.0, 15.0]: val_4 (0.0)
|   |   nidHeight = (9.0, 10.0]: val_4 (0.0)
|   |   nidHeight = (54.0, 65.0]: val_3 (3.0/1.0)
|   |   nidHeight = (35.0, 37.0]: val_4 (0.0)
|   |   nidHeight = (48.0, 54.0]: val_4 (0.0)
|   |   nidHeight = (15.0, 16.0]: val_4 (0.0)
|   |   nidHeight = (12.0, 13.0]: val_4 (0.0)
|   |   nidHeight = (18.0, 19.0]: val_4 (0.0)
|   |   nidHeight = (65.0, 95.0]: val_4 (3.0)
|   |   nidHeight = (33.0, 34.0]: val_4 (0.0)
|   |   nidHeight = (25.0, 26.0]: val_4 (0.0)
|   |   nidHeight = (11.0, 12.0]: val_2 (1.0)
|   |   nidHeight = (30.0, 31.0]: val_3 (1.0)
|   |   nidHeight = (95.0, 789.0]: val_4 (0.0)
|   |   nidHeight = (16.0, 17.0]: val_4 (0.0)
|   |   nidHeight = (10.0, 11.0]: val_4 (0.0)
|   |   nidHeight = (26.0, 27.0]: val_2 (2.0/1.0)
|   |   nidHeight = (7.0, 9.0]: val_4 (0.0)
|   |   nidHeight = (27.0, 28.0]: val_4 (0.0)
|   |   nidHeight = (13.0, 14.0]: val_4 (0.0)
|   |   nidHeight = (22.0, 23.0]: val_2 (1.0)
|   |   nidHeight = (-0.001, 7.0]: val_4 (0.0)
|   |   nidHeight = (41.0, 44.0]: val_3 (1.0)
|   |   nidHeight = (23.0, 24.0]: val_2 (1.0)
|   nidStorage = (96.0, 100.0]: val_2 (32.0/2.0)
|   nidStorage = (85.0, 87.0]: val_2 (10.0/2.0)
|   nidStorage = (68.0, 70.0]: val_2 (17.0/2.0)
|   nidStorage = (212.171, 224.0]: val_2 (22.0/5.0)
|   nidStorage = (390.0, 415.0]: val_2 (18.0/5.0)
|   nidStorage = (40200.0, 146877.43]: val_4 (41.0/4.0)
|   nidStorage = (17.451, 21.0]
|   |   nidHeightId = val_3: val_2 (11.0)
|   |   nidHeightId = val_4: val_3 (2.0)
|   |   nidHeightId = val_2: val_2 (2.0)
|   |   nidHeightId = val_1: val_2 (0.0)
|   |   nidHeightId = val_5: val_2 (0.0)
|   nidStorage = (197.0, 203.0]: val_2 (18.0/4.0)
|   nidStorage = (124.0, 128.0]: val_2 (12.0/4.0)
|   nidStorage = (40.0, 44.2]: val_2 (9.0/2.0)
|   nidStorage = (520.0, 563.0]: val_2 (24.0/12.0)
|   nidStorage = (173.697, 180.0]: val_2 (20.0/6.0)
|   nidStorage = (50.0, 52.0]: val_2 (12.0/2.0)
|   nidStorage = (563.0, 611.0]: val_3 (24.0/14.0)
|   nidStorage = (3586.0, 4650.0]: val_4 (31.0/12.0)
|   nidStorage = (17000.0, 40200.0]: val_4 (29.0/1.0)
|   nidStorage = (362.0, 390.0]: val_2 (22.0/4.0)
|   nidStorage = (320.0, 341.0]
|   |   primaryPurposeId = val_9.0: val_4 (1.0)
|   |   primaryPurposeId = val_2.0: val_2 (6.0/1.0)
|   |   primaryPurposeId = val_10.0: val_2 (0.0)
|   |   primaryPurposeId = val_1.0: val_2 (0.0)
|   |   primaryPurposeId = val_11.0: val_2 (0.0)
|   |   primaryPurposeId = val_12.0: val_2 (0.0)
|   |   primaryPurposeId = val_5.0: val_2 (2.0/1.0)
|   |   primaryPurposeId = val_8.0: val_4 (3.0)
|   |   primaryPurposeId = val_4.0: val_2 (0.0)
|   |   primaryPurposeId = val_6.0: val_2 (0.0)
|   |   primaryPurposeId = val_7.0: val_2 (0.0)
|   |   primaryPurposeId = val_3.0: val_2 (0.0)
|   nidStorage = (71.432, 73.0]: val_2 (8.0/1.0)
|   nidStorage = (65.0, 67.0]: val_2 (8.0/1.0)
|   nidStorage = (146877.43, 277540000.0]: val_4 (19.0)
|   nidStorage = (2000.0, 2383.94]
|   |   structuralHeight = (33.0, 35.0]: val_4 (0.0)
|   |   structuralHeight = (29.745, 30.0]: val_4 (0.0)
|   |   structuralHeight = (28.0, 29.745]: val_4 (0.0)
|   |   structuralHeight = (24.0, 25.0]: val_4 (0.0)
|   |   structuralHeight = (40.0, 45.0]: val_4 (1.0)
|   |   structuralHeight = (37.0, 40.0]: val_2 (1.0)
|   |   structuralHeight = (19.0, 20.0]: val_2 (1.0)
|   |   structuralHeight = (20.0, 22.0]: val_4 (0.0)
|   |   structuralHeight = (31.0, 33.0]: val_4 (2.0/1.0)
|   |   structuralHeight = (16.0, 18.0]: val_2 (1.0)
|   |   structuralHeight = (14.0, 15.0]: val_2 (2.0)
|   |   structuralHeight = (9.0, 11.0]: val_4 (0.0)
|   |   structuralHeight = (35.0, 37.0]: val_4 (0.0)
|   |   structuralHeight = (15.0, 16.0]: val_4 (0.0)
|   |   structuralHeight = (11.0, 13.0]: val_3 (2.0)
|   |   structuralHeight = (18.0, 19.0]: val_4 (0.0)
|   |   structuralHeight = (74.0, 770.0]: val_4 (3.0/1.0)
|   |   structuralHeight = (25.0, 26.0]: val_2 (1.0)
|   |   structuralHeight = (30.0, 31.0]: val_4 (0.0)
|   |   structuralHeight = (45.0, 52.0]: val_4 (3.0)
|   |   structuralHeight = (52.0, 74.0]: val_4 (6.0/2.0)
|   |   structuralHeight = (26.0, 27.0]: val_4 (0.0)
|   |   structuralHeight = (-0.001, 9.0]: val_4 (0.0)
|   |   structuralHeight = (27.0, 28.0]: val_4 (0.0)
|   |   structuralHeight = (13.0, 14.0]: val_2 (1.0)
|   |   structuralHeight = (22.0, 23.0]: val_3 (2.0)
|   |   structuralHeight = (23.0, 24.0]: val_3 (1.0)
|   nidStorage = (59.0, 60.0]: val_2 (14.0/3.0)
|   nidStorage = (900.0, 1000.0]: val_4 (13.0/6.0)
|   nidStorage = (75.0, 77.0]: val_2 (7.0)
|   nidStorage = (2383.94, 2880.0]: val_4 (20.0/10.0)
|   nidStorage = (118.0, 120.0]: val_2 (14.0/3.0)
|   nidStorage = (105.0, 108.0]: val_2 (11.0)
|   nidStorage = (120.0, 124.0]: val_2 (9.0)
|   nidStorage = (737.0, 814.0]: val_2 (23.0/11.0)
|   nidStorage = (90.0, 91.0]: val_2 (9.0/3.0)
|   nidStorage = (87.0, 90.0]: val_2 (20.0/1.0)
|   nidStorage = (25.0, 29.0]: val_2 (5.0/2.0)
|   nidStorage = (136.0, 140.0]: val_2 (16.0/1.0)
|   nidStorage = (4650.0, 6413.3]: val_4 (23.0/8.0)
|   nidStorage = (-0.001, 10.0]: val_3 (5.0/1.0)
|   nidStorage = (236.0, 248.0]: val_2 (29.0/6.0)
|   nidStorage = (670.0, 737.0]: val_2 (22.0/9.0)
|   nidStorage = (288.0, 300.0]: val_2 (15.0/7.0)
|   nidStorage = (32.719, 36.232]: val_2 (14.0/5.0)
|   nidStorage = (55.0, 56.0]: val_2 (8.0)
|   nidStorage = (9786.28, 17000.0]: val_4 (43.0/13.0)
|   nidStorage = (52.0, 53.0]: val_2 (6.0)
|   nidStorage = (150.0, 155.0]: val_2 (14.0/1.0)
|   nidStorage = (60.0, 62.0]: val_2 (13.0/2.0)
|   nidStorage = (80.0, 83.0]: val_2 (9.0/2.0)
|   nidStorage = (100.0, 101.0]: val_2 (2.0)
|   nidStorage = (160.0, 166.0]: val_2 (14.0/2.0)
|   nidStorage = (415.0, 448.0]: val_2 (27.0/15.0)
|   nidStorage = (1130.0, 1280.0]: val_4 (27.0/16.0)
|   nidStorage = (128.0, 132.0]: val_2 (16.0/3.0)
|   nidStorage = (224.0, 236.0]: val_2 (16.0/1.0)
|   nidStorage = (101.0, 105.0]: val_2 (14.0/1.0)
|   nidStorage = (77.0, 80.0]: val_2 (13.0/2.0)
|   nidStorage = (203.0, 212.171]: val_2 (11.0/3.0)
|   nidStorage = (83.0, 85.0]: val_2 (13.0/1.0)
|   nidStorage = (1700.0, 2000.0]: val_4 (22.0/7.0)
|   nidStorage = (448.0, 481.036]: val_2 (12.0/3.0)
|   nidStorage = (21.0, 25.0]
|   |   nidHeightId = val_3: val_2 (13.0)
|   |   nidHeightId = val_4: val_3 (3.0)
|   |   nidHeightId = val_2: val_2 (0.0)
|   |   nidHeightId = val_1: val_2 (0.0)
|   |   nidHeightId = val_5: val_2 (0.0)
|   nidStorage = (91.0, 94.0]: val_2 (9.0)
|   nidStorage = (132.0, 136.0]: val_2 (8.0/1.0)
|   nidStorage = (70.0, 71.432]: val_2 (2.0/1.0)
|   nidStorage = (94.0, 96.0]
|   |   huc2 = val_13: val_2 (0.0)
|   |   huc2 = val_10: val_2 (1.0)
|   |   huc2 = val_2: val_2 (0.0)
|   |   huc2 = val_7: val_2 (0.0)
|   |   huc2 = val_4: val_2 (0.0)
|   |   huc2 = val_14: val_2 (2.0)
|   |   huc2 = val_11: val_3 (2.0)
|   |   huc2 = val_12: val_2 (0.0)
|   |   huc2 = val_1: val_2 (0.0)
|   |   huc2 = val_3: val_2 (0.0)
|   |   huc2 = val_18: val_2 (0.0)
|   |   huc2 = val_17: val_2 (0.0)
|   |   huc2 = val_15: val_2 (0.0)
|   |   huc2 = val_5: val_2 (0.0)
|   |   huc2 = val_8: val_2 (0.0)
|   |   huc2 = val_9: val_2 (0.0)
|   |   huc2 = val_6: val_2 (0.0)
|   |   huc2 = val_19: val_2 (0.0)
|   |   huc2 = val_16: val_2 (0.0)
|   |   huc2 = val_20: val_2 (0.0)
|   |   huc2 = val_21: val_2 (0.0)
|   |   huc2 = val_22: val_2 (0.0)
|   nidStorage = (10.0, 17.451]
|   |   nidHeightId = val_3: val_2 (4.0/1.0)
|   |   nidHeightId = val_4: val_3 (5.0)
|   |   nidHeightId = val_2: val_3 (0.0)
|   |   nidHeightId = val_1: val_3 (0.0)
|   |   nidHeightId = val_5: val_3 (0.0)
|   nidStorage = (108.0, 110.0]: val_2 (9.0/1.0)
|   nidStorage = (67.0, 68.0]: val_2 (7.0)
|   nidStorage = (62.0, 63.8]: val_2 (7.0)
|   nidStorage = (166.0, 173.697]: val_2 (22.0/4.0)
|   nidStorage = (145.0, 150.0]: val_2 (21.0/3.0)
state = South Dakota: val_2 (2060.0/187.0)
state = Missouri
|   hydraulicHeight = (31.0, 34.0]: val_2 (157.0/12.0)
|   hydraulicHeight = (22.0, 23.0]: val_2 (77.0/2.0)
|   hydraulicHeight = (26.0, 26.426]
|   |   damHeight = (32.0, 34.0]: val_4 (153.0/64.0)
|   |   damHeight = (24.0, 25.0]: val_2 (658.0/180.0)
|   |   damHeight = (28.012, 29.0]: val_4 (49.0/24.0)
|   |   damHeight = (17.0, 18.0]: val_2 (27.0/12.0)
|   |   damHeight = (31.0, 32.0]: val_4 (76.0/32.0)
|   |   damHeight = (41.0, 45.0]: val_4 (75.0/25.0)
|   |   damHeight = (39.0, 41.0]: val_4 (56.0/23.0)
|   |   damHeight = (19.0, 20.0]: val_2 (197.0/56.0)
|   |   damHeight = (21.0, 22.0]: val_2 (47.0/20.0)
|   |   damHeight = (20.0, 21.0]: val_4 (25.0/11.0)
|   |   damHeight = (37.0, 39.0]: val_4 (59.0/22.0)
|   |   damHeight = (28.0, 28.012]: val_4 (3.0/1.0)
|   |   damHeight = (9.0, 10.0]: val_2 (30.0/3.0)
|   |   damHeight = (0.999, 8.0]: val_4 (4.0/1.0)
|   |   damHeight = (50.0, 59.0]: val_4 (67.0/7.0)
|   |   damHeight = (14.0, 15.0]: val_2 (92.0/14.0)
|   |   damHeight = (45.0, 50.0]: val_4 (78.0/30.0)
|   |   damHeight = (29.0, 30.0]: val_2 (323.0/130.0)
|   |   damHeight = (15.0, 16.0]: val_2 (14.0/6.0)
|   |   damHeight = (12.0, 13.0]: val_4 (7.0/3.0)
|   |   damHeight = (35.0, 37.0]: val_4 (54.0/27.0)
|   |   damHeight = (83.0, 789.0]: val_4 (25.0)
|   |   damHeight = (25.0, 26.0]: val_4 (65.0/30.0)
|   |   damHeight = (11.0, 12.0]: val_2 (15.0/3.0)
|   |   damHeight = (27.0, 28.0]: val_2 (72.0/37.0)
|   |   damHeight = (59.0, 83.0]: val_4 (68.0/8.0)
|   |   damHeight = (16.0, 17.0]: val_2 (14.0/3.0)
|   |   damHeight = (34.0, 35.0]: val_4 (21.0/11.0)
|   |   damHeight = (10.0, 11.0]: val_2 (0.0)
|   |   damHeight = (26.0, 27.0]: val_2 (65.0/25.0)
|   |   damHeight = (8.0, 9.0]: val_2 (1.0)
|   |   damHeight = (13.0, 14.0]: val_2 (7.0/3.0)
|   |   damHeight = (30.0, 31.0]: val_4 (35.0/16.0)
|   |   damHeight = (22.0, 23.0]: val_2 (32.0/15.0)
|   |   damHeight = (23.0, 24.0]: val_2 (43.0/19.0)
|   |   damHeight = (18.0, 19.0]: val_2 (17.0/6.0)
|   hydraulicHeight = (24.0, 25.0]: val_2 (188.0/10.0)
|   hydraulicHeight = (37.0, 41.0]: val_4 (15.0/8.0)
|   hydraulicHeight = (27.0, 29.0]: val_2 (231.0/10.0)
|   hydraulicHeight = (19.0, 20.0]: val_2 (62.0/10.0)
|   hydraulicHeight = (21.0, 22.0]: val_2 (108.0/4.0)
|   hydraulicHeight = (16.0, 17.0]: val_2 (29.0/1.0)
|   hydraulicHeight = (34.0, 37.0]
|   |   volume = (110169.3, 149261.956]: val_4 (10.0/4.0)
|   |   volume = (14400.0, 15600.0]: val_2 (1.0)
|   |   volume = (17100.0, 18817.68]: val_2 (0.0)
|   |   volume = (-0.001, 100.0]: val_3 (1.0)
|   |   volume = (18817.68, 20624.75]: val_2 (3.0)
|   |   volume = (56829.14, 68643.1]: val_2 (1.0)
|   |   volume = (10958.486, 12000.0]: val_2 (0.0)
|   |   volume = (39548.0, 47399.76]: val_2 (1.0)
|   |   volume = (47399.76, 56829.14]: val_4 (1.0)
|   |   volume = (68643.1, 85000.0]: val_2 (0.0)
|   |   volume = (20624.75, 23000.0]: val_2 (0.0)
|   |   volume = (8772.26, 9959.59]: val_2 (0.0)
|   |   volume = (12000.0, 13200.0]: val_2 (0.0)
|   |   volume = (28889.46, 33300.0]: val_2 (2.0/1.0)
|   |   volume = (910000.0, 125628000.0]: val_2 (0.0)
|   |   volume = (9959.59, 10958.486]: val_2 (0.0)
|   |   volume = (154214.01, 271898.0]: val_2 (0.0)
|   |   volume = (271898.0, 910000.0]: val_2 (0.0)
|   |   volume = (100.0, 1858.7]: val_2 (0.0)
|   |   volume = (85000.0, 110169.3]: val_2 (0.0)
|   |   volume = (23000.0, 25488.48]: val_2 (2.0)
|   |   volume = (6391.16, 7672.25]: val_2 (0.0)
|   |   volume = (13200.0, 14400.0]: val_2 (1.0)
|   |   volume = (15600.0, 17100.0]: val_2 (0.0)
|   |   volume = (33300.0, 39548.0]: val_2 (0.0)
|   |   volume = (7672.25, 8772.26]: val_2 (2.0)
|   |   volume = (25488.48, 28889.46]: val_2 (0.0)
|   |   volume = (4700.0, 6391.16]: val_2 (0.0)
|   |   volume = (1858.7, 4700.0]: val_2 (0.0)
|   |   volume = (149261.956, 154214.01]: val_2 (0.0)
|   hydraulicHeight = (17.0, 18.0]: val_2 (29.0/2.0)
|   hydraulicHeight = (7.0, 9.0]: val_2 (0.0)
|   hydraulicHeight = (-0.001, 7.0]: val_2 (1.0)
|   hydraulicHeight = (9.0, 10.0]: val_2 (2.0)
|   hydraulicHeight = (41.0, 49.0]: val_4 (18.0/7.0)
|   hydraulicHeight = (10.0, 12.0]
|   |   nidHeightId = val_3: val_3 (3.0)
|   |   nidHeightId = val_4: val_2 (5.0)
|   |   nidHeightId = val_2: val_2 (0.0)
|   |   nidHeightId = val_1: val_2 (0.0)
|   |   nidHeightId = val_5: val_2 (0.0)
|   hydraulicHeight = (18.0, 19.0]: val_2 (35.0/5.0)
|   hydraulicHeight = (69.0, 776.0]: val_4 (24.0/4.0)
|   hydraulicHeight = (20.0, 21.0]: val_2 (60.0/6.0)
|   hydraulicHeight = (25.0, 26.0]: val_2 (159.0/4.0)
|   hydraulicHeight = (29.0, 30.0]: val_2 (80.0/6.0)
|   hydraulicHeight = (14.0, 15.0]: val_2 (14.0/1.0)
|   hydraulicHeight = (12.0, 13.0]
|   |   huc2 = val_13: val_2 (0.0)
|   |   huc2 = val_10: val_2 (6.0)
|   |   huc2 = val_2: val_2 (0.0)
|   |   huc2 = val_7: val_4 (2.0/1.0)
|   |   huc2 = val_4: val_2 (0.0)
|   |   huc2 = val_14: val_2 (0.0)
|   |   huc2 = val_11: val_2 (0.0)
|   |   huc2 = val_12: val_2 (0.0)
|   |   huc2 = val_1: val_2 (0.0)
|   |   huc2 = val_3: val_2 (0.0)
|   |   huc2 = val_18: val_2 (0.0)
|   |   huc2 = val_17: val_2 (0.0)
|   |   huc2 = val_15: val_2 (0.0)
|   |   huc2 = val_5: val_2 (0.0)
|   |   huc2 = val_8: val_2 (0.0)
|   |   huc2 = val_9: val_2 (0.0)
|   |   huc2 = val_6: val_2 (0.0)
|   |   huc2 = val_19: val_2 (0.0)
|   |   huc2 = val_16: val_2 (0.0)
|   |   huc2 = val_20: val_2 (0.0)
|   |   huc2 = val_21: val_2 (0.0)
|   |   huc2 = val_22: val_2 (0.0)
|   hydraulicHeight = (26.426, 27.0]: val_2 (148.0/6.0)
|   hydraulicHeight = (13.0, 14.0]: val_2 (14.0/1.0)
|   hydraulicHeight = (23.0, 24.0]: val_2 (185.0/7.0)
|   hydraulicHeight = (15.0, 16.0]: val_2 (16.0)
|   hydraulicHeight = (30.0, 31.0]: val_2 (64.0/6.0)
|   hydraulicHeight = (49.0, 69.0]: val_4 (17.0/3.0)
state = Montana: val_2 (2389.0/313.0)
state = Rhode Island
|   nidStorage = (2880.0, 3586.0]: val_4 (1.0)
|   nidStorage = (57.5, 59.0]: val_4 (0.0)
|   nidStorage = (341.0, 362.0]: val_2 (3.0/1.0)
|   nidStorage = (53.0, 55.0]: val_4 (2.0/1.0)
|   nidStorage = (63.8, 65.0]: val_2 (2.0/1.0)
|   nidStorage = (29.0, 32.719]: val_3 (1.0)
|   nidStorage = (1000.0, 1130.0]: val_4 (2.0)
|   nidStorage = (248.0, 259.0]: val_4 (4.0/1.0)
|   nidStorage = (180.0, 188.888]: val_2 (2.0/1.0)
|   nidStorage = (110.0, 114.0]: val_2 (1.0)
|   nidStorage = (140.0, 145.0]: val_4 (2.0/1.0)
|   nidStorage = (44.2, 48.517]: val_4 (0.0)
|   nidStorage = (188.888, 197.0]: val_4 (3.0/2.0)
|   nidStorage = (300.0, 320.0]: val_4 (3.0)
|   nidStorage = (272.0, 288.0]: val_2 (3.0)
|   nidStorage = (1280.0, 1470.0]: val_4 (4.0/1.0)
|   nidStorage = (259.0, 272.0]: val_3 (2.0)
|   nidStorage = (73.0, 75.0]: val_2 (2.0/1.0)
|   nidStorage = (114.0, 118.0]: val_4 (0.0)
|   nidStorage = (6413.3, 9786.28]: val_4 (2.0)
|   nidStorage = (56.0, 57.5]: val_4 (0.0)
|   nidStorage = (48.517, 50.0]: val_2 (7.0/2.0)
|   nidStorage = (611.0, 670.0]: val_4 (2.0/1.0)
|   nidStorage = (155.0, 160.0]: val_4 (0.0)
|   nidStorage = (814.0, 900.0]: val_4 (3.0/1.0)
|   nidStorage = (481.036, 520.0]: val_4 (2.0)
|   nidStorage = (36.232, 40.0]: val_3 (1.0)
|   nidStorage = (1470.0, 1700.0]: val_4 (3.0/2.0)
|   nidStorage = (96.0, 100.0]: val_4 (4.0/1.0)
|   nidStorage = (85.0, 87.0]: val_4 (2.0/1.0)
|   nidStorage = (68.0, 70.0]: val_4 (2.0/1.0)
|   nidStorage = (212.171, 224.0]: val_2 (1.0)
|   nidStorage = (390.0, 415.0]: val_4 (2.0/1.0)
|   nidStorage = (40200.0, 146877.43]: val_4 (0.0)
|   nidStorage = (17.451, 21.0]: val_4 (2.0/1.0)
|   nidStorage = (197.0, 203.0]: val_2 (2.0)
|   nidStorage = (124.0, 128.0]: val_4 (4.0/2.0)
|   nidStorage = (40.0, 44.2]: val_4 (0.0)
|   nidStorage = (520.0, 563.0]: val_3 (1.0)
|   nidStorage = (173.697, 180.0]: val_2 (1.0)
|   nidStorage = (50.0, 52.0]: val_2 (2.0)
|   nidStorage = (563.0, 611.0]: val_4 (0.0)
|   nidStorage = (3586.0, 4650.0]: val_4 (5.0/1.0)
|   nidStorage = (17000.0, 40200.0]: val_4 (0.0)
|   nidStorage = (362.0, 390.0]: val_4 (0.0)
|   nidStorage = (320.0, 341.0]
|   |   maxStorage = (3000.0, 3800.0]: val_3 (0.0)
|   |   maxStorage = (57.0, 59.0]: val_3 (0.0)
|   |   maxStorage = (336.0, 357.0]: val_4 (2.0/1.0)
|   |   maxStorage = (54.0, 55.5]: val_3 (0.0)
|   |   maxStorage = (63.0, 65.0]: val_3 (0.0)
|   |   maxStorage = (27.0, 30.343]: val_3 (0.0)
|   |   maxStorage = (1000.0, 1140.0]: val_3 (0.0)
|   |   maxStorage = (242.0, 253.0]: val_3 (0.0)
|   |   maxStorage = (184.0, 192.0]: val_3 (0.0)
|   |   maxStorage = (111.0, 115.0]: val_3 (0.0)
|   |   maxStorage = (143.0, 147.6]: val_3 (0.0)
|   |   maxStorage = (42.8, 47.0]: val_3 (0.0)
|   |   maxStorage = (300.0, 315.0]: val_3 (0.0)
|   |   maxStorage = (30.343, 35.0]: val_3 (0.0)
|   |   maxStorage = (281.0, 300.0]: val_3 (0.0)
|   |   maxStorage = (1295.0, 1494.45]: val_3 (0.0)
|   |   maxStorage = (253.0, 267.0]: val_3 (0.0)
|   |   maxStorage = (73.0, 75.0]: val_3 (0.0)
|   |   maxStorage = (115.0, 119.0]: val_3 (0.0)
|   |   maxStorage = (7200.0, 11400.0]: val_3 (0.0)
|   |   maxStorage = (55.5, 57.0]: val_3 (0.0)
|   |   maxStorage = (47.0, 50.0]: val_3 (0.0)
|   |   maxStorage = (607.0, 666.0]: val_3 (0.0)
|   |   maxStorage = (157.0, 162.0]: val_3 (0.0)
|   |   maxStorage = (814.0, 900.0]: val_3 (0.0)
|   |   maxStorage = (476.0, 514.0]: val_3 (0.0)
|   |   maxStorage = (39.0, 42.8]: val_3 (0.0)
|   |   maxStorage = (1494.45, 1740.0]: val_3 (0.0)
|   |   maxStorage = (94.9, 97.0]: val_3 (0.0)
|   |   maxStorage = (85.0, 87.0]: val_3 (0.0)
|   |   maxStorage = (68.0, 70.0]: val_3 (0.0)
|   |   maxStorage = (209.0, 220.0]: val_3 (0.0)
|   |   maxStorage = (383.0, 408.0]: val_3 (0.0)
|   |   maxStorage = (37533.2, 138182.0]: val_3 (0.0)
|   |   maxStorage = (19.0, 23.0]: val_3 (0.0)
|   |   maxStorage = (192.0, 200.0]: val_3 (0.0)
|   |   maxStorage = (121.0, 125.0]: val_3 (0.0)
|   |   maxStorage = (514.0, 560.0]: val_3 (0.0)
|   |   maxStorage = (177.0, 184.0]: val_3 (0.0)
|   |   maxStorage = (50.0, 51.0]: val_3 (0.0)
|   |   maxStorage = (5008.64, 7200.0]: val_3 (0.0)
|   |   maxStorage = (560.0, 607.0]: val_3 (0.0)
|   |   maxStorage = (3800.0, 5008.64]: val_3 (0.0)
|   |   maxStorage = (357.0, 383.0]: val_3 (0.0)
|   |   maxStorage = (315.0, 336.0]: val_3 (2.0)
|   |   maxStorage = (71.0, 73.0]: val_3 (0.0)
|   |   maxStorage = (66.0, 68.0]: val_3 (0.0)
|   |   maxStorage = (138182.0, 277540000.0]: val_3 (0.0)
|   |   maxStorage = (2026.79, 2461.96]: val_3 (0.0)
|   |   maxStorage = (11400.0, 15557.342]: val_3 (0.0)
|   |   maxStorage = (900.0, 1000.0]: val_3 (0.0)
|   |   maxStorage = (75.0, 77.0]: val_3 (0.0)
|   |   maxStorage = (2461.96, 3000.0]: val_3 (0.0)
|   |   maxStorage = (119.0, 121.0]: val_3 (0.0)
|   |   maxStorage = (59.0, 60.0]: val_3 (0.0)
|   |   maxStorage = (125.0, 129.0]: val_3 (0.0)
|   |   maxStorage = (105.0, 108.0]: val_3 (0.0)
|   |   maxStorage = (735.0, 814.0]: val_3 (0.0)
|   |   maxStorage = (90.0, 92.0]: val_3 (0.0)
|   |   maxStorage = (87.0, 90.0]: val_3 (0.0)
|   |   maxStorage = (23.0, 27.0]: val_3 (0.0)
|   |   maxStorage = (138.0, 143.0]: val_3 (0.0)
|   |   maxStorage = (666.0, 735.0]: val_3 (0.0)
|   |   maxStorage = (15932.0, 37533.2]: val_3 (0.0)
|   |   maxStorage = (35.0, 39.0]: val_3 (0.0)
|   |   maxStorage = (108.0, 111.0]: val_3 (0.0)
|   |   maxStorage = (267.0, 281.0]: val_3 (0.0)
|   |   maxStorage = (12.0, 19.0]: val_3 (0.0)
|   |   maxStorage = (151.0, 157.0]: val_3 (0.0)
|   |   maxStorage = (60.0, 61.0]: val_3 (0.0)
|   |   maxStorage = (80.0, 83.0]: val_3 (0.0)
|   |   maxStorage = (100.0, 102.0]: val_3 (0.0)
|   |   maxStorage = (162.0, 170.0]: val_3 (0.0)
|   |   maxStorage = (408.0, 440.0]: val_3 (0.0)
|   |   maxStorage = (51.0, 53.0]: val_3 (0.0)
|   |   maxStorage = (230.0, 242.0]: val_3 (0.0)
|   |   maxStorage = (1140.0, 1295.0]: val_3 (0.0)
|   |   maxStorage = (102.0, 105.0]: val_3 (0.0)
|   |   maxStorage = (77.0, 80.0]: val_3 (0.0)
|   |   maxStorage = (200.0, 209.0]: val_3 (0.0)
|   |   maxStorage = (53.0, 54.0]: val_3 (0.0)
|   |   maxStorage = (83.0, 85.0]: val_3 (0.0)
|   |   maxStorage = (1740.0, 2026.79]: val_3 (0.0)
|   |   maxStorage = (440.0, 476.0]: val_3 (0.0)
|   |   maxStorage = (61.0, 63.0]: val_3 (0.0)
|   |   maxStorage = (92.0, 94.9]: val_3 (0.0)
|   |   maxStorage = (-0.001, 12.0]: val_3 (0.0)
|   |   maxStorage = (133.5, 138.0]: val_3 (0.0)
|   |   maxStorage = (70.0, 71.0]: val_3 (0.0)
|   |   maxStorage = (129.0, 133.5]: val_3 (0.0)
|   |   maxStorage = (170.0, 177.0]: val_3 (0.0)
|   |   maxStorage = (220.0, 230.0]: val_3 (0.0)
|   |   maxStorage = (147.6, 151.0]: val_3 (0.0)
|   |   maxStorage = (97.0, 100.0]: val_3 (0.0)
|   |   maxStorage = (65.0, 66.0]: val_3 (0.0)
|   |   maxStorage = (15557.342, 15932.0]: val_3 (0.0)
|   nidStorage = (71.432, 73.0]: val_2 (1.0)
|   nidStorage = (65.0, 67.0]: val_4 (0.0)
|   nidStorage = (146877.43, 277540000.0]: val_4 (0.0)
|   nidStorage = (2000.0, 2383.94]: val_4 (0.0)
|   nidStorage = (59.0, 60.0]: val_2 (5.0/1.0)
|   nidStorage = (900.0, 1000.0]: val_4 (0.0)
|   nidStorage = (75.0, 77.0]: val_4 (0.0)
|   nidStorage = (2383.94, 2880.0]: val_4 (1.0)
|   nidStorage = (118.0, 120.0]: val_4 (0.0)
|   nidStorage = (105.0, 108.0]: val_2 (2.0)
|   nidStorage = (120.0, 124.0]: val_4 (0.0)
|   nidStorage = (737.0, 814.0]: val_2 (1.0)
|   nidStorage = (90.0, 91.0]: val_4 (0.0)
|   nidStorage = (87.0, 90.0]: val_3 (1.0)
|   nidStorage = (25.0, 29.0]: val_4 (1.0)
|   nidStorage = (136.0, 140.0]: val_4 (3.0/2.0)
|   nidStorage = (4650.0, 6413.3]: val_4 (3.0/1.0)
|   nidStorage = (-0.001, 10.0]: val_4 (26.0/13.0)
|   nidStorage = (236.0, 248.0]: val_3 (1.0)
|   nidStorage = (670.0, 737.0]: val_4 (2.0)
|   nidStorage = (288.0, 300.0]: val_2 (3.0)
|   nidStorage = (32.719, 36.232]: val_4 (4.0/2.0)
|   nidStorage = (55.0, 56.0]: val_4 (0.0)
|   nidStorage = (9786.28, 17000.0]: val_3 (1.0)
|   nidStorage = (52.0, 53.0]: val_3 (1.0)
|   nidStorage = (150.0, 155.0]: val_4 (0.0)
|   nidStorage = (60.0, 62.0]: val_4 (0.0)
|   nidStorage = (80.0, 83.0]: val_4 (0.0)
|   nidStorage = (100.0, 101.0]: val_4 (0.0)
|   nidStorage = (160.0, 166.0]: val_4 (1.0)
|   nidStorage = (415.0, 448.0]: val_4 (4.0/2.0)
|   nidStorage = (1130.0, 1280.0]: val_4 (1.0)
|   nidStorage = (128.0, 132.0]: val_3 (1.0)
|   nidStorage = (224.0, 236.0]: val_2 (2.0)
|   nidStorage = (101.0, 105.0]: val_4 (0.0)
|   nidStorage = (77.0, 80.0]: val_2 (4.0/1.0)
|   nidStorage = (203.0, 212.171]: val_4 (2.0/1.0)
|   nidStorage = (83.0, 85.0]: val_4 (2.0/1.0)
|   nidStorage = (1700.0, 2000.0]
|   |   primaryPurposeId = val_9.0: val_4 (0.0)
|   |   primaryPurposeId = val_2.0: val_4 (0.0)
|   |   primaryPurposeId = val_10.0: val_4 (0.0)
|   |   primaryPurposeId = val_1.0: val_4 (0.0)
|   |   primaryPurposeId = val_11.0: val_4 (0.0)
|   |   primaryPurposeId = val_12.0: val_4 (0.0)
|   |   primaryPurposeId = val_5.0: val_4 (3.0)
|   |   primaryPurposeId = val_8.0: val_3 (2.0)
|   |   primaryPurposeId = val_4.0: val_4 (0.0)
|   |   primaryPurposeId = val_6.0: val_4 (0.0)
|   |   primaryPurposeId = val_7.0: val_4 (0.0)
|   |   primaryPurposeId = val_3.0: val_4 (0.0)
|   nidStorage = (448.0, 481.036]: val_3 (1.0)
|   nidStorage = (21.0, 25.0]: val_3 (3.0)
|   nidStorage = (91.0, 94.0]: val_4 (0.0)
|   nidStorage = (132.0, 136.0]: val_4 (0.0)
|   nidStorage = (70.0, 71.432]: val_4 (0.0)
|   nidStorage = (94.0, 96.0]: val_4 (0.0)
|   nidStorage = (10.0, 17.451]: val_3 (8.0/1.0)
|   nidStorage = (108.0, 110.0]: val_2 (2.0)
|   nidStorage = (67.0, 68.0]: val_2 (2.0)
|   nidStorage = (62.0, 63.8]: val_4 (0.0)
|   nidStorage = (166.0, 173.697]: val_4 (2.0/1.0)
|   nidStorage = (145.0, 150.0]: val_3 (3.0/1.0)
state = Georgia
|   nidHeightId = val_3: val_2 (1619.0/349.0)
|   nidHeightId = val_4: val_2 (2514.0/178.0)
|   nidHeightId = val_2: val_4 (154.0/73.0)
|   nidHeightId = val_1: val_4 (32.0/4.0)
|   nidHeightId = val_5: val_2 (0.0)
state = Illinois: val_2 (1294.0/491.0)
state = Mississippi: val_2 (4898.0/1278.0)
state = California: val_4 (1227.0/527.0)
state = Alabama
|   primaryPurposeId = val_9.0: val_2 (111.0/52.0)
|   primaryPurposeId = val_2.0: val_2 (16.0/1.0)
|   primaryPurposeId = val_10.0: val_2 (80.0/22.0)
|   primaryPurposeId = val_1.0: val_3 (3.0/1.0)
|   primaryPurposeId = val_11.0: val_4 (1.0)
|   primaryPurposeId = val_12.0: val_2 (105.0/41.0)
|   primaryPurposeId = val_5.0: val_2 (821.0/320.0)
|   primaryPurposeId = val_8.0: val_2 (34.0/11.0)
|   primaryPurposeId = val_4.0: val_2 (595.0/58.0)
|   primaryPurposeId = val_6.0: val_4 (20.0)
|   primaryPurposeId = val_7.0: val_2 (5.0)
|   primaryPurposeId = val_3.0: val_3 (10.0/2.0)
state = Nevada
|   primaryPurposeId = val_9.0: val_4 (97.0/15.0)
|   primaryPurposeId = val_2.0: val_2 (93.0/35.0)
|   primaryPurposeId = val_10.0: val_2 (5.0)
|   primaryPurposeId = val_1.0: val_2 (43.0/12.0)
|   primaryPurposeId = val_11.0: val_2 (0.0)
|   primaryPurposeId = val_12.0: val_2 (98.0/20.0)
|   primaryPurposeId = val_5.0
|   |   nidHeight = (34.0, 35.0]: val_2 (0.0)
|   |   nidHeight = (29.0, 30.0]: val_2 (0.0)
|   |   nidHeight = (28.0, 29.0]: val_2 (0.0)
|   |   nidHeight = (17.0, 18.0]: val_2 (0.0)
|   |   nidHeight = (31.0, 32.0]: val_2 (0.0)
|   |   nidHeight = (24.0, 25.0]: val_4 (1.0)
|   |   nidHeight = (44.0, 48.0]: val_4 (1.0)
|   |   nidHeight = (39.0, 41.0]: val_2 (0.0)
|   |   nidHeight = (19.0, 20.0]: val_2 (1.0)
|   |   nidHeight = (21.0, 22.0]: val_2 (0.0)
|   |   nidHeight = (20.0, 21.0]: val_2 (0.0)
|   |   nidHeight = (37.0, 39.0]: val_2 (0.0)
|   |   nidHeight = (32.0, 33.0]: val_2 (0.0)
|   |   nidHeight = (14.0, 15.0]: val_2 (0.0)
|   |   nidHeight = (9.0, 10.0]: val_2 (0.0)
|   |   nidHeight = (54.0, 65.0]: val_4 (1.0)
|   |   nidHeight = (35.0, 37.0]: val_3 (1.0)
|   |   nidHeight = (48.0, 54.0]: val_2 (0.0)
|   |   nidHeight = (15.0, 16.0]: val_2 (0.0)
|   |   nidHeight = (12.0, 13.0]: val_2 (1.0)
|   |   nidHeight = (18.0, 19.0]: val_2 (1.0)
|   |   nidHeight = (65.0, 95.0]: val_4 (1.0)
|   |   nidHeight = (33.0, 34.0]: val_2 (0.0)
|   |   nidHeight = (25.0, 26.0]: val_2 (1.0)
|   |   nidHeight = (11.0, 12.0]: val_3 (1.0)
|   |   nidHeight = (30.0, 31.0]: val_2 (0.0)
|   |   nidHeight = (95.0, 789.0]: val_3 (2.0)
|   |   nidHeight = (16.0, 17.0]: val_2 (0.0)
|   |   nidHeight = (10.0, 11.0]: val_2 (0.0)
|   |   nidHeight = (26.0, 27.0]: val_4 (1.0)
|   |   nidHeight = (7.0, 9.0]: val_2 (2.0)
|   |   nidHeight = (27.0, 28.0]: val_2 (0.0)
|   |   nidHeight = (13.0, 14.0]: val_2 (0.0)
|   |   nidHeight = (22.0, 23.0]: val_2 (0.0)
|   |   nidHeight = (-0.001, 7.0]: val_3 (1.0)
|   |   nidHeight = (41.0, 44.0]: val_3 (1.0)
|   |   nidHeight = (23.0, 24.0]: val_2 (0.0)
|   primaryPurposeId = val_8.0: val_4 (11.0/5.0)
|   primaryPurposeId = val_4.0: val_2 (20.0/3.0)
|   primaryPurposeId = val_6.0: val_4 (1.0)
|   primaryPurposeId = val_7.0
|   |   longitude = (-101.2, -101.135]: val_2 (0.0)
|   |   longitude = (-96.777, -96.756]: val_2 (0.0)
|   |   longitude = (-77.132, -77.005]: val_2 (0.0)
|   |   longitude = (-78.046, -77.979]: val_2 (0.0)
|   |   longitude = (-93.716, -93.688]: val_2 (0.0)
|   |   longitude = (-84.845, -84.812]: val_2 (0.0)
|   |   longitude = (-93.071, -93.033]: val_2 (0.0)
|   |   longitude = (-106.219, -106.134]: val_2 (0.0)
|   |   longitude = (-100.832, -100.783]: val_2 (0.0)
|   |   longitude = (-94.053, -94.031]: val_2 (0.0)
|   |   longitude = (-102.159, -102.058]: val_2 (0.0)
|   |   longitude = (-94.031, -94.008]: val_2 (0.0)
|   |   longitude = (-104.846, -104.787]: val_2 (0.0)
|   |   longitude = (-91.049, -91.003]: val_2 (0.0)
|   |   longitude = (-104.179, -104.074]: val_2 (0.0)
|   |   longitude = (-97.88, -97.859]: val_2 (0.0)
|   |   longitude = (-104.38, -104.271]: val_2 (0.0)
|   |   longitude = (-95.053, -95.033]: val_2 (0.0)
|   |   longitude = (-71.576, -71.515]: val_2 (0.0)
|   |   longitude = (-84.325, -84.299]: val_2 (0.0)
|   |   longitude = (-89.985, -89.967]: val_2 (0.0)
|   |   longitude = (-88.645, -88.617]: val_2 (0.0)
|   |   longitude = (-88.377, -88.32]: val_2 (0.0)
|   |   longitude = (-98.919, -98.895]: val_2 (0.0)
|   |   longitude = (-122.63, -122.526]: val_2 (0.0)
|   |   longitude = (-88.178, -88.124]: val_2 (0.0)
|   |   longitude = (-115.888, -115.283]: val_2 (0.0)
|   |   longitude = (-94.508, -94.468]: val_2 (0.0)
|   |   longitude = (-97.497, -97.473]: val_2 (0.0)
|   |   longitude = (-96.453, -96.44]: val_2 (0.0)
|   |   longitude = (-109.69, -109.523]: val_2 (0.0)
|   |   longitude = (-93.743, -93.716]: val_2 (0.0)
|   |   longitude = (-77.877, -77.817]: val_2 (0.0)
|   |   longitude = (-89.474, -89.449]: val_2 (0.0)
|   |   longitude = (-95.241, -95.216]: val_2 (0.0)
|   |   longitude = (-99.56, -99.527]: val_2 (0.0)
|   |   longitude = (-95.308, -95.288]: val_2 (0.0)
|   |   longitude = (-96.988, -96.967]: val_2 (0.0)
|   |   longitude = (-80.004, -79.967]: val_2 (0.0)
|   |   longitude = (-106.702, -106.63]: val_2 (0.0)
|   |   longitude = (-86.622, -86.555]: val_2 (0.0)
|   |   longitude = (-98.506, -98.472]: val_2 (0.0)
|   |   longitude = (-89.081, -89.056]: val_2 (0.0)
|   |   longitude = (-109.961, -109.809]: val_2 (0.0)
|   |   longitude = (-109.809, -109.69]: val_2 (0.0)
|   |   longitude = (-99.003, -98.978]: val_2 (0.0)
|   |   longitude = (-98.067, -98.041]: val_2 (0.0)
|   |   longitude = (-119.253, -119.069]: val_2 (0.0)
|   |   longitude = (-96.362, -96.348]: val_2 (0.0)
|   |   longitude = (-81.659, -81.609]: val_2 (0.0)
|   |   longitude = (-102.594, -102.485]: val_2 (0.0)
|   |   longitude = (-79.73, -79.694]: val_2 (0.0)
|   |   longitude = (-94.7, -94.674]: val_2 (0.0)
|   |   longitude = (-94.552, -94.508]: val_2 (0.0)
|   |   longitude = (-93.653, -93.613]: val_2 (0.0)
|   |   longitude = (-99.16, -99.135]: val_2 (0.0)
|   |   longitude = (-89.769, -89.742]: val_2 (0.0)
|   |   longitude = (-74.658, -74.593]: val_2 (0.0)
|   |   longitude = (-99.767, -99.732]: val_2 (0.0)
|   |   longitude = (-104.72, -104.634]: val_2 (0.0)
|   |   longitude = (-98.341, -98.314]: val_2 (0.0)
|   |   longitude = (-94.953, -94.929]: val_2 (0.0)
|   |   longitude = (-100.236, -100.176]: val_2 (0.0)
|   |   longitude = (-93.613, -93.582]: val_2 (0.0)
|   |   longitude = (-104.634, -104.562]: val_2 (0.0)
|   |   longitude = (-89.548, -89.523]: val_2 (0.0)
|   |   longitude = (-74.356, -74.28]: val_2 (0.0)
|   |   longitude = (-94.811, -94.785]: val_2 (0.0)
|   |   longitude = (-84.111, -84.084]: val_2 (0.0)
|   |   longitude = (-88.533, -88.505]: val_2 (0.0)
|   |   longitude = (-104.562, -104.486]: val_2 (0.0)
|   |   longitude = (-87.795, -87.738]: val_2 (0.0)
|   |   longitude = (-97.22, -97.2]: val_2 (0.0)
|   |   longitude = (-121.973, -121.699]: val_2 (0.0)
|   |   longitude = (-106.134, -106.061]: val_2 (0.0)
|   |   longitude = (-77.376, -77.315]: val_2 (0.0)
|   |   longitude = (-97.075, -97.051]: val_2 (0.0)
|   |   longitude = (-101.569, -101.49]: val_2 (0.0)
|   |   longitude = (-118.484, -118.19]: val_2 (0.0)
|   |   longitude = (-104.486, -104.38]: val_2 (0.0)
|   |   longitude = (-77.979, -77.924]: val_2 (0.0)
|   |   longitude = (-92.981, -92.943]: val_2 (0.0)
|   |   longitude = (-119.858, -119.732]: val_2 (0.0)
|   |   longitude = (-95.082, -95.053]: val_2 (0.0)
|   |   longitude = (-90.842, -90.815]: val_2 (0.0)
|   |   longitude = (-83.486, -83.453]: val_2 (0.0)
|   |   longitude = (-93.241, -93.204]: val_2 (0.0)
|   |   longitude = (-105.304, -105.232]: val_2 (0.0)
|   |   longitude = (-89.404, -89.38]: val_2 (0.0)
|   |   longitude = (-101.274, -101.2]: val_2 (0.0)
|   |   longitude = (-90.348, -90.325]: val_2 (0.0)
|   |   longitude = (-80.356, -80.316]: val_2 (0.0)
|   |   longitude = (-87.408, -87.367]: val_2 (0.0)
|   |   longitude = (-101.49, -101.421]: val_2 (0.0)
|   |   longitude = (-87.192, -87.135]: val_2 (0.0)
|   |   longitude = (-79.781, -79.73]: val_2 (0.0)
|   |   longitude = (-90.917, -90.871]: val_2 (0.0)
|   |   longitude = (-120.775, -120.623]: val_2 (0.0)
|   |   longitude = (-82.379, -82.348]: val_2 (0.0)
|   |   longitude = (-96.527, -96.513]: val_2 (0.0)
|   |   longitude = (-93.487, -93.452]: val_2 (0.0)
|   |   longitude = (-99.289, -99.253]: val_2 (0.0)
|   |   longitude = (-81.007, -80.978]: val_2 (0.0)
|   |   longitude = (-90.871, -90.842]: val_2 (0.0)
|   |   longitude = (-92.903, -92.847]: val_2 (0.0)
|   |   longitude = (-85.752, -85.691]: val_2 (0.0)
|   |   longitude = (-94.902, -94.876]: val_2 (0.0)
|   |   longitude = (-82.688, -82.655]: val_2 (0.0)
|   |   longitude = (-80.144, -80.09]: val_2 (0.0)
|   |   longitude = (-90.325, -90.29]: val_2 (0.0)
|   |   longitude = (-96.069, -96.056]: val_2 (0.0)
|   |   longitude = (-96.378, -96.362]: val_2 (0.0)
|   |   longitude = (-91.752, -91.7]: val_2 (0.0)
|   |   longitude = (-96.716, -96.7]: val_2 (0.0)
|   |   longitude = (-109.388, -109.236]: val_2 (0.0)
|   |   longitude = (-79.629, -79.575]: val_2 (0.0)
|   |   longitude = (-78.234, -78.181]: val_2 (0.0)
|   |   longitude = (-78.614, -78.569]: val_2 (0.0)
|   |   longitude = (-83.302, -83.262]: val_2 (0.0)
|   |   longitude = (-84.642, -84.612]: val_2 (0.0)
|   |   longitude = (-72.076, -72.027]: val_2 (0.0)
|   |   longitude = (-97.051, -97.029]: val_2 (0.0)
|   |   longitude = (-92.523, -92.494]: val_2 (0.0)
|   |   longitude = (-94.242, -94.216]: val_2 (0.0)
|   |   longitude = (-82.577, -82.537]: val_2 (0.0)
|   |   longitude = (-105.802, -105.701]: val_2 (0.0)
|   |   longitude = (-107.991, -107.924]: val_2 (0.0)
|   |   longitude = (-89.036, -89.017]: val_2 (0.0)
|   |   longitude = (-117.893, -117.708]: val_2 (0.0)
|   |   longitude = (-120.927, -120.775]: val_2 (0.0)
|   |   longitude = (-121.202, -121.063]: val_2 (0.0)
|   |   longitude = (-89.792, -89.769]: val_2 (0.0)
|   |   longitude = (-97.957, -97.93]: val_2 (0.0)
|   |   longitude = (-102.965, -102.835]: val_2 (0.0)
|   |   longitude = (-82.809, -82.769]: val_2 (0.0)
|   |   longitude = (-98.978, -98.946]: val_2 (0.0)
|   |   longitude = (-105.558, -105.464]: val_2 (0.0)
|   |   longitude = (-78.993, -78.939]: val_2 (0.0)
|   |   longitude = (-91.783, -91.752]: val_2 (0.0)
|   |   longitude = (-82.27, -82.233]: val_2 (0.0)
|   |   longitude = (-77.315, -77.259]: val_2 (0.0)
|   |   longitude = (-77.005, -76.91]: val_2 (0.0)
|   |   longitude = (-80.877, -80.841]: val_2 (0.0)
|   |   longitude = (-101.647, -101.569]: val_2 (0.0)
|   |   longitude = (-79.575, -79.526]: val_2 (0.0)
|   |   longitude = (-98.472, -98.436]: val_2 (0.0)
|   |   longitude = (-86.02, -85.966]: val_2 (0.0)
|   |   longitude = (-99.621, -99.592]: val_2 (0.0)
|   |   longitude = (-99.081, -99.052]: val_2 (0.0)
|   |   longitude = (-87.512, -87.47]: val_2 (0.0)
|   |   longitude = (-93.802, -93.777]: val_2 (0.0)
|   |   longitude = (-96.914, -96.892]: val_2 (0.0)
|   |   longitude = (-95.618, -95.602]: val_2 (0.0)
|   |   longitude = (-95.504, -95.49]: val_2 (0.0)
|   |   longitude = (-95.49, -95.472]: val_2 (0.0)
|   |   longitude = (-84.451, -84.425]: val_2 (0.0)
|   |   longitude = (-77.208, -77.132]: val_2 (0.0)
|   |   longitude = (-97.987, -97.957]: val_2 (0.0)
|   |   longitude = (-75.621, -75.544]: val_2 (0.0)
|   |   longitude = (-97.2, -97.181]: val_2 (0.0)
|   |   longitude = (-96.348, -96.334]: val_2 (0.0)
|   |   longitude = (-95.154, -95.134]: val_2 (0.0)
|   |   longitude = (-94.435, -94.401]: val_2 (0.0)
|   |   longitude = (-79.355, -79.304]: val_2 (0.0)
|   |   longitude = (-74.194, -74.112]: val_2 (0.0)
|   |   longitude = (-73.522, -73.46]: val_2 (0.0)
|   |   longitude = (-83.229, -83.196]: val_2 (0.0)
|   |   longitude = (-89.113, -89.081]: val_2 (0.0)
|   |   longitude = (-91.827, -91.783]: val_2 (0.0)
|   |   longitude = (-97.141, -97.119]: val_2 (0.0)
|   |   longitude = (-95.648, -95.632]: val_2 (0.0)
|   |   longitude = (-95.327, -95.308]: val_2 (0.0)
|   |   longitude = (-97.751, -97.732]: val_2 (0.0)
|   |   longitude = (-148.903, -123.709]: val_2 (0.0)
|   |   longitude = (-108.736, -108.576]: val_2 (0.0)
|   |   longitude = (-84.612, -84.587]: val_2 (0.0)
|   |   longitude = (-89.885, -89.864]: val_2 (0.0)
|   |   longitude = (-96.407, -96.395]: val_2 (0.0)
|   |   longitude = (-92.196, -92.167]: val_2 (0.0)
|   |   longitude = (-95.268, -95.241]: val_2 (0.0)
|   |   longitude = (-110.391, -110.158]: val_2 (0.0)
|   |   longitude = (-100.685, -100.639]: val_2 (0.0)
|   |   longitude = (-72.444, -72.376]: val_2 (0.0)
|   |   longitude = (-84.354, -84.325]: val_2 (0.0)
|   |   longitude = (-100.025, -99.983]: val_2 (0.0)
|   |   longitude = (-91.404, -91.368]: val_2 (0.0)
|   |   longitude = (-78.748, -78.708]: val_2 (0.0)
|   |   longitude = (-96.196, -96.18]: val_2 (0.0)
|   |   longitude = (-95.724, -95.709]: val_2 (0.0)
|   |   longitude = (-90.735, -90.709]: val_2 (0.0)
|   |   longitude = (-99.108, -99.081]: val_2 (0.0)
|   |   longitude = (-88.555, -88.533]: val_2 (0.0)
|   |   longitude = (-105.094, -105.054]: val_2 (0.0)
|   |   longitude = (-110.158, -109.961]: val_2 (0.0)
|   |   longitude = (-110.648, -110.391]: val_2 (0.0)
|   |   longitude = (-123.709, -123.276]: val_2 (0.0)
|   |   longitude = (-82.44, -82.41]: val_2 (0.0)
|   |   longitude = (-88.448, -88.414]: val_2 (0.0)
|   |   longitude = (-75.544, -75.472]: val_2 (0.0)
|   |   longitude = (-86.555, -86.498]: val_2 (0.0)
|   |   longitude = (-80.477, -80.43]: val_2 (0.0)
|   |   longitude = (-83.756, -83.727]: val_2 (0.0)
|   |   longitude = (-84.164, -84.138]: val_2 (0.0)
|   |   longitude = (-91.468, -91.436]: val_2 (0.0)
|   |   longitude = (-79.824, -79.781]: val_2 (0.0)
|   |   longitude = (-95.93, -95.914]: val_2 (0.0)
|   |   longitude = (-74.427, -74.356]: val_2 (0.0)
|   |   longitude = (-75.126, -75.038]: val_2 (0.0)
|   |   longitude = (-81.609, -81.562]: val_2 (0.0)
|   |   longitude = (-90.404, -90.372]: val_2 (0.0)
|   |   longitude = (-98.18, -98.152]: val_2 (0.0)
|   |   longitude = (-76.18, -76.058]: val_2 (0.0)
|   |   longitude = (-90.107, -90.084]: val_2 (0.0)
|   |   longitude = (-96.967, -96.95]: val_2 (0.0)
|   |   longitude = (-94.273, -94.242]: val_2 (0.0)
|   |   longitude = (-97.281, -97.259]: val_2 (0.0)
|   |   longitude = (-97.814, -97.793]: val_2 (0.0)
|   |   longitude = (-73.731, -73.672]: val_2 (0.0)
|   |   longitude = (-76.058, -75.974]: val_2 (0.0)
|   |   longitude = (-86.883, -86.813]: val_2 (0.0)
|   |   longitude = (-106.805, -106.75]: val_2 (0.0)
|   |   longitude = (-81.949, -81.93]: val_2 (0.0)
|   |   longitude = (-88.414, -88.377]: val_2 (0.0)
|   |   longitude = (-98.721, -98.698]: val_2 (0.0)
|   |   longitude = (-87.858, -87.795]: val_2 (0.0)
|   |   longitude = (-122.746, -122.63]: val_2 (0.0)
|   |   longitude = (-81.24, -81.198]: val_2 (0.0)
|   |   longitude = (-78.323, -78.273]: val_2 (0.0)
|   |   longitude = (-156.643, -148.903]: val_2 (0.0)
|   |   longitude = (-96.737, -96.716]: val_2 (0.0)
|   |   longitude = (-93.099, -93.071]: val_2 (0.0)
|   |   longitude = (-78.107, -78.046]: val_2 (0.0)
|   |   longitude = (-90.023, -90.004]: val_2 (0.0)
|   |   longitude = (-74.28, -74.194]: val_2 (0.0)
|   |   longitude = (-80.613, -80.573]: val_2 (0.0)
|   |   longitude = (-96.872, -96.857]: val_2 (0.0)
|   |   longitude = (-96.293, -96.281]: val_2 (0.0)
|   |   longitude = (-84.875, -84.845]: val_2 (0.0)
|   |   longitude = (-82.469, -82.44]: val_2 (0.0)
|   |   longitude = (-106.45, -106.379]: val_2 (0.0)
|   |   longitude = (-90.681, -90.658]: val_2 (0.0)
|   |   longitude = (-93.895, -93.865]: val_2 (0.0)
|   |   longitude = (-100.727, -100.685]: val_2 (0.0)
|   |   longitude = (-84.741, -84.707]: val_2 (0.0)
|   |   longitude = (-101.06, -100.995]: val_2 (0.0)
|   |   longitude = (-111.667, -111.555]: val_2 (0.0)
|   |   longitude = (-114.49, -114.081]: val_2 (0.0)
|   |   longitude = (-72.25, -72.185]: val_2 (0.0)
|   |   longitude = (-84.275, -84.252]: val_2 (0.0)
|   |   longitude = (-97.711, -97.692]: val_2 (0.0)
|   |   longitude = (-105.374, -105.304]: val_2 (0.0)
|   |   longitude = (-76.347, -76.18]: val_2 (0.0)
|   |   longitude = (-118.809, -118.484]: val_2 (0.0)
|   |   longitude = (-90.575, -90.547]: val_2 (0.0)
|   |   longitude = (-176.68800000000002, -156.643]: val_2 (0.0)
|   |   longitude = (-77.492, -77.436]: val_2 (0.0)
|   |   longitude = (-88.736, -88.717]: val_2 (0.0)
|   |   longitude = (-95.696, -95.683]: val_2 (0.0)
|   |   longitude = (-100.285, -100.236]: val_2 (0.0)
|   |   longitude = (-88.505, -88.479]: val_2 (0.0)
|   |   longitude = (-77.817, -77.764]: val_2 (0.0)
|   |   longitude = (-92.077, -92.04]: val_2 (0.0)
|   |   longitude = (-95.381, -95.362]: val_2 (0.0)
|   |   longitude = (-89.634, -89.605]: val_2 (0.0)
|   |   longitude = (-95.998, -95.985]: val_2 (0.0)
|   |   longitude = (-108.168, -108.066]: val_2 (0.0)
|   |   longitude = (-117.708, -117.463]: val_2 (0.0)
|   |   longitude = (-90.29, -90.268]: val_2 (0.0)
|   |   longitude = (-87.597, -87.558]: val_2 (0.0)
|   |   longitude = (-80.773, -80.734]: val_2 (0.0)
|   |   longitude = (-85.325, -85.275]: val_2 (0.0)
|   |   longitude = (-90.956, -90.917]: val_2 (0.0)
|   |   longitude = (-99.466, -99.437]: val_2 (0.0)
|   |   longitude = (-81.733, -81.699]: val_2 (0.0)
|   |   longitude = (-97.692, -97.669]: val_2 (0.0)
|   |   longitude = (-92.111, -92.077]: val_2 (0.0)
|   |   longitude = (-79.86, -79.824]: val_2 (0.0)
|   |   longitude = (-92.236, -92.196]: val_2 (0.0)
|   |   longitude = (-93.777, -93.743]: val_2 (0.0)
|   |   longitude = (-88.761, -88.736]: val_2 (0.0)
|   |   longitude = (-100.995, -100.945]: val_2 (0.0)
|   |   longitude = (-84.059, -84.031]: val_2 (0.0)
|   |   longitude = (-96.319, -96.305]: val_2 (0.0)
|   |   longitude = (-83.402, -83.37]: val_2 (0.0)
|   |   longitude = (-96.025, -96.01]: val_2 (0.0)
|   |   longitude = (-89.864, -89.846]: val_2 (0.0)
|   |   longitude = (-100.783, -100.727]: val_2 (0.0)
|   |   longitude = (-120.166, -119.996]: val_2 (0.0)
|   |   longitude = (-97.096, -97.075]: val_2 (0.0)
|   |   longitude = (-95.887, -95.876]: val_2 (0.0)
|   |   longitude = (-119.996, -119.858]: val_2 (0.0)
|   |   longitude = (-95.196, -95.176]: val_2 (0.0)
|   |   longitude = (-92.359, -92.318]: val_2 (0.0)
|   |   longitude = (-86.111, -86.065]: val_2 (0.0)
|   |   longitude = (-106.504, -106.45]: val_2 (0.0)
|   |   longitude = (-101.864, -101.789]: val_2 (0.0)
|   |   longitude = (-123.276, -123.129]: val_2 (0.0)
|   |   longitude = (-74.855, -74.794]: val_2 (0.0)
|   |   longitude = (-95.362, -95.343]: val_2 (0.0)
|   |   longitude = (-83.074, -83.031]: val_2 (0.0)
|   |   longitude = (-95.033, -95.007]: val_2 (0.0)
|   |   longitude = (-82.157, -82.127]: val_2 (0.0)
|   |   longitude = (-83.609, -83.575]: val_2 (0.0)
|   |   longitude = (-97.65, -97.63]: val_2 (0.0)
|   |   longitude = (-94.076, -94.053]: val_2 (0.0)
|   |   longitude = (-99.697, -99.665]: val_2 (0.0)
|   |   longitude = (-100.423, -100.382]: val_2 (0.0)
|   |   longitude = (-105.232, -105.186]: val_2 (0.0)
|   |   longitude = (-88.062, -88.006]: val_2 (0.0)
|   |   longitude = (-84.562, -84.538]: val_2 (0.0)
|   |   longitude = (-100.476, -100.423]: val_2 (0.0)
|   |   longitude = (-82.127, -82.099]: val_2 (0.0)
|   |   longitude = (-93.988, -93.968]: val_2 (0.0)
|   |   longitude = (-91.933, -91.898]: val_2 (0.0)
|   |   longitude = (-71.97, -71.917]: val_2 (0.0)
|   |   longitude = (-77.654, -77.6]: val_2 (0.0)
|   |   longitude = (-97.181, -97.16]: val_2 (0.0)
|   |   longitude = (-92.318, -92.28]: val_2 (0.0)
|   |   longitude = (-72.942, -72.859]: val_2 (0.0)
|   |   longitude = (-73.154, -73.109]: val_2 (0.0)
|   |   longitude = (-98.152, -98.128]: val_2 (0.0)
|   |   longitude = (-100.382, -100.333]: val_2 (0.0)
|   |   longitude = (-82.233, -82.192]: val_2 (0.0)
|   |   longitude = (-83.575, -83.542]: val_2 (0.0)
|   |   longitude = (-89.822, -89.792]: val_2 (0.0)
|   |   longitude = (-72.658, -72.577]: val_2 (0.0)
|   |   longitude = (-94.674, -94.635]: val_2 (0.0)
|   |   longitude = (-84.951, -84.912]: val_2 (0.0)
|   |   longitude = (-84.084, -84.059]: val_2 (0.0)
|   |   longitude = (-88.717, -88.694]: val_2 (0.0)
|   |   longitude = (-92.04, -92.004]: val_2 (0.0)
|   |   longitude = (-103.098, -102.965]: val_2 (0.0)
|   |   longitude = (-100.945, -100.888]: val_2 (0.0)
|   |   longitude = (-98.835, -98.808]: val_2 (0.0)
|   |   longitude = (-76.496, -76.347]: val_2 (0.0)
|   |   longitude = (-72.508, -72.444]: val_2 (0.0)
|   |   longitude = (-78.802, -78.748]: val_2 (0.0)
|   |   longitude = (-70.225, -69.715]: val_2 (0.0)
|   |   longitude = (-95.972, -95.957]: val_2 (0.0)
|   |   longitude = (-104.271, -104.179]: val_2 (0.0)
|   |   longitude = (-97.732, -97.711]: val_2 (0.0)
|   |   longitude = (-92.552, -92.523]: val_2 (0.0)
|   |   longitude = (-111.909, -111.849]: val_2 (0.0)
|   |   longitude = (-77.764, -77.709]: val_2 (0.0)
|   |   longitude = (-111.293, -111.165]: val_2 (0.0)
|   |   longitude = (-104.074, -103.907]: val_2 (0.0)
|   |   longitude = (-97.34, -97.32]: val_2 (0.0)
|   |   longitude = (-111.555, -111.451]: val_2 (0.0)
|   |   longitude = (-85.805, -85.752]: val_2 (0.0)
|   |   longitude = (-75.388, -75.318]: val_2 (0.0)
|   |   longitude = (-71.515, -71.465]: val_2 (0.0)
|   |   longitude = (-89.31, -89.287]: val_2 (0.0)
|   |   longitude = (-95.862, -95.85]: val_2 (0.0)
|   |   longitude = (-87.937, -87.858]: val_2 (0.0)
|   |   longitude = (-83.262, -83.229]: val_2 (0.0)
|   |   longitude = (-79.077, -79.04]: val_2 (0.0)
|   |   longitude = (-103.208, -103.098]: val_2 (0.0)
|   |   longitude = (-97.384, -97.363]: val_2 (0.0)
|   |   longitude = (-89.577, -89.548]: val_2 (0.0)
|   |   longitude = (-96.61, -96.591]: val_2 (0.0)
|   |   longitude = (-85.655, -85.608]: val_2 (0.0)
|   |   longitude = (-113.489, -113.038]: val_2 (0.0)
|   |   longitude = (-80.841, -80.808]: val_2 (0.0)
|   |   longitude = (-105.186, -105.138]: val_2 (0.0)
|   |   longitude = (-98.041, -98.013]: val_2 (0.0)
|   |   longitude = (-81.93, -81.91]: val_2 (0.0)
|   |   longitude = (-95.668, -95.648]: val_2 (0.0)
|   |   longitude = (-76.591, -76.496]: val_2 (0.0)
|   |   longitude = (-82.072, -82.043]: val_2 (0.0)
|   |   longitude = (-107.048, -106.966]: val_2 (0.0)
|   |   longitude = (-80.43, -80.393]: val_2 (0.0)
|   |   longitude = (-90.067, -90.045]: val_2 (0.0)
|   |   longitude = (-112.478, -112.301]: val_2 (0.0)
|   |   longitude = (-81.89, -81.864]: val_2 (0.0)
|   |   longitude = (-80.978, -80.941]: val_2 (0.0)
|   |   longitude = (-98.282, -98.257]: val_2 (0.0)
|   |   longitude = (-94.156, -94.122]: val_2 (0.0)
|   |   longitude = (-80.573, -80.528]: val_2 (0.0)
|   |   longitude = (-91.261, -91.213]: val_2 (0.0)
|   |   longitude = (-120.341, -120.166]: val_2 (0.0)
|   |   longitude = (-94.401, -94.373]: val_2 (0.0)
|   |   longitude = (-98.946, -98.919]: val_2 (0.0)
|   |   longitude = (-116.532, -116.176]: val_2 (4.0)
|   |   longitude = (-96.44, -96.425]: val_2 (0.0)
|   |   longitude = (-86.498, -86.447]: val_2 (0.0)
|   |   longitude = (-88.006, -87.937]: val_2 (0.0)
|   |   longitude = (-94.741, -94.723]: val_2 (0.0)
|   |   longitude = (-94.189, -94.156]: val_2 (0.0)
|   |   longitude = (-98.128, -98.101]: val_2 (0.0)
|   |   longitude = (-96.496, -96.48]: val_2 (0.0)
|   |   longitude = (-90.268, -90.24]: val_2 (0.0)
|   |   longitude = (-82.099, -82.072]: val_2 (0.0)
|   |   longitude = (-93.688, -93.653]: val_2 (0.0)
|   |   longitude = (-85.192, -85.146]: val_2 (0.0)
|   |   longitude = (-88.617, -88.596]: val_2 (0.0)
|   |   longitude = (-82.968, -82.909]: val_2 (0.0)
|   |   longitude = (-79.193, -79.127]: val_2 (0.0)
|   |   longitude = (-93.555, -93.522]: val_2 (0.0)
|   |   longitude = (-96.127, -96.114]: val_2 (0.0)
|   |   longitude = (-93.168, -93.131]: val_2 (0.0)
|   |   longitude = (-71.113, -71.039]: val_2 (0.0)
|   |   longitude = (-95.007, -94.979]: val_2 (0.0)
|   |   longitude = (-87.738, -87.69]: val_2 (0.0)
|   |   longitude = (-81.767, -81.733]: val_2 (0.0)
|   |   longitude = (-70.727, -70.606]: val_2 (0.0)
|   |   longitude = (-111.983, -111.909]: val_2 (0.0)
|   |   longitude = (-86.391, -86.323]: val_2 (0.0)
|   |   longitude = (-83.542, -83.514]: val_2 (0.0)
|   |   longitude = (-104.955, -104.892]: val_2 (0.0)
|   |   longitude = (-97.008, -96.988]: val_2 (0.0)
|   |   longitude = (-95.985, -95.972]: val_2 (0.0)
|   |   longitude = (-96.218, -96.196]: val_2 (0.0)
|   |   longitude = (-73.007, -72.942]: val_2 (0.0)
|   |   longitude = (-86.447, -86.391]: val_2 (0.0)
|   |   longitude = (-84.672, -84.642]: val_2 (0.0)
|   |   longitude = (-71.179, -71.113]: val_2 (0.0)
|   |   longitude = (-83.514, -83.486]: val_2 (0.0)
|   |   longitude = (-81.97, -81.949]: val_2 (0.0)
|   |   longitude = (-96.544, -96.527]: val_2 (0.0)
|   |   longitude = (-98.234, -98.209]: val_2 (0.0)
|   |   longitude = (-92.719, -92.682]: val_2 (0.0)
|   |   longitude = (-115.283, -114.912]: val_4 (1.0)
|   |   longitude = (-87.47, -87.408]: val_2 (0.0)
|   |   longitude = (-89.426, -89.404]: val_2 (0.0)
|   |   longitude = (-87.644, -87.597]: val_2 (0.0)
|   |   longitude = (-95.822, -95.807]: val_2 (0.0)
|   |   longitude = (-103.907, -103.785]: val_2 (0.0)
|   |   longitude = (-111.165, -111.004]: val_2 (0.0)
|   |   longitude = (-85.146, -85.11]: val_2 (0.0)
|   |   longitude = (-99.527, -99.496]: val_2 (0.0)
|   |   longitude = (-107.924, -107.847]: val_2 (0.0)
|   |   longitude = (-89.723, -89.701]: val_2 (0.0)
|   |   longitude = (-75.895, -75.79]: val_2 (0.0)
|   |   longitude = (-94.635, -94.6]: val_2 (0.0)
|   |   longitude = (-95.548, -95.533]: val_2 (0.0)
|   |   longitude = (-105.464, -105.374]: val_2 (0.0)
|   |   longitude = (-90.214, -90.193]: val_2 (0.0)
|   |   longitude = (-80.734, -80.699]: val_2 (0.0)
|   |   longitude = (-73.46, -73.387]: val_2 (0.0)
|   |   longitude = (-96.819, -96.796]: val_2 (0.0)
|   |   longitude = (-107.651, -107.524]: val_2 (0.0)
|   |   longitude = (-81.051, -81.007]: val_2 (0.0)
|   |   longitude = (-96.395, -96.378]: val_2 (0.0)
|   |   longitude = (-68.586, -67.809]: val_2 (0.0)
|   |   longitude = (-92.682, -92.65]: val_2 (0.0)
|   |   longitude = (-67.809, 144.706]: val_2 (0.0)
|   |   longitude = (-97.859, -97.838]: val_2 (0.0)
|   |   longitude = (-96.7, -96.685]: val_2 (0.0)
|   |   longitude = (-71.705, -71.644]: val_2 (0.0)
|   |   longitude = (-89.23, -89.207]: val_2 (0.0)
|   |   longitude = (-80.09, -80.045]: val_2 (0.0)
|   |   longitude = (-84.912, -84.875]: val_2 (0.0)
|   |   longitude = (-89.207, -89.183]: val_2 (0.0)
|   |   longitude = (-101.421, -101.352]: val_2 (0.0)
|   |   longitude = (-96.836, -96.819]: val_2 (0.0)
|   |   longitude = (-72.027, -71.97]: val_2 (0.0)
|   |   longitude = (-89.846, -89.822]: val_2 (0.0)
|   |   longitude = (-96.558, -96.544]: val_2 (0.0)
|   |   longitude = (-103.331, -103.208]: val_2 (0.0)
|   |   longitude = (-119.504, -119.253]: val_2 (0.0)
|   |   longitude = (-95.517, -95.504]: val_2 (0.0)
|   |   longitude = (-95.957, -95.944]: val_2 (0.0)
|   |   longitude = (-107.752, -107.651]: val_2 (0.0)
|   |   longitude = (-94.929, -94.902]: val_2 (0.0)
|   |   longitude = (-83.965, -83.934]: val_2 (0.0)
|   |   longitude = (-94.853, -94.83]: val_2 (0.0)
|   |   longitude = (-90.764, -90.735]: val_2 (0.0)
|   |   longitude = (-95.914, -95.9]: val_2 (0.0)
|   |   longitude = (-77.542, -77.492]: val_2 (0.0)
|   |   longitude = (-69.715, -69.214]: val_2 (0.0)
|   |   longitude = (-92.847, -92.802]: val_2 (0.0)
|   |   longitude = (-94.008, -93.988]: val_2 (0.0)
|   |   longitude = (-74.112, -74.028]: val_2 (0.0)
|   |   longitude = (-88.926, -88.898]: val_2 (0.0)
|   |   longitude = (-76.769, -76.668]: val_2 (0.0)
|   |   longitude = (-88.872, -88.843]: val_2 (0.0)
|   |   longitude = (-81.16, -81.126]: val_2 (0.0)
|   |   longitude = (-90.173, -90.152]: val_2 (0.0)
|   |   longitude = (-103.785, -103.689]: val_2 (0.0)
|   |   longitude = (-90.629, -90.602]: val_2 (0.0)
|   |   longitude = (-69.214, -68.586]: val_2 (0.0)
|   |   longitude = (-95.588, -95.572]: val_2 (0.0)
|   |   longitude = (-81.368, -81.322]: val_2 (0.0)
|   |   longitude = (-91.003, -90.956]: val_2 (0.0)
|   |   longitude = (-91.97, -91.933]: val_2 (0.0)
|   |   longitude = (-79.304, -79.249]: val_2 (0.0)
|   |   longitude = (-113.038, -112.728]: val_2 (0.0)
|   |   longitude = (-96.334, -96.319]: val_2 (0.0)
|   |   longitude = (-85.36, -85.325]: val_2 (0.0)
|   |   longitude = (-109.523, -109.388]: val_2 (0.0)
|   |   longitude = (-87.077, -87.028]: val_2 (0.0)
|   |   longitude = (-72.131, -72.076]: val_2 (0.0)
|   |   longitude = (-89.605, -89.577]: val_2 (0.0)
|   |   longitude = (-84.402, -84.38]: val_2 (0.0)
|   |   longitude = (-94.979, -94.953]: val_2 (0.0)
|   |   longitude = (-71.25, -71.179]: val_2 (0.0)
|   |   longitude = (-70.864, -70.727]: val_2 (0.0)
|   |   longitude = (-78.444, -78.406]: val_2 (0.0)
|   |   longitude = (-122.989, -122.849]: val_2 (0.0)
|   |   longitude = (-83.666, -83.636]: val_2 (0.0)
|   |   longitude = (-93.388, -93.355]: val_2 (0.0)
|   |   longitude = (-77.259, -77.208]: val_2 (0.0)
|   |   longitude = (-95.709, -95.696]: val_2 (0.0)
|   |   longitude = (-106.63, -106.566]: val_2 (0.0)
|   |   longitude = (-99.052, -99.028]: val_2 (0.0)
|   |   longitude = (-91.616, -91.575]: val_2 (0.0)
|   |   longitude = (-79.127, -79.077]: val_2 (0.0)
|   |   longitude = (-102.485, -102.369]: val_2 (0.0)
|   |   longitude = (-119.732, -119.504]: val_4 (2.0/1.0)
|   |   longitude = (-95.111, -95.082]: val_2 (0.0)
|   |   longitude = (-91.368, -91.335]: val_2 (0.0)
|   |   longitude = (-111.004, -110.828]: val_2 (0.0)
|   |   longitude = (-98.314, -98.282]: val_2 (0.0)
|   |   longitude = (-96.04, -96.025]: val_2 (0.0)
|   |   longitude = (-73.109, -73.06]: val_2 (0.0)
|   |   longitude = (-108.423, -108.299]: val_2 (0.0)
|   |   longitude = (-116.887, -116.532]: val_2 (0.0)
|   |   longitude = (-77.6, -77.542]: val_2 (0.0)
|   |   longitude = (-97.473, -97.449]: val_2 (0.0)
|   |   longitude = (-89.742, -89.723]: val_2 (0.0)
|   |   longitude = (-75.703, -75.621]: val_2 (0.0)
|   |   longitude = (-99.665, -99.621]: val_2 (0.0)
|   |   longitude = (-95.807, -95.794]: val_2 (0.0)
|   |   longitude = (-84.707, -84.672]: val_2 (0.0)
|   |   longitude = (-72.713, -72.658]: val_2 (0.0)
|   |   longitude = (-81.82, -81.796]: val_2 (0.0)
|   |   longitude = (-91.436, -91.404]: val_2 (0.0)
|   |   longitude = (-82.018, -81.994]: val_2 (0.0)
|   |   longitude = (-106.75, -106.702]: val_2 (0.0)
|   |   longitude = (-82.856, -82.809]: val_2 (0.0)
|   |   longitude = (-74.794, -74.741]: val_2 (0.0)
|   |   longitude = (-80.528, -80.477]: val_2 (0.0)
|   |   longitude = (-81.522, -81.477]: val_2 (0.0)
|   |   longitude = (-100.122, -100.075]: val_2 (0.0)
|   |   longitude = (-88.843, -88.818]: val_2 (0.0)
|   |   longitude = (-85.275, -85.234]: val_2 (0.0)
|   |   longitude = (-95.632, -95.618]: val_2 (0.0)
|   |   longitude = (-75.472, -75.388]: val_2 (0.0)
|   |   longitude = (-80.699, -80.66]: val_2 (0.0)
|   |   longitude = (-80.045, -80.004]: val_2 (0.0)
|   |   longitude = (-114.081, -113.489]: val_2 (0.0)
|   |   longitude = (-105.633, -105.558]: val_2 (0.0)
|   |   longitude = (-81.283, -81.24]: val_2 (0.0)
|   |   longitude = (-79.249, -79.193]: val_2 (0.0)
|   |   longitude = (-83.34, -83.302]: val_2 (0.0)
|   |   longitude = (-91.544, -91.5]: val_2 (0.0)
|   |   longitude = (-81.09, -81.051]: val_2 (0.0)
|   |   longitude = (-84.479, -84.451]: val_2 (0.0)
|   |   longitude = (-93.204, -93.168]: val_2 (0.0)
|   |   longitude = (-100.176, -100.122]: val_2 (0.0)
|   |   longitude = (-96.756, -96.737]: val_2 (0.0)
|   |   longitude = (-72.784, -72.713]: val_2 (0.0)
|   |   longitude = (-82.537, -82.503]: val_2 (0.0)
|   |   longitude = (-95.288, -95.268]: val_2 (0.0)
|   |   longitude = (-77.436, -77.376]: val_2 (0.0)
|   |   longitude = (-100.639, -100.593]: val_2 (0.0)
|   |   longitude = (-75.318, -75.258]: val_2 (0.0)
|   |   longitude = (-98.753, -98.721]: val_2 (0.0)
|   |   longitude = (-121.063, -120.927]: val_2 (0.0)
|   |   longitude = (-81.699, -81.659]: val_2 (0.0)
|   |   longitude = (-99.732, -99.697]: val_2 (0.0)
|   |   longitude = (-83.825, -83.794]: val_2 (0.0)
|   |   longitude = (-106.966, -106.88]: val_2 (0.0)
|   |   longitude = (-105.701, -105.633]: val_2 (0.0)
|   |   longitude = (-96.056, -96.04]: val_2 (0.0)
|   |   longitude = (-98.867, -98.835]: val_2 (0.0)
|   |   longitude = (-86.159, -86.111]: val_2 (0.0)
|   |   longitude = (-79.459, -79.406]: val_2 (0.0)
|   |   longitude = (-95.876, -95.862]: val_2 (0.0)
|   |   longitude = (-81.994, -81.97]: val_2 (0.0)
|   |   longitude = (-114.912, -114.49]: val_2 (0.0)
|   |   longitude = (-96.467, -96.453]: val_2 (0.0)
|   |   longitude = (-98.895, -98.867]: val_2 (0.0)
|   |   longitude = (-89.017, -88.992]: val_2 (0.0)
|   |   longitude = (-77.924, -77.877]: val_2 (0.0)
|   |   longitude = (-82.726, -82.688]: val_2 (0.0)
|   |   longitude = (-95.176, -95.154]: val_2 (0.0)
|   |   longitude = (-99.028, -99.003]: val_2 (0.0)
|   |   longitude = (-73.822, -73.731]: val_2 (0.0)
|   |   longitude = (-96.233, -96.218]: val_2 (0.0)
|   |   longitude = (-97.301, -97.281]: val_2 (0.0)
|   |   longitude = (-76.84, -76.769]: val_2 (0.0)
|   |   longitude = (-98.61, -98.579]: val_2 (0.0)
|   |   longitude = (-104.787, -104.72]: val_2 (0.0)
|   |   longitude = (-97.32, -97.301]: val_2 (0.0)
|   |   longitude = (-97.404, -97.384]: val_2 (0.0)
|   |   longitude = (-83.453, -83.428]: val_2 (0.0)
|   |   longitude = (-93.418, -93.388]: val_2 (0.0)
|   |   longitude = (-72.376, -72.31]: val_2 (0.0)
|   |   longitude = (-86.22, -86.159]: val_2 (0.0)
|   |   longitude = (-90.435, -90.404]: val_2 (0.0)
|   |   longitude = (-91.7, -91.658]: val_2 (0.0)
|   |   longitude = (-86.684, -86.622]: val_2 (0.0)
|   |   longitude = (-86.963, -86.883]: val_2 (0.0)
|   |   longitude = (-107.847, -107.752]: val_2 (0.0)
|   |   longitude = (-98.209, -98.18]: val_2 (0.0)
|   |   longitude = (-112.301, -112.096]: val_2 (0.0)
|   |   longitude = (-90.045, -90.023]: val_2 (0.0)
|   |   longitude = (-117.102, -116.887]: val_2 (0.0)
|   |   longitude = (-106.88, -106.805]: val_2 (0.0)
|   |   longitude = (-97.363, -97.34]: val_2 (0.0)
|   |   longitude = (-94.122, -94.098]: val_2 (0.0)
|   |   longitude = (-91.084, -91.049]: val_2 (0.0)
|   |   longitude = (-82.618, -82.577]: val_2 (0.0)
|   |   longitude = (-86.065, -86.02]: val_2 (0.0)
|   |   longitude = (-99.35, -99.315]: val_2 (0.0)
|   |   longitude = (-71.384, -71.309]: val_2 (0.0)
|   |   longitude = (-75.258, -75.198]: val_2 (0.0)
|   |   longitude = (-106.061, -105.974]: val_2 (0.0)
|   |   longitude = (-89.906, -89.885]: val_2 (0.0)
|   |   longitude = (-89.655, -89.634]: val_2 (0.0)
|   |   longitude = (-95.533, -95.517]: val_2 (0.0)
|   |   longitude = (-81.91, -81.89]: val_2 (0.0)
|   |   longitude = (-82.503, -82.469]: val_2 (0.0)
|   |   longitude = (-95.42, -95.4]: val_2 (0.0)
|   |   longitude = (-93.355, -93.317]: val_2 (0.0)
|   |   longitude = (-92.943, -92.903]: val_2 (0.0)
|   |   longitude = (-98.101, -98.067]: val_2 (0.0)
|   |   longitude = (-74.913, -74.855]: val_2 (0.0)
|   |   longitude = (-75.038, -74.971]: val_2 (0.0)
|   |   longitude = (-99.902, -99.858]: val_2 (0.0)
|   |   longitude = (-94.373, -94.336]: val_2 (0.0)
|   |   longitude = (-82.41, -82.379]: val_2 (0.0)
|   |   longitude = (-98.782, -98.753]: val_2 (0.0)
|   |   longitude = (-71.768, -71.705]: val_2 (0.0)
|   |   longitude = (-97.238, -97.22]: val_2 (0.0)
|   |   longitude = (-73.27, -73.206]: val_2 (0.0)
|   |   longitude = (-72.859, -72.784]: val_2 (0.0)
|   |   longitude = (-72.185, -72.131]: val_2 (0.0)
|   |   longitude = (-79.406, -79.355]: val_2 (0.0)
|   |   longitude = (-88.479, -88.448]: val_2 (0.0)
|   |   longitude = (-82.655, -82.618]: val_2 (0.0)
|   |   longitude = (-88.785, -88.761]: val_2 (0.0)
|   |   longitude = (-99.798, -99.767]: val_2 (0.0)
|   |   longitude = (-97.93, -97.9]: val_2 (0.0)
|   |   longitude = (-93.317, -93.278]: val_2 (0.0)
|   |   longitude = (-92.28, -92.236]: val_2 (0.0)
|   |   longitude = (-91.335, -91.294]: val_2 (0.0)
|   |   longitude = (-93.131, -93.099]: val_2 (0.0)
|   |   longitude = (-85.234, -85.192]: val_2 (0.0)
|   |   longitude = (-122.424, -122.328]: val_2 (0.0)
|   |   longitude = (-85.553, -85.5]: val_2 (0.0)
|   |   longitude = (-94.876, -94.853]: val_2 (0.0)
|   |   longitude = (-73.206, -73.154]: val_2 (0.0)
|   |   longitude = (-98.579, -98.54]: val_2 (0.0)
|   |   longitude = (-105.054, -105.013]: val_2 (0.0)
|   |   longitude = (-85.46, -85.405]: val_2 (0.0)
|   |   longitude = (-74.028, -73.924]: val_2 (0.0)
|   |   longitude = (-94.83, -94.811]: val_2 (0.0)
|   |   longitude = (-95.766, -95.752]: val_2 (0.0)
|   |   longitude = (-96.933, -96.914]: val_2 (0.0)
|   |   longitude = (-80.264, -80.204]: val_2 (0.0)
|   |   longitude = (-90.815, -90.79]: val_2 (0.0)
|   |   longitude = (-99.135, -99.108]: val_2 (0.0)
|   |   longitude = (-90.372, -90.348]: val_2 (0.0)
|   |   longitude = (-102.058, -101.959]: val_2 (0.0)
|   |   longitude = (-93.92, -93.895]: val_2 (0.0)
|   |   longitude = (-74.481, -74.427]: val_2 (0.0)
|   |   longitude = (-88.276, -88.231]: val_2 (0.0)
|   |   longitude = (-122.328, -122.223]: val_2 (0.0)
|   |   longitude = (-122.849, -122.746]: val_2 (0.0)
|   |   longitude = (-88.969, -88.947]: val_2 (0.0)
|   |   longitude = (-97.63, -97.612]: val_2 (0.0)
|   |   longitude = (-108.917, -108.736]: val_2 (0.0)
|   |   longitude = (-95.9, -95.887]: val_2 (0.0)
|   |   longitude = (-96.645, -96.629]: val_2 (0.0)
|   |   longitude = (-79.929, -79.892]: val_2 (0.0)
|   |   longitude = (-98.436, -98.406]: val_2 (0.0)
|   |   longitude = (-84.425, -84.402]: val_2 (0.0)
|   |   longitude = (-88.992, -88.969]: val_2 (0.0)
|   |   longitude = (-81.126, -81.09]: val_2 (0.0)
|   |   longitude = (-85.858, -85.805]: val_2 (0.0)
|   |   longitude = (-93.837, -93.802]: val_2 (0.0)
|   |   longitude = (-95.438, -95.42]: val_2 (0.0)
|   |   longitude = (-90.547, -90.523]: val_2 (0.0)
|   |   longitude = (-111.849, -111.767]: val_2 (0.0)
|   |   longitude = (-89.135, -89.113]: val_2 (0.0)
|   |   longitude = (-83.636, -83.609]: val_2 (0.0)
|   |   longitude = (-95.85, -95.835]: val_2 (0.0)
|   |   longitude = (-99.983, -99.937]: val_2 (0.0)
|   |   longitude = (-89.93, -89.906]: val_2 (0.0)
|   |   longitude = (-96.101, -96.085]: val_2 (0.0)
|   |   longitude = (-99.403, -99.375]: val_2 (0.0)
|   |   longitude = (-76.91, -76.84]: val_2 (0.0)
|   |   longitude = (-108.576, -108.423]: val_2 (0.0)
|   |   longitude = (-92.386, -92.359]: val_2 (0.0)
|   |   longitude = (-83.694, -83.666]: val_2 (0.0)
|   |   longitude = (-78.37, -78.323]: val_2 (0.0)
|   |   longitude = (-83.155, -83.114]: val_2 (0.0)
|   |   longitude = (-88.947, -88.926]: val_2 (0.0)
|   |   longitude = (-79.892, -79.86]: val_2 (0.0)
|   |   longitude = (-84.299, -84.275]: val_2 (0.0)
|   |   longitude = (-95.683, -95.668]: val_2 (0.0)
|   |   longitude = (-88.231, -88.178]: val_2 (0.0)
|   |   longitude = (-73.672, -73.603]: val_2 (0.0)
|   |   longitude = (-96.685, -96.665]: val_2 (0.0)
|   |   longitude = (-89.335, -89.31]: val_2 (0.0)
|   |   longitude = (-89.183, -89.158]: val_2 (0.0)
|   |   longitude = (-82.909, -82.856]: val_2 (0.0)
|   |   longitude = (-96.305, -96.293]: val_2 (0.0)
|   |   longitude = (-89.449, -89.426]: val_2 (0.0)
|   |   longitude = (-93.452, -93.418]: val_2 (0.0)
|   |   longitude = (-84.993, -84.951]: val_2 (0.0)
|   |   longitude = (-100.888, -100.832]: val_2 (0.0)
|   |   longitude = (-82.043, -82.018]: val_2 (0.0)
|   |   longitude = (-94.303, -94.273]: val_2 (0.0)
|   |   longitude = (-100.53, -100.476]: val_2 (0.0)
|   |   longitude = (-89.356, -89.335]: val_2 (0.0)
|   |   longitude = (-96.159, -96.141]: val_2 (0.0)
|   |   longitude = (-82.192, -82.157]: val_2 (0.0)
|   |   longitude = (-83.031, -82.968]: val_2 (0.0)
|   |   longitude = (-82.769, -82.726]: val_2 (0.0)
|   |   longitude = (-106.307, -106.219]: val_2 (0.0)
|   |   longitude = (-83.727, -83.694]: val_2 (0.0)
|   |   longitude = (-73.924, -73.822]: val_2 (0.0)
|   |   longitude = (-99.187, -99.16]: val_2 (0.0)
|   |   longitude = (-97.669, -97.65]: val_2 (0.0)
|   |   longitude = (-105.013, -104.955]: val_2 (0.0)
|   |   longitude = (-70.961, -70.864]: val_2 (0.0)
|   |   longitude = (-92.148, -92.111]: val_2 (0.0)
|   |   longitude = (-91.859, -91.827]: val_2 (0.0)
|   |   longitude = (-90.523, -90.491]: val_2 (0.0)
|   |   longitude = (-90.79, -90.764]: val_2 (0.0)
|   |   longitude = (-98.257, -98.234]: val_2 (0.0)
|   |   longitude = (-92.65, -92.614]: val_2 (0.0)
|   |   longitude = (-95.944, -95.93]: val_2 (0.0)
|   |   longitude = (-102.257, -102.159]: val_2 (0.0)
|   |   longitude = (-90.602, -90.575]: val_2 (0.0)
|   |   longitude = (-121.421, -121.202]: val_2 (0.0)
|   |   longitude = (-89.056, -89.036]: val_2 (0.0)
|   |   longitude = (-78.855, -78.802]: val_2 (0.0)
|   |   longitude = (-122.223, -122.114]: val_2 (0.0)
|   |   longitude = (-112.096, -111.983]: val_2 (0.0)
|   |   longitude = (-100.333, -100.285]: val_2 (0.0)
|   |   longitude = (-104.892, -104.846]: val_2 (0.0)
|   |   longitude = (-99.828, -99.798]: val_2 (0.0)
|   |   longitude = (-112.728, -112.478]: val_2 (0.0)
|   |   longitude = (-85.911, -85.858]: val_2 (0.0)
|   |   longitude = (-92.802, -92.759]: val_2 (0.0)
|   |   longitude = (-96.01, -95.998]: val_2 (0.0)
|   |   longitude = (-96.892, -96.872]: val_2 (0.0)
|   |   longitude = (-108.066, -107.991]: val_2 (0.0)
|   |   longitude = (-71.039, -70.961]: val_2 (0.0)
|   |   longitude = (-92.474, -92.446]: val_2 (0.0)
|   |   longitude = (-80.316, -80.264]: val_2 (0.0)
|   |   longitude = (-90.152, -90.13]: val_2 (0.0)
|   |   longitude = (-99.437, -99.403]: val_2 (0.0)
|   |   longitude = (-88.596, -88.576]: val_2 (0.0)
|   |   longitude = (-93.582, -93.555]: val_2 (0.0)
|   |   longitude = (-71.917, -71.873]: val_2 (0.0)
|   |   longitude = (-71.644, -71.576]: val_2 (0.0)
|   |   longitude = (-94.764, -94.741]: val_2 (0.0)
|   |   longitude = (-90.193, -90.173]: val_2 (0.0)
|   |   longitude = (-97.612, -97.594]: val_2 (0.0)
|   |   longitude = (-90.491, -90.461]: val_2 (0.0)
|   |   longitude = (-78.529, -78.49]: val_2 (0.0)
|   |   longitude = (-87.135, -87.077]: val_2 (0.0)
|   |   longitude = (-98.406, -98.373]: val_2 (0.0)
|   |   longitude = (-116.176, -115.888]: val_2 (0.0)
|   |   longitude = (-94.098, -94.076]: val_2 (0.0)
|   |   longitude = (-107.189, -107.12]: val_2 (0.0)
|   |   longitude = (-91.575, -91.544]: val_2 (0.0)
|   |   longitude = (-86.27, -86.22]: val_2 (0.0)
|   |   longitude = (-94.468, -94.435]: val_2 (0.0)
|   |   longitude = (-87.367, -87.319]: val_2 (0.0)
|   |   longitude = (-122.526, -122.424]: val_2 (0.0)
|   |   longitude = (-85.966, -85.911]: val_2 (0.0)
|   |   longitude = (-94.785, -94.764]: val_2 (0.0)
|   |   longitude = (-78.49, -78.444]: val_2 (0.0)
|   |   longitude = (-95.472, -95.457]: val_2 (0.0)
|   |   longitude = (-88.32, -88.276]: val_2 (0.0)
|   |   longitude = (-80.66, -80.613]: val_2 (0.0)
|   |   longitude = (-77.709, -77.654]: val_2 (0.0)
|   |   longitude = (-83.903, -83.865]: val_2 (0.0)
|   |   longitude = (-84.538, -84.511]: val_2 (0.0)
|   |   longitude = (-78.708, -78.666]: val_2 (0.0)
|   |   longitude = (-81.796, -81.767]: val_2 (0.0)
|   |   longitude = (-90.004, -89.985]: val_2 (0.0)
|   |   longitude = (-71.825, -71.768]: val_2 (0.0)
|   |   longitude = (-109.236, -109.064]: val_2 (0.0)
|   |   longitude = (-81.562, -81.522]: val_2 (0.0)
|   |   longitude = (-92.004, -91.97]: val_2 (0.0)
|   |   longitude = (-84.812, -84.78]: val_2 (0.0)
|   |   longitude = (-97.538, -97.522]: val_2 (0.0)
|   |   longitude = (-94.336, -94.303]: val_2 (0.0)
|   |   longitude = (-85.11, -85.067]: val_2 (0.0)
|   |   longitude = (-94.6, -94.552]: val_2 (0.0)
|   |   longitude = (-91.294, -91.261]: val_2 (0.0)
|   |   longitude = (-88.576, -88.555]: val_2 (0.0)
|   |   longitude = (-102.72, -102.594]: val_2 (0.0)
|   |   longitude = (-97.773, -97.751]: val_2 (0.0)
|   |   longitude = (-98.64, -98.61]: val_2 (0.0)
|   |   longitude = (-83.794, -83.756]: val_2 (0.0)
|   |   longitude = (-83.934, -83.903]: val_2 (0.0)
|   |   longitude = (-96.513, -96.496]: val_2 (0.0)
|   |   longitude = (-82.309, -82.27]: val_2 (0.0)
|   |   longitude = (-101.352, -101.274]: val_2 (0.0)
|   |   longitude = (-96.591, -96.575]: val_2 (0.0)
|   |   longitude = (-99.496, -99.466]: val_2 (0.0)
|   |   longitude = (-78.181, -78.107]: val_2 (0.0)
|   |   longitude = (-117.463, -117.254]: val_2 (0.0)
|   |   longitude = (-99.253, -99.216]: val_2 (0.0)
|   |   longitude = (-108.299, -108.168]: val_2 (0.0)
|   |   longitude = (-74.741, -74.658]: val_2 (0.0)
|   |   longitude = (-105.879, -105.802]: val_2 (0.0)
|   |   longitude = (-98.808, -98.782]: val_2 (0.0)
|   |   longitude = (-97.576, -97.56]: val_2 (0.0)
|   |   longitude = (-74.593, -74.534]: val_2 (0.0)
|   |   longitude = (-119.069, -118.809]: val_2 (0.0)
|   |   longitude = (-72.577, -72.508]: val_2 (0.0)
|   |   longitude = (-102.835, -102.72]: val_2 (0.0)
|   |   longitude = (-97.029, -97.008]: val_2 (0.0)
|   |   longitude = (-79.967, -79.929]: val_2 (0.0)
|   |   longitude = (-78.939, -78.893]: val_2 (0.0)
|   |   longitude = (-78.569, -78.529]: val_2 (0.0)
|   |   longitude = (-96.48, -96.467]: val_2 (0.0)
|   |   longitude = (-81.198, -81.16]: val_2 (0.0)
|   |   longitude = (-99.937, -99.902]: val_2 (0.0)
|   |   longitude = (-95.134, -95.111]: val_2 (0.0)
|   |   longitude = (-92.614, -92.582]: val_2 (0.0)
|   |   longitude = (-83.995, -83.965]: val_2 (0.0)
|   |   longitude = (-103.689, -103.597]: val_2 (0.0)
|   |   longitude = (-96.281, -96.267]: val_2 (0.0)
|   |   longitude = (-79.526, -79.459]: val_2 (0.0)
|   |   longitude = (-73.387, -73.27]: val_2 (0.0)
|   |   longitude = (-91.5, -91.468]: val_2 (0.0)
|   |   longitude = (-91.213, -91.163]: val_2 (0.0)
|   |   longitude = (-83.428, -83.402]: val_2 (0.0)
|   |   longitude = (-96.18, -96.159]: val_2 (0.0)
|   |   longitude = (-102.369, -102.257]: val_2 (0.0)
|   |   longitude = (-76.668, -76.591]: val_2 (0.0)
|   |   longitude = (-83.37, -83.34]: val_2 (0.0)
|   |   longitude = (-84.38, -84.354]: val_2 (0.0)
|   |   longitude = (-95.572, -95.56]: val_2 (0.0)
|   |   longitude = (-95.216, -95.196]: val_2 (0.0)
|   |   longitude = (-95.457, -95.438]: val_2 (0.0)
|   |   longitude = (-84.138, -84.111]: val_2 (0.0)
|   |   longitude = (-95.835, -95.822]: val_2 (0.0)
|   |   longitude = (-92.494, -92.474]: val_2 (0.0)
|   |   longitude = (-89.967, -89.951]: val_2 (0.0)
|   |   longitude = (-89.287, -89.258]: val_2 (0.0)
|   |   longitude = (-118.19, -117.893]: val_2 (0.0)
|   |   longitude = (-93.968, -93.948]: val_2 (0.0)
|   |   longitude = (-81.322, -81.283]: val_2 (0.0)
|   |   longitude = (-72.31, -72.25]: val_2 (0.0)
|   |   longitude = (-97.56, -97.538]: val_2 (0.0)
|   |   longitude = (-89.258, -89.23]: val_2 (0.0)
|   |   longitude = (-103.597, -103.488]: val_2 (0.0)
|   |   longitude = (-110.828, -110.648]: val_2 (0.0)
|   |   longitude = (-89.38, -89.356]: val_2 (0.0)
|   |   longitude = (-93.865, -93.837]: val_2 (0.0)
|   |   longitude = (-96.141, -96.127]: val_2 (0.0)
|   |   longitude = (-85.405, -85.36]: val_2 (0.0)
|   |   longitude = (-92.759, -92.719]: val_2 (0.0)
|   |   longitude = (-90.13, -90.107]: val_2 (0.0)
|   |   longitude = (-101.711, -101.647]: val_2 (0.0)
|   |   longitude = (-89.951, -89.93]: val_2 (0.0)
|   |   longitude = (-97.259, -97.238]: val_2 (0.0)
|   |   longitude = (-97.16, -97.141]: val_2 (0.0)
|   |   longitude = (-84.031, -83.995]: val_2 (0.0)
|   |   longitude = (-87.028, -86.963]: val_2 (0.0)
|   |   longitude = (-75.974, -75.895]: val_2 (0.0)
|   |   longitude = (-120.623, -120.487]: val_2 (0.0)
|   |   longitude = (-87.558, -87.512]: val_2 (0.0)
|   |   longitude = (-97.119, -97.096]: val_2 (0.0)
|   |   longitude = (-81.864, -81.842]: val_2 (0.0)
|   |   longitude = (-99.858, -99.828]: val_2 (0.0)
|   |   longitude = (-93.033, -92.981]: val_2 (0.0)
|   |   longitude = (-73.06, -73.007]: val_2 (0.0)
|   |   longitude = (-93.278, -93.241]: val_2 (0.0)
|   |   longitude = (-81.42, -81.368]: val_2 (0.0)
|   |   longitude = (-89.523, -89.498]: val_2 (0.0)
|   |   longitude = (-121.699, -121.421]: val_2 (0.0)
|   |   longitude = (-93.948, -93.92]: val_2 (0.0)
|   |   longitude = (-85.067, -85.031]: val_2 (0.0)
|   |   longitude = (-95.737, -95.724]: val_2 (0.0)
|   |   longitude = (-107.315, -107.257]: val_2 (0.0)
|   |   longitude = (-99.216, -99.187]: val_2 (0.0)
|   |   longitude = (-84.587, -84.562]: val_2 (0.0)
|   |   longitude = (-111.451, -111.293]: val_2 (0.0)
|   |   longitude = (-85.031, -84.993]: val_2 (0.0)
|   |   longitude = (-84.511, -84.479]: val_2 (0.0)
|   |   longitude = (-90.461, -90.435]: val_2 (0.0)
|   |   longitude = (-83.865, -83.825]: val_2 (0.0)
|   |   longitude = (-80.204, -80.144]: val_2 (0.0)
|   |   longitude = (-96.085, -96.069]: val_2 (0.0)
|   |   longitude = (-107.524, -107.417]: val_2 (0.0)
|   |   longitude = (-95.56, -95.548]: val_2 (0.0)
|   |   longitude = (-107.257, -107.189]: val_2 (0.0)
|   |   longitude = (-98.013, -97.987]: val_2 (0.0)
|   |   longitude = (-93.522, -93.487]: val_2 (0.0)
|   |   longitude = (-91.658, -91.616]: val_2 (0.0)
|   |   longitude = (-92.418, -92.386]: val_2 (0.0)
|   |   longitude = (-100.593, -100.53]: val_2 (0.0)
|   |   longitude = (-88.898, -88.872]: val_2 (0.0)
|   |   longitude = (-70.606, -70.225]: val_2 (0.0)
|   |   longitude = (-79.04, -78.993]: val_2 (0.0)
|   |   longitude = (-90.658, -90.629]: val_2 (0.0)
|   |   longitude = (-97.424, -97.404]: val_2 (0.0)
|   |   longitude = (-98.373, -98.341]: val_2 (0.0)
|   |   longitude = (-88.669, -88.645]: val_2 (0.0)
|   |   longitude = (-86.813, -86.758]: val_2 (0.0)
|   |   longitude = (-97.9, -97.88]: val_2 (0.0)
|   |   longitude = (-92.582, -92.552]: val_2 (0.0)
|   |   longitude = (-80.902, -80.877]: val_2 (0.0)
|   |   longitude = (-78.273, -78.234]: val_2 (0.0)
|   |   longitude = (-84.252, -84.226]: val_2 (0.0)
|   |   longitude = (-85.691, -85.655]: val_2 (0.0)
|   |   longitude = (-81.477, -81.42]: val_2 (0.0)
|   |   longitude = (-81.842, -81.82]: val_2 (0.0)
|   |   longitude = (-88.818, -88.785]: val_2 (0.0)
|   |   longitude = (-71.873, -71.825]: val_2 (0.0)
|   |   longitude = (-78.666, -78.614]: val_2 (0.0)
|   |   longitude = (-96.249, -96.233]: val_2 (0.0)
|   |   longitude = (-73.603, -73.522]: val_2 (0.0)
|   |   longitude = (-120.487, -120.341]: val_2 (0.0)
|   |   longitude = (-85.5, -85.46]: val_2 (0.0)
|   |   longitude = (-84.226, -84.198]: val_2 (0.0)
|   |   longitude = (-74.534, -74.481]: val_2 (0.0)
|   |   longitude = (-90.084, -90.067]: val_2 (0.0)
|   |   longitude = (-85.608, -85.553]: val_2 (0.0)
|   |   longitude = (-96.267, -96.249]: val_2 (0.0)
|   |   longitude = (-87.69, -87.644]: val_2 (0.0)
|   |   longitude = (-96.857, -96.836]: val_2 (0.0)
|   |   longitude = (-106.566, -106.504]: val_2 (0.0)
|   |   longitude = (-94.723, -94.7]: val_2 (0.0)
|   |   longitude = (-79.694, -79.629]: val_2 (0.0)
|   |   longitude = (-98.54, -98.506]: val_2 (0.0)
|   |   longitude = (-91.898, -91.859]: val_2 (0.0)
|   |   longitude = (-103.488, -103.331]: val_2 (0.0)
|   |   longitude = (-107.12, -107.048]: val_2 (0.0)
|   |   longitude = (-75.198, -75.126]: val_2 (0.0)
|   |   longitude = (-98.698, -98.67]: val_2 (0.0)
