=== Run information ===

Scheme:       weka.classifiers.trees.J48 -C 0.25 -M 2
Relation:     train_CfsSubsetEval
Instances:    74014
Attributes:   16
              primaryPurposeId
              ownerTypeIds__6
              primaryOwnerTypeId
              purposeIds__8
              purposeIds__10
              state
              foundationTypeIds__1
              damHeight
              nidHeightId
              volume
              nidStorage
              normalStorage
              maxDischarge
              huc2
              femaRegion
              hazardId
Test mode:    evaluate on training data

=== Classifier model (full training set) ===

J48 pruned tree
------------------

state = Texas
|   maxDischarge = (10826.32, 16252.94]: val_4 (121.0/41.0)
|   maxDischarge = (263.0, 300.0]
|   |   nidHeightId = val_3: val_2 (4.0/1.0)
|   |   nidHeightId = val_4: val_4 (4.0)
|   |   nidHeightId = val_2: val_2 (1.0)
|   |   nidHeightId = val_1: val_4 (0.0)
|   |   nidHeightId = val_5: val_4 (0.0)
|   maxDischarge = (3274.94, 4000.0]: val_4 (87.0/37.0)
|   maxDischarge = (6206.0, 8423.08]: val_2 (3785.0/158.0)
|   maxDischarge = (236.0, 263.0]: val_2 (3.0/1.0)
|   maxDischarge = (120.0, 140.0]: val_4 (2.0)
|   maxDischarge = (790.0, 864.0]: val_2 (24.0/14.0)
|   maxDischarge = (864.0, 960.0]: val_4 (21.0/10.0)
|   maxDischarge = (82.0, 100.0]
|   |   primaryOwnerTypeId = val_5: val_4 (2.0)
|   |   primaryOwnerTypeId = val_1: val_3 (4.0/2.0)
|   |   primaryOwnerTypeId = val_3: val_3 (1.0)
|   |   primaryOwnerTypeId = val_4: val_4 (0.0)
|   |   primaryOwnerTypeId = val_6: val_4 (0.0)
|   |   primaryOwnerTypeId = val_2: val_4 (0.0)
|   |   primaryOwnerTypeId = val_7: val_4 (0.0)
|   maxDischarge = (400.0, 448.0]
|   |   primaryOwnerTypeId = val_5: val_4 (3.0)
|   |   primaryOwnerTypeId = val_1: val_3 (3.0/1.0)
|   |   primaryOwnerTypeId = val_3: val_4 (0.0)
|   |   primaryOwnerTypeId = val_4: val_4 (0.0)
|   |   primaryOwnerTypeId = val_6: val_4 (0.0)
|   |   primaryOwnerTypeId = val_2: val_4 (0.0)
|   |   primaryOwnerTypeId = val_7: val_4 (0.0)
|   maxDischarge = (100.0, 120.0]
|   |   primaryOwnerTypeId = val_5: val_4 (4.0)
|   |   primaryOwnerTypeId = val_1: val_3 (3.0/1.0)
|   |   primaryOwnerTypeId = val_3: val_4 (1.0)
|   |   primaryOwnerTypeId = val_4: val_4 (0.0)
|   |   primaryOwnerTypeId = val_6: val_4 (0.0)
|   |   primaryOwnerTypeId = val_2: val_4 (0.0)
|   |   primaryOwnerTypeId = val_7: val_4 (0.0)
|   maxDischarge = (2757.8, 3274.94]: val_4 (67.0/26.0)
|   maxDischarge = (140.0, 161.0]: val_4 (4.0)
|   maxDischarge = (8423.08, 10826.32]: val_4 (95.0/34.0)
|   maxDischarge = (29433.0, 75980.0]: val_4 (95.0/20.0)
|   maxDischarge = (1040.0, 1160.0]: val_4 (28.0/12.0)
|   maxDischarge = (1801.0, 2051.46]: val_4 (41.0/21.0)
|   maxDischarge = (540.0, 600.0]: val_4 (20.0/8.0)
|   maxDischarge = (327.0, 362.0]
|   |   primaryPurposeId = val_9.0: val_4 (6.0)
|   |   primaryPurposeId = val_2.0: val_4 (0.0)
|   |   primaryPurposeId = val_10.0: val_4 (0.0)
|   |   primaryPurposeId = val_1.0: val_4 (0.0)
|   |   primaryPurposeId = val_11.0: val_4 (0.0)
|   |   primaryPurposeId = val_12.0: val_4 (0.0)
|   |   primaryPurposeId = val_5.0: val_2 (4.0/1.0)
|   |   primaryPurposeId = val_8.0: val_3 (1.0)
|   |   primaryPurposeId = val_4.0: val_4 (0.0)
|   |   primaryPurposeId = val_6.0: val_4 (0.0)
|   |   primaryPurposeId = val_7.0: val_4 (0.0)
|   |   primaryPurposeId = val_3.0: val_4 (0.0)
|   maxDischarge = (1425.0, 1600.0]: val_4 (30.0/13.0)
|   maxDischarge = (64.0, 82.0]: val_2 (10.0/5.0)
|   maxDischarge = (161.0, 185.0]
|   |   volume = (110169.3, 149261.956]: val_2 (3.0)
|   |   volume = (14400.0, 15600.0]: val_2 (0.0)
|   |   volume = (17100.0, 18817.68]: val_2 (0.0)
|   |   volume = (-0.001, 100.0]: val_3 (3.0/1.0)
|   |   volume = (18817.68, 20624.75]: val_2 (0.0)
|   |   volume = (56829.14, 68643.1]: val_2 (0.0)
|   |   volume = (10958.486, 12000.0]: val_2 (0.0)
|   |   volume = (39548.0, 47399.76]: val_2 (0.0)
|   |   volume = (47399.76, 56829.14]: val_2 (0.0)
|   |   volume = (68643.1, 85000.0]: val_2 (0.0)
|   |   volume = (20624.75, 23000.0]: val_2 (0.0)
|   |   volume = (8772.26, 9959.59]: val_2 (0.0)
|   |   volume = (12000.0, 13200.0]: val_2 (0.0)
|   |   volume = (28889.46, 33300.0]: val_2 (0.0)
|   |   volume = (910000.0, 125628000.0]: val_2 (0.0)
|   |   volume = (9959.59, 10958.486]: val_2 (0.0)
|   |   volume = (154214.01, 271898.0]: val_2 (0.0)
|   |   volume = (271898.0, 910000.0]: val_2 (0.0)
|   |   volume = (100.0, 1858.7]: val_2 (0.0)
|   |   volume = (85000.0, 110169.3]: val_2 (0.0)
|   |   volume = (23000.0, 25488.48]: val_2 (0.0)
|   |   volume = (6391.16, 7672.25]: val_2 (0.0)
|   |   volume = (13200.0, 14400.0]: val_2 (0.0)
|   |   volume = (15600.0, 17100.0]: val_2 (0.0)
|   |   volume = (33300.0, 39548.0]: val_2 (0.0)
|   |   volume = (7672.25, 8772.26]: val_2 (0.0)
|   |   volume = (25488.48, 28889.46]: val_2 (0.0)
|   |   volume = (4700.0, 6391.16]: val_2 (0.0)
|   |   volume = (1858.7, 4700.0]: val_2 (0.0)
|   |   volume = (149261.956, 154214.01]: val_2 (0.0)
|   maxDischarge = (-0.001, 1.0]
|   |   volume = (110169.3, 149261.956]: val_4 (56.0/19.0)
|   |   volume = (14400.0, 15600.0]: val_2 (0.0)
|   |   volume = (17100.0, 18817.68]: val_4 (1.0)
|   |   volume = (-0.001, 100.0]: val_2 (307.0/143.0)
|   |   volume = (18817.68, 20624.75]: val_4 (1.0)
|   |   volume = (56829.14, 68643.1]: val_2 (2.0/1.0)
|   |   volume = (10958.486, 12000.0]: val_2 (0.0)
|   |   volume = (39548.0, 47399.76]: val_4 (1.0)
|   |   volume = (47399.76, 56829.14]: val_2 (6.0/1.0)
|   |   volume = (68643.1, 85000.0]: val_2 (2.0)
|   |   volume = (20624.75, 23000.0]: val_4 (1.0)
|   |   volume = (8772.26, 9959.59]: val_2 (0.0)
|   |   volume = (12000.0, 13200.0]: val_2 (0.0)
|   |   volume = (28889.46, 33300.0]: val_2 (1.0)
|   |   volume = (910000.0, 125628000.0]: val_4 (1.0)
|   |   volume = (9959.59, 10958.486]: val_2 (0.0)
|   |   volume = (154214.01, 271898.0]: val_2 (7.0/2.0)
|   |   volume = (271898.0, 910000.0]: val_2 (1.0)
|   |   volume = (100.0, 1858.7]: val_2 (0.0)
|   |   volume = (85000.0, 110169.3]
|   |   |   purposeIds__10 = F: val_2 (3.0/1.0)
|   |   |   purposeIds__10 = T: val_4 (2.0/1.0)
|   |   volume = (23000.0, 25488.48]: val_2 (3.0/1.0)
|   |   volume = (6391.16, 7672.25]: val_2 (0.0)
|   |   volume = (13200.0, 14400.0]: val_2 (1.0)
|   |   volume = (15600.0, 17100.0]: val_2 (1.0)
|   |   volume = (33300.0, 39548.0]: val_2 (1.0)
|   |   volume = (7672.25, 8772.26]: val_2 (0.0)
|   |   volume = (25488.48, 28889.46]: val_4 (2.0/1.0)
|   |   volume = (4700.0, 6391.16]: val_2 (2.0/1.0)
|   |   volume = (1858.7, 4700.0]: val_2 (1.0)
|   |   volume = (149261.956, 154214.01]: val_2 (1.0)
|   maxDischarge = (2051.46, 2380.0]: val_4 (38.0/18.0)
|   maxDischarge = (16252.94, 29433.0]: val_4 (110.0/32.0)
|   maxDischarge = (1275.0, 1425.0]: val_4 (33.0/17.0)
|   maxDischarge = (75980.0, 3707516.0]: val_4 (105.0/9.0)
|   maxDischarge = (300.0, 327.0]
|   |   primaryPurposeId = val_9.0: val_2 (2.0/1.0)
|   |   primaryPurposeId = val_2.0: val_4 (0.0)
|   |   primaryPurposeId = val_10.0: val_4 (0.0)
|   |   primaryPurposeId = val_1.0: val_4 (0.0)
|   |   primaryPurposeId = val_11.0: val_4 (0.0)
|   |   primaryPurposeId = val_12.0: val_4 (0.0)
|   |   primaryPurposeId = val_5.0: val_4 (2.0)
|   |   primaryPurposeId = val_8.0: val_4 (0.0)
|   |   primaryPurposeId = val_4.0: val_4 (0.0)
|   |   primaryPurposeId = val_6.0: val_4 (0.0)
|   |   primaryPurposeId = val_7.0: val_4 (0.0)
|   |   primaryPurposeId = val_3.0: val_4 (0.0)
|   maxDischarge = (495.0, 540.0]: val_3 (7.0/2.0)
|   maxDischarge = (17.502, 30.0]
|   |   primaryOwnerTypeId = val_5: val_4 (2.0/1.0)
|   |   primaryOwnerTypeId = val_1: val_3 (4.0/1.0)
|   |   primaryOwnerTypeId = val_3: val_3 (0.0)
|   |   primaryOwnerTypeId = val_4: val_3 (0.0)
|   |   primaryOwnerTypeId = val_6: val_3 (0.0)
|   |   primaryOwnerTypeId = val_2: val_3 (0.0)
|   |   primaryOwnerTypeId = val_7: val_3 (0.0)
|   maxDischarge = (960.0, 1040.0]: val_4 (20.0/10.0)
|   maxDischarge = (5.394, 17.502]
|   |   nidHeightId = val_3: val_4 (2.0)
|   |   nidHeightId = val_4: val_3 (2.0)
|   |   nidHeightId = val_2: val_4 (0.0)
|   |   nidHeightId = val_1: val_4 (0.0)
|   |   nidHeightId = val_5: val_4 (0.0)
|   maxDischarge = (2380.0, 2757.8]: val_4 (65.0/16.0)
|   maxDischarge = (713.0, 790.0]: val_2 (19.0/11.0)
|   maxDischarge = (362.0, 400.0]
|   |   nidHeightId = val_3: val_2 (2.0/1.0)
|   |   nidHeightId = val_4: val_4 (5.0/2.0)
|   |   nidHeightId = val_2: val_4 (0.0)
|   |   nidHeightId = val_1: val_4 (0.0)
|   |   nidHeightId = val_5: val_4 (0.0)
|   maxDischarge = (48.0, 64.0]
|   |   volume = (110169.3, 149261.956]: val_2 (2.0/1.0)
|   |   volume = (14400.0, 15600.0]: val_4 (0.0)
|   |   volume = (17100.0, 18817.68]: val_4 (0.0)
|   |   volume = (-0.001, 100.0]: val_4 (5.0/1.0)
|   |   volume = (18817.68, 20624.75]: val_4 (0.0)
|   |   volume = (56829.14, 68643.1]: val_4 (0.0)
|   |   volume = (10958.486, 12000.0]: val_4 (0.0)
|   |   volume = (39548.0, 47399.76]: val_4 (0.0)
|   |   volume = (47399.76, 56829.14]: val_4 (0.0)
|   |   volume = (68643.1, 85000.0]: val_4 (0.0)
|   |   volume = (20624.75, 23000.0]: val_4 (0.0)
|   |   volume = (8772.26, 9959.59]: val_4 (0.0)
|   |   volume = (12000.0, 13200.0]: val_4 (0.0)
|   |   volume = (28889.46, 33300.0]: val_4 (0.0)
|   |   volume = (910000.0, 125628000.0]: val_4 (0.0)
|   |   volume = (9959.59, 10958.486]: val_4 (0.0)
|   |   volume = (154214.01, 271898.0]: val_4 (0.0)
|   |   volume = (271898.0, 910000.0]: val_4 (0.0)
|   |   volume = (100.0, 1858.7]: val_4 (0.0)
|   |   volume = (85000.0, 110169.3]: val_3 (1.0)
|   |   volume = (23000.0, 25488.48]: val_4 (0.0)
|   |   volume = (6391.16, 7672.25]: val_4 (0.0)
|   |   volume = (13200.0, 14400.0]: val_4 (0.0)
|   |   volume = (15600.0, 17100.0]: val_4 (0.0)
|   |   volume = (33300.0, 39548.0]: val_2 (1.0)
|   |   volume = (7672.25, 8772.26]: val_4 (0.0)
|   |   volume = (25488.48, 28889.46]: val_4 (0.0)
|   |   volume = (4700.0, 6391.16]: val_4 (0.0)
|   |   volume = (1858.7, 4700.0]: val_4 (0.0)
|   |   volume = (149261.956, 154214.01]: val_4 (0.0)
|   maxDischarge = (600.0, 650.0]
|   |   primaryPurposeId = val_9.0: val_2 (2.0)
|   |   primaryPurposeId = val_2.0: val_3 (1.0)
|   |   primaryPurposeId = val_10.0: val_4 (0.0)
|   |   primaryPurposeId = val_1.0: val_4 (0.0)
|   |   primaryPurposeId = val_11.0: val_4 (0.0)
|   |   primaryPurposeId = val_12.0: val_3 (1.0)
|   |   primaryPurposeId = val_5.0: val_4 (3.0)
|   |   primaryPurposeId = val_8.0: val_4 (0.0)
|   |   primaryPurposeId = val_4.0: val_4 (0.0)
|   |   primaryPurposeId = val_6.0: val_4 (0.0)
|   |   primaryPurposeId = val_7.0: val_2 (1.0)
|   |   primaryPurposeId = val_3.0: val_4 (0.0)
|   maxDischarge = (4900.0, 6206.0]: val_4 (102.0/44.0)
|   maxDischarge = (1.0, 5.394]: val_4 (309.0/125.0)
|   maxDischarge = (1600.0, 1801.0]: val_4 (44.0/17.0)
|   maxDischarge = (209.0, 236.0]: val_4 (6.0/4.0)
|   maxDischarge = (448.0, 495.0]: val_4 (15.0/8.0)
|   maxDischarge = (30.0, 48.0]: val_4 (4.0/2.0)
|   maxDischarge = (650.0, 713.0]: val_3 (20.0/11.0)
|   maxDischarge = (1160.0, 1275.0]: val_4 (22.0/11.0)
|   maxDischarge = (4000.0, 4900.0]: val_4 (87.0/38.0)
|   maxDischarge = (185.0, 209.0]: val_4 (5.0/3.0)
state = Kansas
|   nidHeightId = val_3: val_2 (2787.0/263.0)
|   nidHeightId = val_4: val_2 (2254.0/104.0)
|   nidHeightId = val_2: val_4 (149.0/79.0)
|   nidHeightId = val_1: val_4 (19.0/2.0)
|   nidHeightId = val_5: val_4 (2.0/1.0)
state = Maryland
|   nidStorage = (2880.0, 3586.0]: val_4 (1.0)
|   nidStorage = (57.5, 59.0]: val_4 (4.0/2.0)
|   nidStorage = (341.0, 362.0]
|   |   foundationTypeIds__1 = T: val_4 (2.0)
|   |   foundationTypeIds__1 = F: val_2 (4.0/1.0)
|   nidStorage = (53.0, 55.0]: val_2 (5.0/1.0)
|   nidStorage = (63.8, 65.0]: val_2 (4.0/2.0)
|   nidStorage = (29.0, 32.719]: val_3 (6.0/3.0)
|   nidStorage = (1000.0, 1130.0]: val_2 (0.0)
|   nidStorage = (248.0, 259.0]: val_2 (3.0)
|   nidStorage = (180.0, 188.888]: val_2 (1.0)
|   nidStorage = (110.0, 114.0]: val_4 (2.0/1.0)
|   nidStorage = (140.0, 145.0]: val_2 (2.0)
|   nidStorage = (44.2, 48.517]: val_3 (3.0/1.0)
|   nidStorage = (188.888, 197.0]: val_4 (4.0/1.0)
|   nidStorage = (300.0, 320.0]: val_3 (4.0/2.0)
|   nidStorage = (272.0, 288.0]: val_2 (0.0)
|   nidStorage = (1280.0, 1470.0]: val_2 (1.0)
|   nidStorage = (259.0, 272.0]: val_2 (2.0)
|   nidStorage = (73.0, 75.0]: val_2 (5.0/2.0)
|   nidStorage = (114.0, 118.0]: val_2 (4.0/1.0)
|   nidStorage = (6413.3, 9786.28]: val_4 (6.0/1.0)
|   nidStorage = (56.0, 57.5]: val_2 (0.0)
|   nidStorage = (48.517, 50.0]: val_2 (9.0/4.0)
|   nidStorage = (611.0, 670.0]: val_2 (0.0)
|   nidStorage = (155.0, 160.0]: val_2 (2.0)
|   nidStorage = (814.0, 900.0]
|   |   primaryOwnerTypeId = val_5: val_4 (2.0/1.0)
|   |   primaryOwnerTypeId = val_1: val_3 (2.0)
|   |   primaryOwnerTypeId = val_3: val_3 (0.0)
|   |   primaryOwnerTypeId = val_4: val_3 (0.0)
|   |   primaryOwnerTypeId = val_6: val_3 (0.0)
|   |   primaryOwnerTypeId = val_2: val_3 (0.0)
|   |   primaryOwnerTypeId = val_7: val_3 (0.0)
|   nidStorage = (481.036, 520.0]: val_2 (4.0/1.0)
|   nidStorage = (36.232, 40.0]: val_2 (2.0)
|   nidStorage = (1470.0, 1700.0]: val_4 (3.0/1.0)
|   nidStorage = (96.0, 100.0]: val_2 (10.0/3.0)
|   nidStorage = (85.0, 87.0]: val_3 (1.0)
|   nidStorage = (68.0, 70.0]: val_2 (3.0/1.0)
|   nidStorage = (212.171, 224.0]: val_4 (3.0/1.0)
|   nidStorage = (390.0, 415.0]: val_4 (1.0)
|   nidStorage = (40200.0, 146877.43]: val_4 (5.0)
|   nidStorage = (17.451, 21.0]: val_3 (8.0/4.0)
|   nidStorage = (197.0, 203.0]: val_2 (0.0)
|   nidStorage = (124.0, 128.0]: val_2 (4.0/1.0)
|   nidStorage = (40.0, 44.2]: val_2 (3.0/1.0)
|   nidStorage = (520.0, 563.0]: val_3 (2.0)
|   nidStorage = (173.697, 180.0]: val_2 (4.0/2.0)
|   nidStorage = (50.0, 52.0]: val_2 (7.0/2.0)
|   nidStorage = (563.0, 611.0]: val_3 (3.0)
|   nidStorage = (3586.0, 4650.0]: val_2 (1.0)
|   nidStorage = (17000.0, 40200.0]: val_4 (1.0)
|   nidStorage = (362.0, 390.0]: val_2 (3.0/1.0)
|   nidStorage = (320.0, 341.0]: val_4 (2.0/1.0)
|   nidStorage = (71.432, 73.0]: val_2 (2.0/1.0)
|   nidStorage = (65.0, 67.0]
|   |   primaryOwnerTypeId = val_5: val_4 (2.0/1.0)
|   |   primaryOwnerTypeId = val_1: val_2 (2.0)
|   |   primaryOwnerTypeId = val_3: val_2 (0.0)
|   |   primaryOwnerTypeId = val_4: val_2 (0.0)
|   |   primaryOwnerTypeId = val_6: val_2 (0.0)
|   |   primaryOwnerTypeId = val_2: val_2 (0.0)
|   |   primaryOwnerTypeId = val_7: val_2 (0.0)
|   nidStorage = (146877.43, 277540000.0]: val_4 (1.0)
|   nidStorage = (2000.0, 2383.94]: val_3 (1.0)
|   nidStorage = (59.0, 60.0]: val_2 (5.0)
|   nidStorage = (900.0, 1000.0]: val_4 (4.0)
|   nidStorage = (75.0, 77.0]: val_2 (5.0/2.0)
|   nidStorage = (2383.94, 2880.0]: val_4 (3.0)
|   nidStorage = (118.0, 120.0]: val_2 (4.0/1.0)
|   nidStorage = (105.0, 108.0]: val_2 (4.0/2.0)
|   nidStorage = (120.0, 124.0]: val_2 (5.0)
|   nidStorage = (737.0, 814.0]: val_2 (3.0/1.0)
|   nidStorage = (90.0, 91.0]: val_2 (3.0)
|   nidStorage = (87.0, 90.0]: val_2 (4.0)
|   nidStorage = (25.0, 29.0]: val_3 (5.0/2.0)
|   nidStorage = (136.0, 140.0]: val_3 (1.0)
|   nidStorage = (4650.0, 6413.3]: val_4 (2.0/1.0)
|   nidStorage = (-0.001, 10.0]: val_3 (37.0/6.0)
|   nidStorage = (236.0, 248.0]: val_2 (2.0)
|   nidStorage = (670.0, 737.0]: val_4 (3.0/1.0)
|   nidStorage = (288.0, 300.0]: val_2 (4.0/2.0)
|   nidStorage = (32.719, 36.232]: val_2 (8.0/5.0)
|   nidStorage = (55.0, 56.0]: val_2 (1.0)
|   nidStorage = (9786.28, 17000.0]: val_4 (2.0/1.0)
|   nidStorage = (52.0, 53.0]: val_2 (2.0/1.0)
|   nidStorage = (150.0, 155.0]: val_3 (1.0)
|   nidStorage = (60.0, 62.0]: val_4 (2.0/1.0)
|   nidStorage = (80.0, 83.0]
|   |   primaryOwnerTypeId = val_5: val_3 (3.0/1.0)
|   |   primaryOwnerTypeId = val_1: val_2 (3.0/1.0)
|   |   primaryOwnerTypeId = val_3: val_2 (0.0)
|   |   primaryOwnerTypeId = val_4: val_3 (1.0)
|   |   primaryOwnerTypeId = val_6: val_2 (0.0)
|   |   primaryOwnerTypeId = val_2: val_2 (0.0)
|   |   primaryOwnerTypeId = val_7: val_2 (0.0)
|   nidStorage = (100.0, 101.0]: val_2 (0.0)
|   nidStorage = (160.0, 166.0]: val_3 (3.0/1.0)
|   nidStorage = (415.0, 448.0]: val_2 (2.0/1.0)
|   nidStorage = (1130.0, 1280.0]
|   |   foundationTypeIds__1 = T: val_4 (2.0)
|   |   foundationTypeIds__1 = F: val_3 (3.0/1.0)
|   nidStorage = (128.0, 132.0]: val_2 (3.0/1.0)
|   nidStorage = (224.0, 236.0]: val_2 (4.0/1.0)
|   nidStorage = (101.0, 105.0]: val_3 (1.0)
|   nidStorage = (77.0, 80.0]
|   |   primaryPurposeId = val_9.0: val_2 (1.0)
|   |   primaryPurposeId = val_2.0: val_4 (1.0)
|   |   primaryPurposeId = val_10.0: val_4 (0.0)
|   |   primaryPurposeId = val_1.0: val_4 (0.0)
|   |   primaryPurposeId = val_11.0: val_4 (0.0)
|   |   primaryPurposeId = val_12.0: val_4 (0.0)
|   |   primaryPurposeId = val_5.0: val_2 (4.0/2.0)
|   |   primaryPurposeId = val_8.0: val_4 (2.0)
|   |   primaryPurposeId = val_4.0: val_4 (0.0)
|   |   primaryPurposeId = val_6.0: val_4 (0.0)
|   |   primaryPurposeId = val_7.0: val_4 (0.0)
|   |   primaryPurposeId = val_3.0: val_4 (0.0)
|   nidStorage = (203.0, 212.171]: val_2 (2.0/1.0)
|   nidStorage = (83.0, 85.0]: val_2 (3.0)
|   nidStorage = (1700.0, 2000.0]: val_4 (4.0/2.0)
|   nidStorage = (448.0, 481.036]: val_2 (1.0)
|   nidStorage = (21.0, 25.0]: val_3 (8.0/4.0)
|   nidStorage = (91.0, 94.0]: val_2 (0.0)
|   nidStorage = (132.0, 136.0]: val_2 (6.0/1.0)
|   nidStorage = (70.0, 71.432]: val_2 (0.0)
|   nidStorage = (94.0, 96.0]: val_2 (0.0)
|   nidStorage = (10.0, 17.451]: val_3 (11.0/4.0)
|   nidStorage = (108.0, 110.0]: val_2 (0.0)
|   nidStorage = (67.0, 68.0]: val_2 (4.0/1.0)
|   nidStorage = (62.0, 63.8]: val_2 (2.0)
|   nidStorage = (166.0, 173.697]: val_4 (2.0/1.0)
|   nidStorage = (145.0, 150.0]: val_2 (4.0/1.0)
state = Virginia
|   primaryOwnerTypeId = val_5: val_4 (247.0/107.0)
|   primaryOwnerTypeId = val_1: val_1 (1229.0/349.0)
|   primaryOwnerTypeId = val_3
|   |   maxDischarge = (10826.32, 16252.94]: val_2 (0.0)
|   |   maxDischarge = (263.0, 300.0]: val_2 (1.0)
|   |   maxDischarge = (3274.94, 4000.0]: val_4 (1.0)
|   |   maxDischarge = (6206.0, 8423.08]: val_2 (17.0/7.0)
|   |   maxDischarge = (236.0, 263.0]: val_3 (1.0)
|   |   maxDischarge = (120.0, 140.0]: val_2 (1.0)
|   |   maxDischarge = (790.0, 864.0]: val_4 (1.0)
|   |   maxDischarge = (864.0, 960.0]: val_2 (0.0)
|   |   maxDischarge = (82.0, 100.0]: val_2 (2.0)
|   |   maxDischarge = (400.0, 448.0]: val_3 (1.0)
|   |   maxDischarge = (100.0, 120.0]: val_2 (0.0)
|   |   maxDischarge = (2757.8, 3274.94]: val_2 (0.0)
|   |   maxDischarge = (140.0, 161.0]: val_2 (1.0)
|   |   maxDischarge = (8423.08, 10826.32]: val_4 (1.0)
|   |   maxDischarge = (29433.0, 75980.0]: val_4 (1.0)
|   |   maxDischarge = (1040.0, 1160.0]: val_2 (1.0)
|   |   maxDischarge = (1801.0, 2051.46]: val_2 (0.0)
|   |   maxDischarge = (540.0, 600.0]: val_3 (1.0)
|   |   maxDischarge = (327.0, 362.0]: val_2 (0.0)
|   |   maxDischarge = (1425.0, 1600.0]: val_4 (1.0)
|   |   maxDischarge = (64.0, 82.0]: val_3 (1.0)
|   |   maxDischarge = (161.0, 185.0]: val_2 (0.0)
|   |   maxDischarge = (-0.001, 1.0]: val_4 (5.0/1.0)
|   |   maxDischarge = (2051.46, 2380.0]: val_2 (1.0)
|   |   maxDischarge = (16252.94, 29433.0]: val_2 (0.0)
|   |   maxDischarge = (1275.0, 1425.0]: val_4 (1.0)
|   |   maxDischarge = (75980.0, 3707516.0]: val_4 (2.0)
|   |   maxDischarge = (300.0, 327.0]: val_2 (0.0)
|   |   maxDischarge = (495.0, 540.0]: val_2 (1.0)
|   |   maxDischarge = (17.502, 30.0]: val_2 (0.0)
|   |   maxDischarge = (960.0, 1040.0]: val_2 (0.0)
|   |   maxDischarge = (5.394, 17.502]: val_2 (0.0)
|   |   maxDischarge = (2380.0, 2757.8]: val_2 (0.0)
|   |   maxDischarge = (713.0, 790.0]: val_2 (0.0)
|   |   maxDischarge = (362.0, 400.0]: val_2 (0.0)
|   |   maxDischarge = (48.0, 64.0]: val_2 (0.0)
|   |   maxDischarge = (600.0, 650.0]: val_2 (1.0)
|   |   maxDischarge = (4900.0, 6206.0]: val_4 (2.0)
|   |   maxDischarge = (1.0, 5.394]: val_2 (0.0)
|   |   maxDischarge = (1600.0, 1801.0]: val_3 (1.0)
|   |   maxDischarge = (209.0, 236.0]: val_2 (0.0)
|   |   maxDischarge = (448.0, 495.0]: val_2 (0.0)
|   |   maxDischarge = (30.0, 48.0]: val_2 (0.0)
|   |   maxDischarge = (650.0, 713.0]: val_2 (0.0)
|   |   maxDischarge = (1160.0, 1275.0]: val_2 (0.0)
|   |   maxDischarge = (4000.0, 4900.0]: val_2 (0.0)
|   |   maxDischarge = (185.0, 209.0]: val_4 (2.0/1.0)
|   primaryOwnerTypeId = val_4: val_4 (58.0/32.0)
|   primaryOwnerTypeId = val_6: val_1 (537.0/34.0)
|   primaryOwnerTypeId = val_2: val_4 (60.0/27.0)
|   primaryOwnerTypeId = val_7: val_1 (0.0)
state = Iowa: val_2 (3314.0/303.0)
state = Michigan
|   primaryPurposeId = val_9.0
|   |   normalStorage = (64.0, 66.0]: val_2 (0.0)
|   |   normalStorage = (16.0, 18.0]: val_2 (0.0)
|   |   normalStorage = (83.0, 86.0]: val_2 (0.0)
|   |   normalStorage = (6228.13, 11146.147]: val_3 (1.0)
|   |   normalStorage = (35.228, 37.0]: val_2 (0.0)
|   |   normalStorage = (30.8, 32.0]: val_2 (0.0)
|   |   normalStorage = (154.0, 164.0]: val_2 (0.0)
|   |   normalStorage = (187.0, 200.0]: val_2 (0.0)
|   |   normalStorage = (109.0, 114.0]: val_2 (0.0)
|   |   normalStorage = (96.0, 100.0]: val_2 (0.0)
|   |   normalStorage = (26.0, 27.401]: val_2 (0.0)
|   |   normalStorage = (139.0, 147.0]: val_2 (0.0)
|   |   normalStorage = (175.0, 187.0]: val_2 (0.0)
|   |   normalStorage = (18.0, 19.0]: val_2 (0.0)
|   |   normalStorage = (-48.001, 0.0]: val_4 (18.0/7.0)
|   |   normalStorage = (40.0, 41.0]: val_2 (0.0)
|   |   normalStorage = (59.0, 60.0]: val_2 (0.0)
|   |   normalStorage = (3630.96, 6228.13]: val_3 (1.0)
|   |   normalStorage = (41.0, 42.0]: val_2 (0.0)
|   |   normalStorage = (54.0, 56.0]: val_2 (0.0)
|   |   normalStorage = (627.0, 768.0]: val_2 (0.0)
|   |   normalStorage = (277.0, 305.0]: val_2 (0.0)
|   |   normalStorage = (24.0, 25.0]: val_2 (0.0)
|   |   normalStorage = (768.0, 957.0]: val_2 (0.0)
|   |   normalStorage = (78.0, 80.0]: val_2 (0.0)
|   |   normalStorage = (57.0, 59.0]: val_2 (0.0)
|   |   normalStorage = (230.0, 250.0]: val_2 (0.0)
|   |   normalStorage = (9.3, 11.8]: val_3 (1.0)
|   |   normalStorage = (72.5, 75.0]: val_2 (0.0)
|   |   normalStorage = (100.0, 104.0]: val_2 (0.0)
|   |   normalStorage = (29.0, 30.0]: val_1 (1.0)
|   |   normalStorage = (210.0, 230.0]: val_2 (0.0)
|   |   normalStorage = (25.0, 26.0]: val_2 (0.0)
|   |   normalStorage = (131.0, 139.0]: val_2 (0.0)
|   |   normalStorage = (6.0, 9.3]: val_2 (1.0)
|   |   normalStorage = (20248.84, 75097.13]: val_2 (0.0)
|   |   normalStorage = (114.0, 120.0]: val_2 (0.0)
|   |   normalStorage = (396.0, 454.92]: val_2 (0.0)
|   |   normalStorage = (38.0, 40.0]: val_2 (0.0)
|   |   normalStorage = (19.0, 20.0]: val_2 (1.0)
|   |   normalStorage = (27.401, 29.0]: val_2 (0.0)
|   |   normalStorage = (90.0, 92.6]: val_2 (0.0)
|   |   normalStorage = (46.0, 48.0]: val_2 (0.0)
|   |   normalStorage = (51.0, 53.0]: val_2 (0.0)
|   |   normalStorage = (2400.0, 3630.96]: val_2 (0.0)
|   |   normalStorage = (13.0, 15.0]: val_2 (0.0)
|   |   normalStorage = (1700.0, 2400.0]: val_2 (0.0)
|   |   normalStorage = (34.0, 35.228]: val_2 (1.0)
|   |   normalStorage = (20.0, 21.0]: val_2 (0.0)
|   |   normalStorage = (104.0, 109.0]: val_2 (0.0)
|   |   normalStorage = (528.0, 627.0]: val_2 (0.0)
|   |   normalStorage = (66.0, 68.0]: val_2 (0.0)
|   |   normalStorage = (21.0, 23.0]: val_2 (1.0)
|   |   normalStorage = (11.8, 13.0]: val_2 (0.0)
|   |   normalStorage = (53.0, 54.0]: val_2 (0.0)
|   |   normalStorage = (125.0, 131.0]: val_2 (0.0)
|   |   normalStorage = (48.0, 49.5]: val_2 (0.0)
|   |   normalStorage = (56.0, 57.0]: val_2 (1.0)
|   |   normalStorage = (147.0, 154.0]: val_2 (0.0)
|   |   normalStorage = (957.0, 1230.45]: val_2 (0.0)
|   |   normalStorage = (75097.13, 277540000.0]: val_2 (0.0)
|   |   normalStorage = (11146.147, 20248.84]: val_2 (0.0)
|   |   normalStorage = (68.0, 70.0]: val_2 (0.0)
|   |   normalStorage = (305.0, 347.0]: val_2 (0.0)
|   |   normalStorage = (347.0, 396.0]: val_2 (2.0)
|   |   normalStorage = (37.0, 38.0]: val_2 (0.0)
|   |   normalStorage = (62.0, 64.0]: val_2 (0.0)
|   |   normalStorage = (80.0, 83.0]: val_2 (0.0)
|   |   normalStorage = (32.0, 33.0]: val_2 (0.0)
|   |   normalStorage = (250.0, 277.0]: val_2 (0.0)
|   |   normalStorage = (49.5, 50.0]: val_2 (0.0)
|   |   normalStorage = (86.0, 90.0]: val_2 (0.0)
|   |   normalStorage = (44.0, 45.0]: val_2 (0.0)
|   |   normalStorage = (42.0, 44.0]: val_2 (0.0)
|   |   normalStorage = (1230.45, 1700.0]: val_4 (2.0/1.0)
|   |   normalStorage = (92.6, 96.0]: val_2 (0.0)
|   |   normalStorage = (70.0, 72.5]: val_2 (0.0)
|   |   normalStorage = (1.446, 6.0]: val_2 (0.0)
|   |   normalStorage = (164.0, 175.0]: val_2 (0.0)
|   |   normalStorage = (60.0, 62.0]: val_2 (0.0)
|   |   normalStorage = (33.0, 34.0]: val_2 (1.0)
|   |   normalStorage = (75.0, 78.0]: val_2 (0.0)
|   |   normalStorage = (45.0, 46.0]: val_2 (0.0)
|   |   normalStorage = (50.0, 51.0]: val_2 (0.0)
|   |   normalStorage = (0.0, 1.446]: val_2 (0.0)
|   |   normalStorage = (454.92, 528.0]: val_2 (0.0)
|   |   normalStorage = (23.0, 24.0]: val_2 (0.0)
|   |   normalStorage = (120.0, 125.0]: val_2 (0.0)
|   |   normalStorage = (200.0, 210.0]: val_2 (0.0)
|   |   normalStorage = (15.0, 16.0]: val_2 (0.0)
|   |   normalStorage = (30.0, 30.8]: val_2 (0.0)
|   primaryPurposeId = val_2.0: val_2 (4.0)
|   primaryPurposeId = val_10.0: val_2 (6.0)
|   primaryPurposeId = val_1.0: val_2 (13.0/7.0)
|   primaryPurposeId = val_11.0: val_2 (0.0)
|   primaryPurposeId = val_12.0: val_2 (76.0/8.0)
|   primaryPurposeId = val_5.0: val_2 (567.0/160.0)
|   primaryPurposeId = val_8.0: val_2 (14.0/9.0)
|   primaryPurposeId = val_4.0: val_2 (28.0)
|   primaryPurposeId = val_6.0
|   |   nidHeightId = val_3: val_4 (34.0/12.0)
|   |   nidHeightId = val_4: val_2 (44.0/19.0)
|   |   nidHeightId = val_2: val_4 (16.0/1.0)
|   |   nidHeightId = val_1: val_4 (3.0)
|   |   nidHeightId = val_5: val_4 (0.0)
|   primaryPurposeId = val_7.0: val_2 (0.0)
|   primaryPurposeId = val_3.0: val_3 (1.0)
state = Minnesota
|   nidHeightId = val_3: val_2 (262.0/65.0)
|   nidHeightId = val_4: val_2 (610.0/75.0)
|   nidHeightId = val_2
|   |   nidStorage = (2880.0, 3586.0]: val_4 (3.0/2.0)
|   |   nidStorage = (57.5, 59.0]: val_4 (0.0)
|   |   nidStorage = (341.0, 362.0]: val_4 (0.0)
|   |   nidStorage = (53.0, 55.0]: val_4 (0.0)
|   |   nidStorage = (63.8, 65.0]: val_4 (0.0)
|   |   nidStorage = (29.0, 32.719]: val_4 (0.0)
|   |   nidStorage = (1000.0, 1130.0]: val_4 (0.0)
|   |   nidStorage = (248.0, 259.0]: val_4 (0.0)
|   |   nidStorage = (180.0, 188.888]: val_2 (1.0)
|   |   nidStorage = (110.0, 114.0]: val_4 (0.0)
|   |   nidStorage = (140.0, 145.0]: val_4 (0.0)
|   |   nidStorage = (44.2, 48.517]: val_4 (0.0)
|   |   nidStorage = (188.888, 197.0]: val_4 (0.0)
|   |   nidStorage = (300.0, 320.0]: val_4 (0.0)
|   |   nidStorage = (272.0, 288.0]: val_4 (0.0)
|   |   nidStorage = (1280.0, 1470.0]: val_3 (1.0)
|   |   nidStorage = (259.0, 272.0]: val_4 (0.0)
|   |   nidStorage = (73.0, 75.0]: val_4 (0.0)
|   |   nidStorage = (114.0, 118.0]: val_4 (0.0)
|   |   nidStorage = (6413.3, 9786.28]
|   |   |   foundationTypeIds__1 = T: val_3 (2.0)
|   |   |   foundationTypeIds__1 = F: val_2 (3.0/1.0)
|   |   nidStorage = (56.0, 57.5]: val_4 (0.0)
|   |   nidStorage = (48.517, 50.0]: val_4 (0.0)
|   |   nidStorage = (611.0, 670.0]: val_4 (0.0)
|   |   nidStorage = (155.0, 160.0]: val_4 (0.0)
|   |   nidStorage = (814.0, 900.0]: val_4 (1.0)
|   |   nidStorage = (481.036, 520.0]: val_4 (0.0)
|   |   nidStorage = (36.232, 40.0]: val_4 (0.0)
|   |   nidStorage = (1470.0, 1700.0]: val_2 (1.0)
|   |   nidStorage = (96.0, 100.0]: val_4 (0.0)
|   |   nidStorage = (85.0, 87.0]: val_4 (0.0)
|   |   nidStorage = (68.0, 70.0]: val_4 (0.0)
|   |   nidStorage = (212.171, 224.0]: val_4 (0.0)
|   |   nidStorage = (390.0, 415.0]: val_4 (0.0)
|   |   nidStorage = (40200.0, 146877.43]: val_4 (5.0/3.0)
|   |   nidStorage = (17.451, 21.0]: val_4 (0.0)
|   |   nidStorage = (197.0, 203.0]: val_4 (0.0)
|   |   nidStorage = (124.0, 128.0]: val_4 (0.0)
|   |   nidStorage = (40.0, 44.2]: val_4 (0.0)
|   |   nidStorage = (520.0, 563.0]: val_4 (0.0)
|   |   nidStorage = (173.697, 180.0]: val_3 (1.0)
|   |   nidStorage = (50.0, 52.0]: val_4 (0.0)
|   |   nidStorage = (563.0, 611.0]: val_4 (0.0)
|   |   nidStorage = (3586.0, 4650.0]: val_4 (1.0)
|   |   nidStorage = (17000.0, 40200.0]: val_4 (4.0/1.0)
|   |   nidStorage = (362.0, 390.0]: val_2 (1.0)
|   |   nidStorage = (320.0, 341.0]: val_4 (0.0)
|   |   nidStorage = (71.432, 73.0]: val_4 (0.0)
|   |   nidStorage = (65.0, 67.0]: val_4 (0.0)
|   |   nidStorage = (146877.43, 277540000.0]: val_4 (2.0)
|   |   nidStorage = (2000.0, 2383.94]: val_2 (1.0)
|   |   nidStorage = (59.0, 60.0]: val_4 (0.0)
|   |   nidStorage = (900.0, 1000.0]: val_2 (1.0)
|   |   nidStorage = (75.0, 77.0]: val_4 (0.0)
|   |   nidStorage = (2383.94, 2880.0]: val_4 (4.0/1.0)
|   |   nidStorage = (118.0, 120.0]: val_4 (0.0)
|   |   nidStorage = (105.0, 108.0]: val_4 (0.0)
|   |   nidStorage = (120.0, 124.0]: val_4 (0.0)
|   |   nidStorage = (737.0, 814.0]: val_4 (0.0)
|   |   nidStorage = (90.0, 91.0]: val_4 (0.0)
|   |   nidStorage = (87.0, 90.0]: val_4 (0.0)
|   |   nidStorage = (25.0, 29.0]: val_4 (0.0)
|   |   nidStorage = (136.0, 140.0]: val_4 (0.0)
|   |   nidStorage = (4650.0, 6413.3]: val_3 (2.0)
|   |   nidStorage = (-0.001, 10.0]: val_4 (0.0)
|   |   nidStorage = (236.0, 248.0]: val_4 (0.0)
|   |   nidStorage = (670.0, 737.0]: val_4 (0.0)
|   |   nidStorage = (288.0, 300.0]: val_4 (0.0)
|   |   nidStorage = (32.719, 36.232]: val_4 (0.0)
|   |   nidStorage = (55.0, 56.0]: val_4 (0.0)
|   |   nidStorage = (9786.28, 17000.0]: val_4 (0.0)
|   |   nidStorage = (52.0, 53.0]: val_4 (0.0)
|   |   nidStorage = (150.0, 155.0]: val_4 (0.0)
|   |   nidStorage = (60.0, 62.0]: val_4 (0.0)
|   |   nidStorage = (80.0, 83.0]: val_4 (0.0)
|   |   nidStorage = (100.0, 101.0]: val_4 (0.0)
|   |   nidStorage = (160.0, 166.0]: val_4 (0.0)
|   |   nidStorage = (415.0, 448.0]: val_3 (1.0)
|   |   nidStorage = (1130.0, 1280.0]: val_4 (2.0)
|   |   nidStorage = (128.0, 132.0]: val_4 (0.0)
|   |   nidStorage = (224.0, 236.0]: val_2 (1.0)
|   |   nidStorage = (101.0, 105.0]: val_4 (0.0)
|   |   nidStorage = (77.0, 80.0]: val_4 (0.0)
|   |   nidStorage = (203.0, 212.171]: val_4 (0.0)
|   |   nidStorage = (83.0, 85.0]: val_4 (0.0)
|   |   nidStorage = (1700.0, 2000.0]: val_3 (3.0/1.0)
|   |   nidStorage = (448.0, 481.036]: val_3 (1.0)
|   |   nidStorage = (21.0, 25.0]: val_4 (0.0)
|   |   nidStorage = (91.0, 94.0]: val_4 (0.0)
|   |   nidStorage = (132.0, 136.0]: val_4 (0.0)
|   |   nidStorage = (70.0, 71.432]: val_4 (0.0)
|   |   nidStorage = (94.0, 96.0]: val_4 (0.0)
|   |   nidStorage = (10.0, 17.451]: val_4 (0.0)
|   |   nidStorage = (108.0, 110.0]: val_4 (0.0)
|   |   nidStorage = (67.0, 68.0]: val_4 (0.0)
|   |   nidStorage = (62.0, 63.8]: val_4 (0.0)
|   |   nidStorage = (166.0, 173.697]: val_4 (0.0)
|   |   nidStorage = (145.0, 150.0]: val_4 (0.0)
|   nidHeightId = val_1: val_3 (4.0)
|   nidHeightId = val_5: val_2 (0.0)
state = Colorado
|   nidHeightId = val_3: val_2 (648.0/247.0)
|   nidHeightId = val_4: val_2 (679.0/153.0)
|   nidHeightId = val_2: val_4 (189.0/77.0)
|   nidHeightId = val_1: val_4 (91.0/9.0)
|   nidHeightId = val_5: val_2 (0.0)
state = South Dakota
|   primaryOwnerTypeId = val_5: val_2 (63.0/17.0)
|   primaryOwnerTypeId = val_1: val_2 (1729.0/90.0)
|   primaryOwnerTypeId = val_3
|   |   primaryPurposeId = val_9.0: val_4 (10.0/1.0)
|   |   primaryPurposeId = val_2.0: val_4 (9.0/2.0)
|   |   primaryPurposeId = val_10.0: val_2 (21.0/2.0)
|   |   primaryPurposeId = val_1.0: val_2 (0.0)
|   |   primaryPurposeId = val_11.0: val_2 (0.0)
|   |   primaryPurposeId = val_12.0: val_2 (1.0)
|   |   primaryPurposeId = val_5.0: val_4 (22.0/7.0)
|   |   primaryPurposeId = val_8.0: val_2 (20.0/1.0)
|   |   primaryPurposeId = val_4.0: val_2 (41.0/3.0)
|   |   primaryPurposeId = val_6.0: val_2 (0.0)
|   |   primaryPurposeId = val_7.0: val_2 (1.0)
|   |   primaryPurposeId = val_3.0: val_2 (0.0)
|   primaryOwnerTypeId = val_4: val_2 (139.0/38.0)
|   primaryOwnerTypeId = val_6: val_2 (0.0)
|   primaryOwnerTypeId = val_2: val_3 (1.0)
|   primaryOwnerTypeId = val_7: val_2 (3.0/1.0)
state = Missouri
|   volume = (110169.3, 149261.956]: val_4 (131.0/44.0)
|   volume = (14400.0, 15600.0]: val_2 (115.0/10.0)
|   volume = (17100.0, 18817.68]: val_2 (134.0/8.0)
|   volume = (-0.001, 100.0]
|   |   damHeight = (32.0, 34.0]: val_4 (155.0/68.0)
|   |   damHeight = (24.0, 25.0]: val_2 (657.0/179.0)
|   |   damHeight = (28.012, 29.0]: val_4 (49.0/24.0)
|   |   damHeight = (17.0, 18.0]: val_2 (27.0/12.0)
|   |   damHeight = (31.0, 32.0]: val_4 (76.0/32.0)
|   |   damHeight = (41.0, 45.0]
|   |   |   foundationTypeIds__1 = T: val_2 (3.0)
|   |   |   foundationTypeIds__1 = F: val_4 (7.0/2.0)
|   |   damHeight = (39.0, 41.0]: val_4 (4.0/2.0)
|   |   damHeight = (19.0, 20.0]: val_2 (198.0/57.0)
|   |   damHeight = (21.0, 22.0]: val_2 (48.0/20.0)
|   |   damHeight = (20.0, 21.0]: val_4 (25.0/11.0)
|   |   damHeight = (37.0, 39.0]: val_2 (5.0/2.0)
|   |   damHeight = (28.0, 28.012]: val_4 (2.0/1.0)
|   |   damHeight = (9.0, 10.0]: val_2 (30.0/3.0)
|   |   damHeight = (0.999, 8.0]: val_4 (4.0/1.0)
|   |   damHeight = (50.0, 59.0]: val_4 (4.0/1.0)
|   |   damHeight = (14.0, 15.0]: val_2 (92.0/14.0)
|   |   damHeight = (45.0, 50.0]: val_4 (8.0/2.0)
|   |   damHeight = (29.0, 30.0]: val_2 (326.0/132.0)
|   |   damHeight = (15.0, 16.0]: val_2 (14.0/6.0)
|   |   damHeight = (12.0, 13.0]
|   |   |   primaryOwnerTypeId = val_5: val_4 (3.0)
|   |   |   primaryOwnerTypeId = val_1: val_2 (4.0/1.0)
|   |   |   primaryOwnerTypeId = val_3: val_4 (0.0)
|   |   |   primaryOwnerTypeId = val_4: val_4 (0.0)
|   |   |   primaryOwnerTypeId = val_6: val_4 (0.0)
|   |   |   primaryOwnerTypeId = val_2: val_4 (0.0)
|   |   |   primaryOwnerTypeId = val_7: val_4 (0.0)
|   |   damHeight = (35.0, 37.0]: val_2 (7.0/2.0)
|   |   damHeight = (83.0, 789.0]: val_4 (6.0)
|   |   damHeight = (25.0, 26.0]: val_4 (65.0/30.0)
|   |   damHeight = (11.0, 12.0]: val_2 (15.0/3.0)
|   |   damHeight = (27.0, 28.0]: val_2 (72.0/37.0)
|   |   damHeight = (59.0, 83.0]: val_4 (8.0)
|   |   damHeight = (16.0, 17.0]: val_2 (14.0/3.0)
|   |   damHeight = (34.0, 35.0]: val_4 (9.0/1.0)
|   |   damHeight = (10.0, 11.0]: val_2 (0.0)
|   |   damHeight = (26.0, 27.0]: val_2 (63.0/25.0)
|   |   damHeight = (8.0, 9.0]: val_2 (1.0)
|   |   damHeight = (13.0, 14.0]: val_2 (7.0/3.0)
|   |   damHeight = (30.0, 31.0]: val_4 (36.0/16.0)
|   |   damHeight = (22.0, 23.0]: val_2 (30.0/15.0)
|   |   damHeight = (23.0, 24.0]: val_2 (42.0/19.0)
|   |   damHeight = (18.0, 19.0]: val_2 (17.0/6.0)
|   volume = (18817.68, 20624.75]: val_2 (158.0/10.0)
|   volume = (56829.14, 68643.1]: val_4 (49.0/24.0)
|   volume = (10958.486, 12000.0]: val_2 (77.0/2.0)
|   volume = (39548.0, 47399.76]
|   |   primaryPurposeId = val_9.0: val_2 (14.0/3.0)
|   |   primaryPurposeId = val_2.0: val_2 (4.0)
|   |   primaryPurposeId = val_10.0: val_4 (3.0)
|   |   primaryPurposeId = val_1.0: val_2 (1.0)
|   |   primaryPurposeId = val_11.0: val_2 (1.0)
|   |   primaryPurposeId = val_12.0: val_2 (8.0/3.0)
|   |   primaryPurposeId = val_5.0: val_4 (22.0/5.0)
|   |   primaryPurposeId = val_8.0: val_2 (2.0)
|   |   primaryPurposeId = val_4.0: val_2 (3.0)
|   |   primaryPurposeId = val_6.0: val_2 (0.0)
|   |   primaryPurposeId = val_7.0: val_2 (0.0)
|   |   primaryPurposeId = val_3.0: val_2 (0.0)
|   volume = (47399.76, 56829.14]: val_4 (48.0/26.0)
|   volume = (68643.1, 85000.0]: val_4 (48.0/21.0)
|   volume = (20624.75, 23000.0]: val_2 (147.0/6.0)
|   volume = (8772.26, 9959.59]: val_2 (84.0/5.0)
|   volume = (12000.0, 13200.0]: val_2 (84.0/6.0)
|   volume = (28889.46, 33300.0]: val_2 (71.0/9.0)
|   volume = (910000.0, 125628000.0]: val_4 (29.0/3.0)
|   volume = (9959.59, 10958.486]: val_2 (88.0/3.0)
|   volume = (154214.01, 271898.0]: val_4 (59.0/13.0)
|   volume = (271898.0, 910000.0]: val_4 (66.0/11.0)
|   volume = (100.0, 1858.7]: val_2 (6.0/1.0)
|   volume = (85000.0, 110169.3]: val_4 (54.0/23.0)
|   volume = (23000.0, 25488.48]: val_2 (99.0/5.0)
|   volume = (6391.16, 7672.25]: val_2 (79.0/1.0)
|   volume = (13200.0, 14400.0]: val_2 (78.0/6.0)
|   volume = (15600.0, 17100.0]: val_2 (109.0/2.0)
|   volume = (33300.0, 39548.0]: val_2 (50.0/12.0)
|   volume = (7672.25, 8772.26]: val_2 (85.0/2.0)
|   volume = (25488.48, 28889.46]: val_2 (94.0/10.0)
|   volume = (4700.0, 6391.16]: val_2 (78.0)
|   volume = (1858.7, 4700.0]: val_2 (17.0/1.0)
|   volume = (149261.956, 154214.01]: val_4 (20.0/6.0)
state = Montana
|   nidHeightId = val_3: val_2 (642.0/105.0)
|   nidHeightId = val_4: val_2 (1665.0/138.0)
|   nidHeightId = val_2: val_4 (51.0/15.0)
|   nidHeightId = val_1: val_4 (26.0/2.0)
|   nidHeightId = val_5: val_4 (5.0/1.0)
state = Rhode Island
|   nidStorage = (2880.0, 3586.0]: val_4 (1.0)
|   nidStorage = (57.5, 59.0]: val_4 (0.0)
|   nidStorage = (341.0, 362.0]: val_2 (3.0/1.0)
|   nidStorage = (53.0, 55.0]: val_4 (2.0/1.0)
|   nidStorage = (63.8, 65.0]: val_2 (2.0/1.0)
|   nidStorage = (29.0, 32.719]: val_3 (1.0)
|   nidStorage = (1000.0, 1130.0]: val_4 (2.0)
|   nidStorage = (248.0, 259.0]: val_4 (4.0/1.0)
|   nidStorage = (180.0, 188.888]: val_2 (2.0/1.0)
|   nidStorage = (110.0, 114.0]: val_2 (1.0)
|   nidStorage = (140.0, 145.0]: val_4 (2.0/1.0)
|   nidStorage = (44.2, 48.517]: val_4 (0.0)
|   nidStorage = (188.888, 197.0]: val_4 (3.0/2.0)
|   nidStorage = (300.0, 320.0]: val_4 (3.0)
|   nidStorage = (272.0, 288.0]: val_2 (3.0)
|   nidStorage = (1280.0, 1470.0]: val_4 (4.0/1.0)
|   nidStorage = (259.0, 272.0]: val_3 (2.0)
|   nidStorage = (73.0, 75.0]: val_2 (2.0/1.0)
|   nidStorage = (114.0, 118.0]: val_4 (0.0)
|   nidStorage = (6413.3, 9786.28]: val_4 (2.0)
|   nidStorage = (56.0, 57.5]: val_4 (0.0)
|   nidStorage = (48.517, 50.0]: val_2 (7.0/2.0)
|   nidStorage = (611.0, 670.0]: val_4 (2.0/1.0)
|   nidStorage = (155.0, 160.0]: val_4 (0.0)
|   nidStorage = (814.0, 900.0]: val_4 (3.0/1.0)
|   nidStorage = (481.036, 520.0]: val_4 (2.0)
|   nidStorage = (36.232, 40.0]: val_3 (1.0)
|   nidStorage = (1470.0, 1700.0]: val_4 (3.0/2.0)
|   nidStorage = (96.0, 100.0]: val_4 (4.0/1.0)
|   nidStorage = (85.0, 87.0]: val_4 (2.0/1.0)
|   nidStorage = (68.0, 70.0]: val_4 (2.0/1.0)
|   nidStorage = (212.171, 224.0]: val_2 (1.0)
|   nidStorage = (390.0, 415.0]: val_4 (2.0/1.0)
|   nidStorage = (40200.0, 146877.43]: val_4 (0.0)
|   nidStorage = (17.451, 21.0]: val_4 (2.0/1.0)
|   nidStorage = (197.0, 203.0]: val_2 (2.0)
|   nidStorage = (124.0, 128.0]: val_4 (4.0/2.0)
|   nidStorage = (40.0, 44.2]: val_4 (0.0)
|   nidStorage = (520.0, 563.0]: val_3 (1.0)
|   nidStorage = (173.697, 180.0]: val_2 (1.0)
|   nidStorage = (50.0, 52.0]: val_2 (2.0)
|   nidStorage = (563.0, 611.0]: val_4 (0.0)
|   nidStorage = (3586.0, 4650.0]: val_4 (5.0/1.0)
|   nidStorage = (17000.0, 40200.0]: val_4 (0.0)
|   nidStorage = (362.0, 390.0]: val_4 (0.0)
|   nidStorage = (320.0, 341.0]
|   |   primaryOwnerTypeId = val_5: val_3 (0.0)
|   |   primaryOwnerTypeId = val_1: val_3 (2.0)
|   |   primaryOwnerTypeId = val_3: val_3 (0.0)
|   |   primaryOwnerTypeId = val_4: val_4 (2.0/1.0)
|   |   primaryOwnerTypeId = val_6: val_3 (0.0)
|   |   primaryOwnerTypeId = val_2: val_3 (0.0)
|   |   primaryOwnerTypeId = val_7: val_3 (0.0)
|   nidStorage = (71.432, 73.0]: val_2 (1.0)
|   nidStorage = (65.0, 67.0]: val_4 (0.0)
|   nidStorage = (146877.43, 277540000.0]: val_4 (0.0)
|   nidStorage = (2000.0, 2383.94]: val_4 (0.0)
|   nidStorage = (59.0, 60.0]: val_2 (5.0/1.0)
|   nidStorage = (900.0, 1000.0]: val_4 (0.0)
|   nidStorage = (75.0, 77.0]: val_4 (0.0)
|   nidStorage = (2383.94, 2880.0]: val_4 (1.0)
|   nidStorage = (118.0, 120.0]: val_4 (0.0)
|   nidStorage = (105.0, 108.0]: val_2 (2.0)
|   nidStorage = (120.0, 124.0]: val_4 (0.0)
|   nidStorage = (737.0, 814.0]: val_2 (1.0)
|   nidStorage = (90.0, 91.0]: val_4 (0.0)
|   nidStorage = (87.0, 90.0]: val_3 (1.0)
|   nidStorage = (25.0, 29.0]: val_4 (1.0)
|   nidStorage = (136.0, 140.0]: val_4 (3.0/2.0)
|   nidStorage = (4650.0, 6413.3]: val_4 (3.0/1.0)
|   nidStorage = (-0.001, 10.0]
|   |   ownerTypeIds__6 = F
|   |   |   maxDischarge = (10826.32, 16252.94]: val_3 (0.0)
|   |   |   maxDischarge = (263.0, 300.0]: val_3 (0.0)
|   |   |   maxDischarge = (3274.94, 4000.0]: val_3 (0.0)
|   |   |   maxDischarge = (6206.0, 8423.08]
|   |   |   |   primaryOwnerTypeId = val_5: val_3 (5.0)
|   |   |   |   primaryOwnerTypeId = val_1: val_4 (11.0/4.0)
|   |   |   |   primaryOwnerTypeId = val_3: val_3 (0.0)
|   |   |   |   primaryOwnerTypeId = val_4: val_3 (0.0)
|   |   |   |   primaryOwnerTypeId = val_6: val_3 (0.0)
|   |   |   |   primaryOwnerTypeId = val_2: val_3 (0.0)
|   |   |   |   primaryOwnerTypeId = val_7: val_3 (0.0)
|   |   |   maxDischarge = (236.0, 263.0]: val_3 (0.0)
|   |   |   maxDischarge = (120.0, 140.0]: val_3 (0.0)
|   |   |   maxDischarge = (790.0, 864.0]: val_3 (0.0)
|   |   |   maxDischarge = (864.0, 960.0]: val_3 (0.0)
|   |   |   maxDischarge = (82.0, 100.0]: val_4 (1.0)
|   |   |   maxDischarge = (400.0, 448.0]: val_3 (0.0)
|   |   |   maxDischarge = (100.0, 120.0]: val_3 (0.0)
|   |   |   maxDischarge = (2757.8, 3274.94]: val_3 (0.0)
|   |   |   maxDischarge = (140.0, 161.0]: val_4 (1.0)
|   |   |   maxDischarge = (8423.08, 10826.32]: val_3 (0.0)
|   |   |   maxDischarge = (29433.0, 75980.0]: val_3 (0.0)
|   |   |   maxDischarge = (1040.0, 1160.0]: val_3 (0.0)
|   |   |   maxDischarge = (1801.0, 2051.46]: val_3 (0.0)
|   |   |   maxDischarge = (540.0, 600.0]: val_3 (0.0)
|   |   |   maxDischarge = (327.0, 362.0]: val_3 (0.0)
|   |   |   maxDischarge = (1425.0, 1600.0]: val_3 (0.0)
|   |   |   maxDischarge = (64.0, 82.0]: val_3 (2.0)
|   |   |   maxDischarge = (161.0, 185.0]: val_3 (0.0)
|   |   |   maxDischarge = (-0.001, 1.0]: val_3 (0.0)
|   |   |   maxDischarge = (2051.46, 2380.0]: val_3 (0.0)
|   |   |   maxDischarge = (16252.94, 29433.0]: val_3 (0.0)
|   |   |   maxDischarge = (1275.0, 1425.0]: val_3 (1.0)
|   |   |   maxDischarge = (75980.0, 3707516.0]: val_3 (0.0)
|   |   |   maxDischarge = (300.0, 327.0]: val_3 (0.0)
|   |   |   maxDischarge = (495.0, 540.0]: val_3 (0.0)
|   |   |   maxDischarge = (17.502, 30.0]: val_3 (0.0)
|   |   |   maxDischarge = (960.0, 1040.0]: val_3 (0.0)
|   |   |   maxDischarge = (5.394, 17.502]: val_3 (0.0)
|   |   |   maxDischarge = (2380.0, 2757.8]: val_3 (0.0)
|   |   |   maxDischarge = (713.0, 790.0]: val_3 (0.0)
|   |   |   maxDischarge = (362.0, 400.0]: val_3 (0.0)
|   |   |   maxDischarge = (48.0, 64.0]: val_3 (0.0)
|   |   |   maxDischarge = (600.0, 650.0]: val_3 (0.0)
|   |   |   maxDischarge = (4900.0, 6206.0]: val_3 (0.0)
|   |   |   maxDischarge = (1.0, 5.394]: val_3 (0.0)
|   |   |   maxDischarge = (1600.0, 1801.0]: val_3 (0.0)
|   |   |   maxDischarge = (209.0, 236.0]: val_3 (0.0)
|   |   |   maxDischarge = (448.0, 495.0]: val_3 (0.0)
|   |   |   maxDischarge = (30.0, 48.0]: val_3 (1.0)
|   |   |   maxDischarge = (650.0, 713.0]: val_3 (0.0)
|   |   |   maxDischarge = (1160.0, 1275.0]: val_3 (0.0)
|   |   |   maxDischarge = (4000.0, 4900.0]: val_3 (0.0)
|   |   |   maxDischarge = (185.0, 209.0]: val_3 (0.0)
|   |   ownerTypeIds__6 = T: val_4 (4.0)
|   nidStorage = (236.0, 248.0]: val_3 (1.0)
|   nidStorage = (670.0, 737.0]: val_4 (2.0)
|   nidStorage = (288.0, 300.0]: val_2 (3.0)
|   nidStorage = (32.719, 36.232]: val_4 (4.0/2.0)
|   nidStorage = (55.0, 56.0]: val_4 (0.0)
|   nidStorage = (9786.28, 17000.0]: val_3 (1.0)
|   nidStorage = (52.0, 53.0]: val_3 (1.0)
|   nidStorage = (150.0, 155.0]: val_4 (0.0)
|   nidStorage = (60.0, 62.0]: val_4 (0.0)
|   nidStorage = (80.0, 83.0]: val_4 (0.0)
|   nidStorage = (100.0, 101.0]: val_4 (0.0)
|   nidStorage = (160.0, 166.0]: val_4 (1.0)
|   nidStorage = (415.0, 448.0]: val_4 (4.0/2.0)
|   nidStorage = (1130.0, 1280.0]: val_4 (1.0)
|   nidStorage = (128.0, 132.0]: val_3 (1.0)
|   nidStorage = (224.0, 236.0]: val_2 (2.0)
|   nidStorage = (101.0, 105.0]: val_4 (0.0)
|   nidStorage = (77.0, 80.0]: val_2 (4.0/1.0)
|   nidStorage = (203.0, 212.171]: val_4 (2.0/1.0)
|   nidStorage = (83.0, 85.0]: val_4 (2.0/1.0)
|   nidStorage = (1700.0, 2000.0]
|   |   primaryPurposeId = val_9.0: val_4 (0.0)
|   |   primaryPurposeId = val_2.0: val_4 (0.0)
|   |   primaryPurposeId = val_10.0: val_4 (0.0)
|   |   primaryPurposeId = val_1.0: val_4 (0.0)
|   |   primaryPurposeId = val_11.0: val_4 (0.0)
|   |   primaryPurposeId = val_12.0: val_4 (0.0)
|   |   primaryPurposeId = val_5.0: val_4 (3.0)
|   |   primaryPurposeId = val_8.0: val_3 (2.0)
|   |   primaryPurposeId = val_4.0: val_4 (0.0)
|   |   primaryPurposeId = val_6.0: val_4 (0.0)
|   |   primaryPurposeId = val_7.0: val_4 (0.0)
|   |   primaryPurposeId = val_3.0: val_4 (0.0)
|   nidStorage = (448.0, 481.036]: val_3 (1.0)
|   nidStorage = (21.0, 25.0]: val_3 (3.0)
|   nidStorage = (91.0, 94.0]: val_4 (0.0)
|   nidStorage = (132.0, 136.0]: val_4 (0.0)
|   nidStorage = (70.0, 71.432]: val_4 (0.0)
|   nidStorage = (94.0, 96.0]: val_4 (0.0)
|   nidStorage = (10.0, 17.451]: val_3 (8.0/1.0)
|   nidStorage = (108.0, 110.0]: val_2 (2.0)
|   nidStorage = (67.0, 68.0]: val_2 (2.0)
|   nidStorage = (62.0, 63.8]: val_4 (0.0)
|   nidStorage = (166.0, 173.697]: val_4 (2.0/1.0)
|   nidStorage = (145.0, 150.0]: val_3 (3.0/1.0)
state = Georgia
|   primaryOwnerTypeId = val_5: val_2 (295.0/105.0)
|   primaryOwnerTypeId = val_1: val_2 (3621.0/362.0)
|   primaryOwnerTypeId = val_3
|   |   primaryPurposeId = val_9.0: val_4 (7.0)
|   |   primaryPurposeId = val_2.0: val_4 (1.0)
|   |   primaryPurposeId = val_10.0: val_2 (0.0)
|   |   primaryPurposeId = val_1.0: val_2 (0.0)
|   |   primaryPurposeId = val_11.0: val_2 (0.0)
|   |   primaryPurposeId = val_12.0: val_2 (1.0)
|   |   primaryPurposeId = val_5.0: val_2 (26.0/5.0)
|   |   primaryPurposeId = val_8.0: val_2 (2.0/1.0)
|   |   primaryPurposeId = val_4.0: val_2 (8.0/1.0)
|   |   primaryPurposeId = val_6.0: val_4 (8.0)
|   |   primaryPurposeId = val_7.0: val_2 (0.0)
|   |   primaryPurposeId = val_3.0: val_2 (0.0)
|   primaryOwnerTypeId = val_4
|   |   nidHeightId = val_3: val_2 (192.0/94.0)
|   |   nidHeightId = val_4: val_2 (66.0/4.0)
|   |   nidHeightId = val_2: val_4 (45.0/14.0)
|   |   nidHeightId = val_1: val_4 (1.0)
|   |   nidHeightId = val_5: val_2 (0.0)
|   primaryOwnerTypeId = val_6: val_2 (17.0/3.0)
|   primaryOwnerTypeId = val_2: val_4 (29.0/9.0)
|   primaryOwnerTypeId = val_7: val_2 (0.0)
state = Illinois: val_2 (1294.0/491.0)
state = Mississippi: val_2 (4898.0/1278.0)
state = California
|   nidHeightId = val_3: val_4 (439.0/216.0)
|   nidHeightId = val_4: val_2 (298.0/118.0)
|   nidHeightId = val_2: val_4 (281.0/75.0)
|   nidHeightId = val_1: val_4 (209.0/20.0)
|   nidHeightId = val_5: val_4 (0.0)
state = Alabama
|   nidHeightId = val_3: val_2 (458.0/162.0)
|   nidHeightId = val_4: val_2 (1187.0/247.0)
|   nidHeightId = val_2
|   |   primaryPurposeId = val_9.0
|   |   |   volume = (110169.3, 149261.956]
|   |   |   |   foundationTypeIds__1 = T: val_3 (3.0)
|   |   |   |   foundationTypeIds__1 = F: val_4 (2.0)
|   |   |   volume = (14400.0, 15600.0]: val_4 (0.0)
|   |   |   volume = (17100.0, 18817.68]: val_4 (0.0)
|   |   |   volume = (-0.001, 100.0]: val_4 (4.0)
|   |   |   volume = (18817.68, 20624.75]: val_4 (0.0)
|   |   |   volume = (56829.14, 68643.1]: val_4 (0.0)
|   |   |   volume = (10958.486, 12000.0]: val_4 (0.0)
|   |   |   volume = (39548.0, 47399.76]: val_2 (1.0)
|   |   |   volume = (47399.76, 56829.14]: val_2 (2.0/1.0)
|   |   |   volume = (68643.1, 85000.0]: val_3 (1.0)
|   |   |   volume = (20624.75, 23000.0]: val_4 (0.0)
|   |   |   volume = (8772.26, 9959.59]: val_4 (0.0)
|   |   |   volume = (12000.0, 13200.0]: val_4 (0.0)
|   |   |   volume = (28889.46, 33300.0]: val_4 (0.0)
|   |   |   volume = (910000.0, 125628000.0]: val_4 (2.0)
|   |   |   volume = (9959.59, 10958.486]: val_4 (0.0)
|   |   |   volume = (154214.01, 271898.0]
|   |   |   |   damHeight = (32.0, 34.0]: val_4 (0.0)
|   |   |   |   damHeight = (24.0, 25.0]: val_4 (0.0)
|   |   |   |   damHeight = (28.012, 29.0]: val_4 (0.0)
|   |   |   |   damHeight = (17.0, 18.0]: val_4 (0.0)
|   |   |   |   damHeight = (31.0, 32.0]: val_4 (0.0)
|   |   |   |   damHeight = (41.0, 45.0]: val_4 (0.0)
|   |   |   |   damHeight = (39.0, 41.0]: val_4 (0.0)
|   |   |   |   damHeight = (19.0, 20.0]: val_4 (0.0)
|   |   |   |   damHeight = (21.0, 22.0]: val_4 (0.0)
|   |   |   |   damHeight = (20.0, 21.0]: val_4 (0.0)
|   |   |   |   damHeight = (37.0, 39.0]: val_4 (0.0)
|   |   |   |   damHeight = (28.0, 28.012]: val_4 (0.0)
|   |   |   |   damHeight = (9.0, 10.0]: val_4 (0.0)
|   |   |   |   damHeight = (0.999, 8.0]: val_4 (0.0)
|   |   |   |   damHeight = (50.0, 59.0]: val_3 (2.0)
|   |   |   |   damHeight = (14.0, 15.0]: val_4 (0.0)
|   |   |   |   damHeight = (45.0, 50.0]: val_4 (0.0)
|   |   |   |   damHeight = (29.0, 30.0]: val_4 (0.0)
|   |   |   |   damHeight = (15.0, 16.0]: val_4 (0.0)
|   |   |   |   damHeight = (12.0, 13.0]: val_4 (0.0)
|   |   |   |   damHeight = (35.0, 37.0]: val_4 (0.0)
|   |   |   |   damHeight = (83.0, 789.0]: val_4 (0.0)
|   |   |   |   damHeight = (25.0, 26.0]: val_4 (0.0)
|   |   |   |   damHeight = (11.0, 12.0]: val_4 (0.0)
|   |   |   |   damHeight = (27.0, 28.0]: val_4 (0.0)
|   |   |   |   damHeight = (59.0, 83.0]: val_4 (2.0)
|   |   |   |   damHeight = (16.0, 17.0]: val_4 (0.0)
|   |   |   |   damHeight = (34.0, 35.0]: val_4 (0.0)
|   |   |   |   damHeight = (10.0, 11.0]: val_4 (0.0)
|   |   |   |   damHeight = (26.0, 27.0]: val_4 (0.0)
|   |   |   |   damHeight = (8.0, 9.0]: val_4 (0.0)
|   |   |   |   damHeight = (13.0, 14.0]: val_4 (0.0)
|   |   |   |   damHeight = (30.0, 31.0]: val_4 (0.0)
|   |   |   |   damHeight = (22.0, 23.0]: val_4 (0.0)
|   |   |   |   damHeight = (23.0, 24.0]: val_4 (0.0)
|   |   |   |   damHeight = (18.0, 19.0]: val_4 (0.0)
|   |   |   volume = (271898.0, 910000.0]: val_4 (2.0)
|   |   |   volume = (100.0, 1858.7]: val_4 (0.0)
|   |   |   volume = (85000.0, 110169.3]: val_2 (4.0)
|   |   |   volume = (23000.0, 25488.48]: val_4 (0.0)
|   |   |   volume = (6391.16, 7672.25]: val_4 (0.0)
|   |   |   volume = (13200.0, 14400.0]: val_4 (0.0)
|   |   |   volume = (15600.0, 17100.0]: val_4 (0.0)
|   |   |   volume = (33300.0, 39548.0]: val_4 (0.0)
|   |   |   volume = (7672.25, 8772.26]: val_4 (0.0)
|   |   |   volume = (25488.48, 28889.46]: val_4 (0.0)
|   |   |   volume = (4700.0, 6391.16]: val_4 (0.0)
|   |   |   volume = (1858.7, 4700.0]: val_4 (0.0)
|   |   |   volume = (149261.956, 154214.01]: val_4 (0.0)
|   |   primaryPurposeId = val_2.0: val_4 (0.0)
|   |   primaryPurposeId = val_10.0: val_2 (1.0)
|   |   primaryPurposeId = val_1.0: val_3 (1.0)
|   |   primaryPurposeId = val_11.0: val_4 (0.0)
|   |   primaryPurposeId = val_12.0: val_2 (4.0)
|   |   primaryPurposeId = val_5.0: val_3 (24.0/13.0)
|   |   primaryPurposeId = val_8.0: val_2 (13.0/3.0)
|   |   primaryPurposeId = val_4.0: val_4 (0.0)
|   |   primaryPurposeId = val_6.0: val_4 (5.0)
|   |   primaryPurposeId = val_7.0: val_4 (0.0)
|   |   primaryPurposeId = val_3.0: val_3 (7.0)
|   nidHeightId = val_1: val_4 (17.0/3.0)
|   nidHeightId = val_5: val_3 (59.0/11.0)
state = Nevada
|   primaryPurposeId = val_9.0: val_4 (97.0/15.0)
|   primaryPurposeId = val_2.0: val_2 (93.0/35.0)
|   primaryPurposeId = val_10.0: val_2 (5.0)
|   primaryPurposeId = val_1.0: val_2 (43.0/12.0)
|   primaryPurposeId = val_11.0: val_2 (0.0)
|   primaryPurposeId = val_12.0: val_2 (98.0/20.0)
|   primaryPurposeId = val_5.0: val_2 (17.0/11.0)
|   primaryPurposeId = val_8.0: val_4 (11.0/5.0)
|   primaryPurposeId = val_4.0: val_2 (20.0/3.0)
|   primaryPurposeId = val_6.0: val_4 (1.0)
|   primaryPurposeId = val_7.0
|   |   primaryOwnerTypeId = val_5: val_4 (3.0/1.0)
|   |   primaryOwnerTypeId = val_1: val_2 (0.0)
|   |   primaryOwnerTypeId = val_3: val_2 (4.0)
|   |   primaryOwnerTypeId = val_4: val_2 (0.0)
|   |   primaryOwnerTypeId = val_6: val_2 (0.0)
|   |   primaryOwnerTypeId = val_2: val_2 (0.0)
|   |   primaryOwnerTypeId = val_7: val_2 (0.0)
|   primaryPurposeId = val_3.0: val_2 (0.0)
state = Oklahoma
|   primaryOwnerTypeId = val_5: val_2 (149.0/66.0)
|   primaryOwnerTypeId = val_1: val_2 (2008.0/85.0)
|   primaryOwnerTypeId = val_3
|   |   nidStorage = (2880.0, 3586.0]: val_4 (0.0)
|   |   nidStorage = (57.5, 59.0]: val_4 (0.0)
|   |   nidStorage = (341.0, 362.0]: val_4 (0.0)
|   |   nidStorage = (53.0, 55.0]: val_4 (0.0)
|   |   nidStorage = (63.8, 65.0]: val_4 (0.0)
|   |   nidStorage = (29.0, 32.719]: val_4 (0.0)
|   |   nidStorage = (1000.0, 1130.0]: val_4 (1.0)
|   |   nidStorage = (248.0, 259.0]: val_4 (0.0)
|   |   nidStorage = (180.0, 188.888]: val_4 (0.0)
|   |   nidStorage = (110.0, 114.0]: val_2 (1.0)
|   |   nidStorage = (140.0, 145.0]: val_2 (1.0)
|   |   nidStorage = (44.2, 48.517]: val_4 (0.0)
|   |   nidStorage = (188.888, 197.0]: val_4 (0.0)
|   |   nidStorage = (300.0, 320.0]: val_4 (0.0)
|   |   nidStorage = (272.0, 288.0]: val_4 (0.0)
|   |   nidStorage = (1280.0, 1470.0]: val_4 (1.0)
|   |   nidStorage = (259.0, 272.0]: val_2 (1.0)
|   |   nidStorage = (73.0, 75.0]: val_4 (0.0)
|   |   nidStorage = (114.0, 118.0]: val_4 (0.0)
|   |   nidStorage = (6413.3, 9786.28]: val_4 (0.0)
|   |   nidStorage = (56.0, 57.5]: val_4 (0.0)
|   |   nidStorage = (48.517, 50.0]: val_2 (16.0/1.0)
|   |   nidStorage = (611.0, 670.0]: val_4 (1.0)
|   |   nidStorage = (155.0, 160.0]: val_4 (0.0)
|   |   nidStorage = (814.0, 900.0]: val_4 (0.0)
|   |   nidStorage = (481.036, 520.0]: val_4 (0.0)
|   |   nidStorage = (36.232, 40.0]: val_4 (0.0)
|   |   nidStorage = (1470.0, 1700.0]: val_4 (0.0)
|   |   nidStorage = (96.0, 100.0]: val_4 (0.0)
|   |   nidStorage = (85.0, 87.0]: val_4 (0.0)
|   |   nidStorage = (68.0, 70.0]: val_2 (3.0)
|   |   nidStorage = (212.171, 224.0]: val_4 (0.0)
|   |   nidStorage = (390.0, 415.0]: val_4 (0.0)
|   |   nidStorage = (40200.0, 146877.43]: val_4 (2.0)
|   |   nidStorage = (17.451, 21.0]: val_4 (0.0)
|   |   nidStorage = (197.0, 203.0]: val_4 (0.0)
|   |   nidStorage = (124.0, 128.0]: val_4 (0.0)
|   |   nidStorage = (40.0, 44.2]: val_4 (0.0)
|   |   nidStorage = (520.0, 563.0]: val_4 (0.0)
|   |   nidStorage = (173.697, 180.0]: val_2 (1.0)
|   |   nidStorage = (50.0, 52.0]: val_4 (0.0)
|   |   nidStorage = (563.0, 611.0]: val_4 (0.0)
|   |   nidStorage = (3586.0, 4650.0]: val_4 (0.0)
|   |   nidStorage = (17000.0, 40200.0]: val_3 (2.0)
|   |   nidStorage = (362.0, 390.0]: val_4 (0.0)
|   |   nidStorage = (320.0, 341.0]: val_4 (0.0)
|   |   nidStorage = (71.432, 73.0]: val_2 (1.0)
|   |   nidStorage = (65.0, 67.0]: val_4 (0.0)
|   |   nidStorage = (146877.43, 277540000.0]: val_4 (42.0/3.0)
|   |   nidStorage = (2000.0, 2383.94]: val_4 (2.0/1.0)
|   |   nidStorage = (59.0, 60.0]: val_4 (0.0)
|   |   nidStorage = (900.0, 1000.0]: val_4 (0.0)
|   |   nidStorage = (75.0, 77.0]: val_4 (0.0)
|   |   nidStorage = (2383.94, 2880.0]: val_4 (1.0)
|   |   nidStorage = (118.0, 120.0]: val_4 (0.0)
|   |   nidStorage = (105.0, 108.0]: val_4 (0.0)
|   |   nidStorage = (120.0, 124.0]: val_4 (0.0)
|   |   nidStorage = (737.0, 814.0]: val_4 (0.0)
|   |   nidStorage = (90.0, 91.0]: val_4 (0.0)
|   |   nidStorage = (87.0, 90.0]: val_2 (2.0)
|   |   nidStorage = (25.0, 29.0]: val_4 (0.0)
|   |   nidStorage = (136.0, 140.0]: val_2 (2.0)
|   |   nidStorage = (4650.0, 6413.3]: val_2 (1.0)
|   |   nidStorage = (-0.001, 10.0]: val_4 (0.0)
|   |   nidStorage = (236.0, 248.0]: val_4 (0.0)
|   |   nidStorage = (670.0, 737.0]: val_2 (1.0)
|   |   nidStorage = (288.0, 300.0]: val_4 (0.0)
|   |   nidStorage = (32.719, 36.232]: val_4 (0.0)
|   |   nidStorage = (55.0, 56.0]: val_4 (0.0)
|   |   nidStorage = (9786.28, 17000.0]: val_4 (2.0/1.0)
|   |   nidStorage = (52.0, 53.0]: val_4 (0.0)
|   |   nidStorage = (150.0, 155.0]: val_4 (0.0)
|   |   nidStorage = (60.0, 62.0]: val_4 (0.0)
|   |   nidStorage = (80.0, 83.0]: val_4 (0.0)
|   |   nidStorage = (100.0, 101.0]: val_4 (0.0)
|   |   nidStorage = (160.0, 166.0]: val_4 (0.0)
|   |   nidStorage = (415.0, 448.0]: val_2 (1.0)
|   |   nidStorage = (1130.0, 1280.0]: val_3 (1.0)
|   |   nidStorage = (128.0, 132.0]: val_2 (2.0)
|   |   nidStorage = (224.0, 236.0]: val_4 (0.0)
|   |   nidStorage = (101.0, 105.0]: val_4 (0.0)
|   |   nidStorage = (77.0, 80.0]: val_4 (0.0)
|   |   nidStorage = (203.0, 212.171]: val_4 (0.0)
|   |   nidStorage = (83.0, 85.0]: val_2 (1.0)
|   |   nidStorage = (1700.0, 2000.0]: val_4 (0.0)
|   |   nidStorage = (448.0, 481.036]: val_4 (0.0)
|   |   nidStorage = (21.0, 25.0]: val_2 (2.0)
|   |   nidStorage = (91.0, 94.0]: val_4 (0.0)
|   |   nidStorage = (132.0, 136.0]: val_4 (0.0)
|   |   nidStorage = (70.0, 71.432]: val_2 (1.0)
|   |   nidStorage = (94.0, 96.0]: val_2 (1.0)
|   |   nidStorage = (10.0, 17.451]: val_4 (0.0)
|   |   nidStorage = (108.0, 110.0]: val_2 (1.0)
|   |   nidStorage = (67.0, 68.0]: val_4 (0.0)
|   |   nidStorage = (62.0, 63.8]: val_4 (0.0)
|   |   nidStorage = (166.0, 173.697]: val_2 (4.0/1.0)
|   |   nidStorage = (145.0, 150.0]: val_2 (1.0)
|   primaryOwnerTypeId = val_4: val_2 (1727.0/340.0)
|   primaryOwnerTypeId = val_6: val_2 (1.0)
|   primaryOwnerTypeId = val_2: val_2 (9.0/4.0)
|   primaryOwnerTypeId = val_7: val_2 (4.0)
state = Nebraska
|   nidHeightId = val_3: val_2 (1291.0/173.0)
|   nidHeightId = val_4: val_2 (928.0/44.0)
|   nidHeightId = val_2
|   |   maxDischarge = (10826.32, 16252.94]: val_4 (11.0/2.0)
|   |   maxDischarge = (263.0, 300.0]: val_3 (1.0)
|   |   maxDischarge = (3274.94, 4000.0]: val_2 (6.0/2.0)
|   |   maxDischarge = (6206.0, 8423.08]: val_4 (7.0/4.0)
|   |   maxDischarge = (236.0, 263.0]: val_2 (0.0)
|   |   maxDischarge = (120.0, 140.0]: val_2 (0.0)
|   |   maxDischarge = (790.0, 864.0]: val_4 (1.0)
|   |   maxDischarge = (864.0, 960.0]: val_2 (2.0)
|   |   maxDischarge = (82.0, 100.0]: val_2 (1.0)
|   |   maxDischarge = (400.0, 448.0]: val_2 (1.0)
|   |   maxDischarge = (100.0, 120.0]: val_2 (0.0)
|   |   maxDischarge = (2757.8, 3274.94]
|   |   |   primaryOwnerTypeId = val_5: val_3 (4.0/2.0)
|   |   |   primaryOwnerTypeId = val_1: val_2 (2.0)
|   |   |   primaryOwnerTypeId = val_3: val_4 (1.0)
|   |   |   primaryOwnerTypeId = val_4: val_2 (0.0)
|   |   |   primaryOwnerTypeId = val_6: val_2 (0.0)
|   |   |   primaryOwnerTypeId = val_2: val_2 (0.0)
|   |   |   primaryOwnerTypeId = val_7: val_2 (0.0)
|   |   maxDischarge = (140.0, 161.0]: val_3 (1.0)
|   |   maxDischarge = (8423.08, 10826.32]: val_2 (12.0/7.0)
|   |   maxDischarge = (29433.0, 75980.0]: val_4 (4.0/1.0)
|   |   maxDischarge = (1040.0, 1160.0]: val_3 (2.0)
|   |   maxDischarge = (1801.0, 2051.46]: val_2 (3.0/1.0)
|   |   maxDischarge = (540.0, 600.0]: val_2 (2.0)
|   |   maxDischarge = (327.0, 362.0]: val_2 (1.0)
|   |   maxDischarge = (1425.0, 1600.0]: val_4 (1.0)
|   |   maxDischarge = (64.0, 82.0]: val_3 (1.0)
|   |   maxDischarge = (161.0, 185.0]: val_2 (0.0)
|   |   maxDischarge = (-0.001, 1.0]: val_2 (7.0)
|   |   maxDischarge = (2051.46, 2380.0]: val_2 (2.0/1.0)
|   |   maxDischarge = (16252.94, 29433.0]: val_4 (13.0/2.0)
|   |   maxDischarge = (1275.0, 1425.0]: val_2 (3.0/1.0)
|   |   maxDischarge = (75980.0, 3707516.0]: val_2 (0.0)
|   |   maxDischarge = (300.0, 327.0]: val_2 (1.0)
|   |   maxDischarge = (495.0, 540.0]: val_2 (1.0)
|   |   maxDischarge = (17.502, 30.0]: val_2 (1.0)
|   |   maxDischarge = (960.0, 1040.0]: val_2 (2.0)
|   |   maxDischarge = (5.394, 17.502]: val_2 (0.0)
|   |   maxDischarge = (2380.0, 2757.8]: val_2 (2.0/1.0)
|   |   maxDischarge = (713.0, 790.0]: val_3 (1.0)
|   |   maxDischarge = (362.0, 400.0]: val_2 (1.0)
|   |   maxDischarge = (48.0, 64.0]: val_2 (2.0/1.0)
|   |   maxDischarge = (600.0, 650.0]: val_3 (4.0/1.0)
|   |   maxDischarge = (4900.0, 6206.0]: val_4 (7.0/3.0)
|   |   maxDischarge = (1.0, 5.394]: val_2 (0.0)
|   |   maxDischarge = (1600.0, 1801.0]: val_2 (3.0/1.0)
|   |   maxDischarge = (209.0, 236.0]: val_2 (1.0)
|   |   maxDischarge = (448.0, 495.0]: val_2 (0.0)
|   |   maxDischarge = (30.0, 48.0]: val_4 (2.0/1.0)
|   |   maxDischarge = (650.0, 713.0]: val_2 (2.0/1.0)
|   |   maxDischarge = (1160.0, 1275.0]: val_4 (1.0)
|   |   maxDischarge = (4000.0, 4900.0]: val_4 (3.0/2.0)
|   |   maxDischarge = (185.0, 209.0]: val_2 (0.0)
|   nidHeightId = val_1: val_4 (9.0)
|   nidHeightId = val_5: val_2 (0.0)
state = Arizona
|   primaryOwnerTypeId = val_5: val_4 (69.0/20.0)
|   primaryOwnerTypeId = val_1: val_2 (102.0/40.0)
|   primaryOwnerTypeId = val_3
|   |   volume = (110169.3, 149261.956]: val_2 (12.0/5.0)
|   |   volume = (14400.0, 15600.0]: val_4 (0.0)
|   |   volume = (17100.0, 18817.68]: val_4 (0.0)
|   |   volume = (-0.001, 100.0]: val_4 (32.0/3.0)
|   |   volume = (18817.68, 20624.75]: val_4 (1.0)
|   |   volume = (56829.14, 68643.1]: val_4 (1.0)
|   |   volume = (10958.486, 12000.0]: val_4 (0.0)
|   |   volume = (39548.0, 47399.76]: val_2 (2.0)
|   |   volume = (47399.76, 56829.14]: val_4 (0.0)
|   |   volume = (68643.1, 85000.0]: val_2 (3.0)
|   |   volume = (20624.75, 23000.0]: val_4 (1.0)
|   |   volume = (8772.26, 9959.59]: val_2 (1.0)
|   |   volume = (12000.0, 13200.0]: val_4 (0.0)
|   |   volume = (28889.46, 33300.0]: val_2 (3.0/1.0)
|   |   volume = (910000.0, 125628000.0]: val_4 (8.0)
|   |   volume = (9959.59, 10958.486]: val_4 (0.0)
|   |   volume = (154214.01, 271898.0]
|   |   |   purposeIds__8 = F: val_2 (5.0)
|   |   |   purposeIds__8 = T: val_4 (2.0)
|   |   volume = (271898.0, 910000.0]: val_2 (3.0/1.0)
|   |   volume = (100.0, 1858.7]: val_2 (2.0/1.0)
|   |   volume = (85000.0, 110169.3]: val_2 (1.0)
|   |   volume = (23000.0, 25488.48]: val_2 (1.0)
|   |   volume = (6391.16, 7672.25]: val_4 (0.0)
|   |   volume = (13200.0, 14400.0]: val_4 (0.0)
|   |   volume = (15600.0, 17100.0]: val_2 (3.0)
|   |   volume = (33300.0, 39548.0]: val_2 (3.0)
|   |   volume = (7672.25, 8772.26]: val_4 (0.0)
|   |   volume = (25488.48, 28889.46]: val_2 (2.0)
|   |   volume = (4700.0, 6391.16]: val_4 (0.0)
|   |   volume = (1858.7, 4700.0]: val_4 (0.0)
|   |   volume = (149261.956, 154214.01]: val_4 (0.0)
|   primaryOwnerTypeId = val_4: val_2 (32.0/13.0)
|   primaryOwnerTypeId = val_6: val_1 (8.0/2.0)
|   primaryOwnerTypeId = val_2
|   |   volume = (110169.3, 149261.956]: val_4 (0.0)
|   |   volume = (14400.0, 15600.0]: val_4 (0.0)
|   |   volume = (17100.0, 18817.68]: val_4 (0.0)
|   |   volume = (-0.001, 100.0]: val_2 (4.0/1.0)
|   |   volume = (18817.68, 20624.75]: val_4 (0.0)
|   |   volume = (56829.14, 68643.1]: val_4 (0.0)
|   |   volume = (10958.486, 12000.0]: val_4 (0.0)
|   |   volume = (39548.0, 47399.76]: val_4 (0.0)
|   |   volume = (47399.76, 56829.14]: val_4 (0.0)
|   |   volume = (68643.1, 85000.0]: val_4 (0.0)
|   |   volume = (20624.75, 23000.0]: val_4 (0.0)
|   |   volume = (8772.26, 9959.59]: val_4 (0.0)
|   |   volume = (12000.0, 13200.0]: val_4 (0.0)
|   |   volume = (28889.46, 33300.0]: val_4 (0.0)
|   |   volume = (910000.0, 125628000.0]: val_4 (5.0/1.0)
|   |   volume = (9959.59, 10958.486]: val_4 (0.0)
|   |   volume = (154214.01, 271898.0]: val_4 (0.0)
|   |   volume = (271898.0, 910000.0]: val_2 (1.0)
|   |   volume = (100.0, 1858.7]: val_4 (0.0)
|   |   volume = (85000.0, 110169.3]: val_3 (1.0)
|   |   volume = (23000.0, 25488.48]: val_4 (0.0)
|   |   volume = (6391.16, 7672.25]: val_4 (0.0)
|   |   volume = (13200.0, 14400.0]: val_4 (0.0)
|   |   volume = (15600.0, 17100.0]: val_4 (0.0)
|   |   volume = (33300.0, 39548.0]: val_4 (0.0)
|   |   volume = (7672.25, 8772.26]: val_4 (0.0)
|   |   volume = (25488.48, 28889.46]: val_4 (0.0)
|   |   volume = (4700.0, 6391.16]: val_4 (0.0)
|   |   volume = (1858.7, 4700.0]: val_4 (0.0)
|   |   volume = (149261.956, 154214.01]: val_4 (0.0)
|   primaryOwnerTypeId = val_7: val_2 (0.0)
state = North Carolina
|   nidHeightId = val_3
|   |   primaryPurposeId = val_9.0: val_4 (97.0/42.0)
|   |   primaryPurposeId = val_2.0: val_2 (113.0/29.0)
|   |   primaryPurposeId = val_10.0: val_2 (69.0/9.0)
|   |   primaryPurposeId = val_1.0: val_2 (11.0/6.0)
|   |   primaryPurposeId = val_11.0: val_2 (0.0)
|   |   primaryPurposeId = val_12.0: val_2 (58.0/27.0)
|   |   primaryPurposeId = val_5.0: val_2 (724.0/373.0)
|   |   primaryPurposeId = val_8.0: val_4 (47.0/10.0)
|   |   primaryPurposeId = val_4.0: val_2 (24.0/13.0)
|   |   primaryPurposeId = val_6.0: val_2 (22.0/11.0)
|   |   primaryPurposeId = val_7.0
|   |   |   huc2 = val_13: val_4 (0.0)
|   |   |   huc2 = val_10: val_4 (0.0)
|   |   |   huc2 = val_2: val_4 (0.0)
|   |   |   huc2 = val_7: val_4 (0.0)
|   |   |   huc2 = val_4: val_4 (0.0)
|   |   |   huc2 = val_14: val_4 (0.0)
|   |   |   huc2 = val_11: val_4 (0.0)
|   |   |   huc2 = val_12: val_4 (0.0)
|   |   |   huc2 = val_1: val_4 (0.0)
|   |   |   huc2 = val_3: val_2 (3.0/1.0)
|   |   |   huc2 = val_18: val_4 (0.0)
|   |   |   huc2 = val_17: val_4 (0.0)
|   |   |   huc2 = val_15: val_4 (0.0)
|   |   |   huc2 = val_5: val_4 (0.0)
|   |   |   huc2 = val_8: val_4 (0.0)
|   |   |   huc2 = val_9: val_4 (0.0)
|   |   |   huc2 = val_6: val_4 (3.0)
|   |   |   huc2 = val_19: val_4 (0.0)
|   |   |   huc2 = val_16: val_4 (0.0)
|   |   |   huc2 = val_20: val_4 (0.0)
|   |   |   huc2 = val_21: val_4 (0.0)
|   |   |   huc2 = val_22: val_4 (0.0)
|   |   primaryPurposeId = val_3.0: val_2 (0.0)
|   nidHeightId = val_4
|   |   nidStorage = (2880.0, 3586.0]: val_4 (2.0/1.0)
|   |   nidStorage = (57.5, 59.0]: val_2 (29.0/11.0)
|   |   nidStorage = (341.0, 362.0]: val_4 (6.0/3.0)
|   |   nidStorage = (53.0, 55.0]
|   |   |   primaryOwnerTypeId = val_5: val_3 (3.0/1.0)
|   |   |   primaryOwnerTypeId = val_1: val_2 (30.0/8.0)
|   |   |   primaryOwnerTypeId = val_3: val_4 (1.0)
|   |   |   primaryOwnerTypeId = val_4: val_2 (0.0)
|   |   |   primaryOwnerTypeId = val_6: val_3 (1.0)
|   |   |   primaryOwnerTypeId = val_2: val_2 (0.0)
|   |   |   primaryOwnerTypeId = val_7: val_2 (0.0)
|   |   nidStorage = (63.8, 65.0]: val_2 (22.0/5.0)
|   |   nidStorage = (29.0, 32.719]
|   |   |   purposeIds__10 = F: val_4 (21.0/3.0)
|   |   |   purposeIds__10 = T: val_3 (4.0)
|   |   nidStorage = (1000.0, 1130.0]: val_4 (2.0/1.0)
|   |   nidStorage = (248.0, 259.0]: val_2 (8.0/2.0)
|   |   nidStorage = (180.0, 188.888]: val_2 (7.0/3.0)
|   |   nidStorage = (110.0, 114.0]: val_4 (2.0/1.0)
|   |   nidStorage = (140.0, 145.0]: val_2 (9.0/3.0)
|   |   nidStorage = (44.2, 48.517]: val_4 (28.0/8.0)
|   |   nidStorage = (188.888, 197.0]: val_2 (6.0/2.0)
|   |   nidStorage = (300.0, 320.0]: val_2 (7.0/4.0)
|   |   nidStorage = (272.0, 288.0]: val_2 (5.0/2.0)
|   |   nidStorage = (1280.0, 1470.0]: val_4 (1.0)
|   |   nidStorage = (259.0, 272.0]: val_2 (7.0/1.0)
|   |   nidStorage = (73.0, 75.0]: val_2 (9.0/1.0)
|   |   nidStorage = (114.0, 118.0]: val_2 (8.0/4.0)
|   |   nidStorage = (6413.3, 9786.28]: val_2 (1.0)
|   |   nidStorage = (56.0, 57.5]: val_2 (7.0/2.0)
|   |   nidStorage = (48.517, 50.0]: val_2 (60.0/14.0)
|   |   nidStorage = (611.0, 670.0]: val_4 (2.0/1.0)
|   |   nidStorage = (155.0, 160.0]
|   |   |   ownerTypeIds__6 = F: val_2 (7.0/1.0)
|   |   |   ownerTypeIds__6 = T: val_4 (3.0)
|   |   nidStorage = (814.0, 900.0]: val_4 (3.0)
|   |   nidStorage = (481.036, 520.0]: val_2 (4.0/1.0)
|   |   nidStorage = (36.232, 40.0]
|   |   |   primaryPurposeId = val_9.0: val_4 (0.0)
|   |   |   primaryPurposeId = val_2.0: val_4 (0.0)
|   |   |   primaryPurposeId = val_10.0: val_4 (2.0/1.0)
|   |   |   primaryPurposeId = val_1.0: val_3 (1.0)
|   |   |   primaryPurposeId = val_11.0: val_4 (0.0)
|   |   |   primaryPurposeId = val_12.0: val_3 (3.0)
|   |   |   primaryPurposeId = val_5.0: val_4 (30.0/8.0)
|   |   |   primaryPurposeId = val_8.0: val_4 (3.0)
|   |   |   primaryPurposeId = val_4.0: val_4 (0.0)
|   |   |   primaryPurposeId = val_6.0: val_4 (0.0)
|   |   |   primaryPurposeId = val_7.0: val_4 (0.0)
|   |   |   primaryPurposeId = val_3.0: val_4 (0.0)
|   |   nidStorage = (1470.0, 1700.0]: val_4 (2.0)
|   |   nidStorage = (96.0, 100.0]: val_2 (17.0/7.0)
|   |   nidStorage = (85.0, 87.0]: val_2 (6.0/1.0)
|   |   nidStorage = (68.0, 70.0]: val_2 (25.0/10.0)
|   |   nidStorage = (212.171, 224.0]
|   |   |   primaryPurposeId = val_9.0: val_2 (0.0)
|   |   |   primaryPurposeId = val_2.0: val_4 (1.0)
|   |   |   primaryPurposeId = val_10.0: val_2 (1.0)
|   |   |   primaryPurposeId = val_1.0: val_2 (0.0)
|   |   |   primaryPurposeId = val_11.0: val_2 (0.0)
|   |   |   primaryPurposeId = val_12.0: val_3 (2.0)
|   |   |   primaryPurposeId = val_5.0: val_2 (3.0/1.0)
|   |   |   primaryPurposeId = val_8.0: val_2 (0.0)
|   |   |   primaryPurposeId = val_4.0: val_2 (0.0)
|   |   |   primaryPurposeId = val_6.0: val_2 (0.0)
|   |   |   primaryPurposeId = val_7.0: val_2 (0.0)
|   |   |   primaryPurposeId = val_3.0: val_2 (0.0)
|   |   nidStorage = (390.0, 415.0]: val_4 (9.0/6.0)
|   |   nidStorage = (40200.0, 146877.43]: val_2 (3.0/1.0)
|   |   nidStorage = (17.451, 21.0]
|   |   |   primaryOwnerTypeId = val_5: val_3 (4.0)
|   |   |   primaryOwnerTypeId = val_1: val_4 (68.0/25.0)
|   |   |   primaryOwnerTypeId = val_3: val_4 (0.0)
|   |   |   primaryOwnerTypeId = val_4: val_4 (2.0/1.0)
|   |   |   primaryOwnerTypeId = val_6: val_4 (4.0/1.0)
|   |   |   primaryOwnerTypeId = val_2: val_4 (0.0)
|   |   |   primaryOwnerTypeId = val_7: val_4 (0.0)
|   |   nidStorage = (197.0, 203.0]: val_4 (8.0/3.0)
|   |   nidStorage = (124.0, 128.0]: val_2 (10.0/3.0)
|   |   nidStorage = (40.0, 44.2]: val_4 (24.0/7.0)
|   |   nidStorage = (520.0, 563.0]: val_2 (5.0/2.0)
|   |   nidStorage = (173.697, 180.0]: val_4 (8.0/4.0)
|   |   nidStorage = (50.0, 52.0]: val_2 (37.0/13.0)
|   |   nidStorage = (563.0, 611.0]: val_2 (5.0/2.0)
|   |   nidStorage = (3586.0, 4650.0]: val_4 (1.0)
|   |   nidStorage = (17000.0, 40200.0]: val_2 (1.0)
|   |   nidStorage = (362.0, 390.0]: val_4 (5.0/2.0)
|   |   nidStorage = (320.0, 341.0]: val_2 (8.0/4.0)
|   |   nidStorage = (71.432, 73.0]: val_2 (21.0/5.0)
|   |   nidStorage = (65.0, 67.0]: val_2 (20.0/8.0)
|   |   nidStorage = (146877.43, 277540000.0]: val_4 (4.0/1.0)
|   |   nidStorage = (2000.0, 2383.94]: val_4 (2.0/1.0)
|   |   nidStorage = (59.0, 60.0]: val_2 (22.0/6.0)
|   |   nidStorage = (900.0, 1000.0]: val_4 (7.0/2.0)
|   |   nidStorage = (75.0, 77.0]: val_2 (15.0/3.0)
|   |   nidStorage = (2383.94, 2880.0]: val_4 (3.0/1.0)
|   |   nidStorage = (118.0, 120.0]: val_2 (9.0/5.0)
|   |   nidStorage = (105.0, 108.0]: val_2 (5.0/1.0)
|   |   nidStorage = (120.0, 124.0]: val_2 (6.0/2.0)
|   |   nidStorage = (737.0, 814.0]: val_4 (5.0/3.0)
|   |   nidStorage = (90.0, 91.0]: val_4 (0.0)
|   |   nidStorage = (87.0, 90.0]: val_2 (12.0/6.0)
|   |   nidStorage = (25.0, 29.0]
|   |   |   primaryOwnerTypeId = val_5: val_3 (1.0)
|   |   |   primaryOwnerTypeId = val_1: val_4 (31.0/9.0)
|   |   |   primaryOwnerTypeId = val_3: val_4 (0.0)
|   |   |   primaryOwnerTypeId = val_4: val_4 (0.0)
|   |   |   primaryOwnerTypeId = val_6: val_3 (2.0)
|   |   |   primaryOwnerTypeId = val_2: val_4 (0.0)
|   |   |   primaryOwnerTypeId = val_7: val_4 (0.0)
|   |   nidStorage = (136.0, 140.0]
|   |   |   normalStorage = (64.0, 66.0]: val_4 (1.0)
|   |   |   normalStorage = (16.0, 18.0]: val_4 (0.0)
|   |   |   normalStorage = (83.0, 86.0]: val_4 (0.0)
|   |   |   normalStorage = (6228.13, 11146.147]: val_2 (2.0)
|   |   |   normalStorage = (35.228, 37.0]: val_4 (0.0)
|   |   |   normalStorage = (30.8, 32.0]: val_4 (0.0)
|   |   |   normalStorage = (154.0, 164.0]: val_4 (0.0)
|   |   |   normalStorage = (187.0, 200.0]: val_4 (0.0)
|   |   |   normalStorage = (109.0, 114.0]: val_4 (1.0)
|   |   |   normalStorage = (96.0, 100.0]: val_4 (0.0)
|   |   |   normalStorage = (26.0, 27.401]: val_4 (0.0)
|   |   |   normalStorage = (139.0, 147.0]: val_4 (0.0)
|   |   |   normalStorage = (175.0, 187.0]: val_4 (0.0)
|   |   |   normalStorage = (18.0, 19.0]: val_4 (0.0)
|   |   |   normalStorage = (-48.001, 0.0]: val_4 (0.0)
|   |   |   normalStorage = (40.0, 41.0]: val_4 (0.0)
|   |   |   normalStorage = (59.0, 60.0]: val_4 (0.0)
|   |   |   normalStorage = (3630.96, 6228.13]: val_4 (0.0)
|   |   |   normalStorage = (41.0, 42.0]: val_4 (0.0)
|   |   |   normalStorage = (54.0, 56.0]: val_4 (0.0)
|   |   |   normalStorage = (627.0, 768.0]: val_4 (0.0)
|   |   |   normalStorage = (277.0, 305.0]: val_4 (0.0)
|   |   |   normalStorage = (24.0, 25.0]: val_4 (0.0)
|   |   |   normalStorage = (768.0, 957.0]: val_4 (0.0)
|   |   |   normalStorage = (78.0, 80.0]: val_4 (0.0)
|   |   |   normalStorage = (57.0, 59.0]: val_4 (0.0)
|   |   |   normalStorage = (230.0, 250.0]: val_4 (0.0)
|   |   |   normalStorage = (9.3, 11.8]: val_4 (0.0)
|   |   |   normalStorage = (72.5, 75.0]: val_4 (0.0)
|   |   |   normalStorage = (100.0, 104.0]: val_4 (0.0)
|   |   |   normalStorage = (29.0, 30.0]: val_4 (0.0)
|   |   |   normalStorage = (210.0, 230.0]: val_4 (0.0)
|   |   |   normalStorage = (25.0, 26.0]: val_4 (0.0)
|   |   |   normalStorage = (131.0, 139.0]: val_2 (1.0)
|   |   |   normalStorage = (6.0, 9.3]: val_4 (0.0)
|   |   |   normalStorage = (20248.84, 75097.13]: val_4 (0.0)
|   |   |   normalStorage = (114.0, 120.0]: val_4 (5.0/2.0)
|   |   |   normalStorage = (396.0, 454.92]: val_4 (0.0)
|   |   |   normalStorage = (38.0, 40.0]: val_4 (0.0)
|   |   |   normalStorage = (19.0, 20.0]: val_4 (0.0)
|   |   |   normalStorage = (27.401, 29.0]: val_4 (0.0)
|   |   |   normalStorage = (90.0, 92.6]: val_4 (0.0)
|   |   |   normalStorage = (46.0, 48.0]: val_4 (0.0)
|   |   |   normalStorage = (51.0, 53.0]: val_4 (0.0)
|   |   |   normalStorage = (2400.0, 3630.96]: val_4 (0.0)
|   |   |   normalStorage = (13.0, 15.0]: val_4 (0.0)
|   |   |   normalStorage = (1700.0, 2400.0]: val_4 (0.0)
|   |   |   normalStorage = (34.0, 35.228]: val_4 (0.0)
|   |   |   normalStorage = (20.0, 21.0]: val_4 (0.0)
|   |   |   normalStorage = (104.0, 109.0]: val_3 (1.0)
|   |   |   normalStorage = (528.0, 627.0]: val_4 (0.0)
|   |   |   normalStorage = (66.0, 68.0]: val_4 (0.0)
|   |   |   normalStorage = (21.0, 23.0]: val_4 (0.0)
|   |   |   normalStorage = (11.8, 13.0]: val_4 (0.0)
|   |   |   normalStorage = (53.0, 54.0]: val_4 (0.0)
|   |   |   normalStorage = (125.0, 131.0]: val_2 (1.0)
|   |   |   normalStorage = (48.0, 49.5]: val_2 (1.0)
|   |   |   normalStorage = (56.0, 57.0]: val_4 (0.0)
|   |   |   normalStorage = (147.0, 154.0]: val_4 (0.0)
|   |   |   normalStorage = (957.0, 1230.45]: val_4 (0.0)
|   |   |   normalStorage = (75097.13, 277540000.0]: val_4 (0.0)
|   |   |   normalStorage = (11146.147, 20248.84]: val_4 (0.0)
|   |   |   normalStorage = (68.0, 70.0]: val_4 (0.0)
|   |   |   normalStorage = (305.0, 347.0]: val_4 (0.0)
|   |   |   normalStorage = (347.0, 396.0]: val_4 (0.0)
|   |   |   normalStorage = (37.0, 38.0]: val_4 (0.0)
|   |   |   normalStorage = (62.0, 64.0]: val_4 (0.0)
|   |   |   normalStorage = (80.0, 83.0]: val_4 (0.0)
|   |   |   normalStorage = (32.0, 33.0]: val_4 (0.0)
|   |   |   normalStorage = (250.0, 277.0]: val_4 (0.0)
|   |   |   normalStorage = (49.5, 50.0]: val_4 (1.0)
|   |   |   normalStorage = (86.0, 90.0]: val_4 (0.0)
|   |   |   normalStorage = (44.0, 45.0]: val_4 (0.0)
|   |   |   normalStorage = (42.0, 44.0]: val_4 (0.0)
|   |   |   normalStorage = (1230.45, 1700.0]: val_4 (0.0)
|   |   |   normalStorage = (92.6, 96.0]: val_4 (0.0)
|   |   |   normalStorage = (70.0, 72.5]: val_4 (0.0)
|   |   |   normalStorage = (1.446, 6.0]: val_4 (0.0)
|   |   |   normalStorage = (164.0, 175.0]: val_4 (0.0)
|   |   |   normalStorage = (60.0, 62.0]: val_4 (0.0)
|   |   |   normalStorage = (33.0, 34.0]: val_4 (0.0)
|   |   |   normalStorage = (75.0, 78.0]: val_4 (0.0)
|   |   |   normalStorage = (45.0, 46.0]: val_4 (0.0)
|   |   |   normalStorage = (50.0, 51.0]: val_4 (0.0)
|   |   |   normalStorage = (0.0, 1.446]: val_4 (0.0)
|   |   |   normalStorage = (454.92, 528.0]: val_4 (0.0)
|   |   |   normalStorage = (23.0, 24.0]: val_4 (0.0)
|   |   |   normalStorage = (120.0, 125.0]: val_4 (0.0)
|   |   |   normalStorage = (200.0, 210.0]: val_4 (0.0)
|   |   |   normalStorage = (15.0, 16.0]: val_4 (0.0)
|   |   |   normalStorage = (30.0, 30.8]: val_4 (0.0)
|   |   nidStorage = (4650.0, 6413.3]: val_4 (2.0)
|   |   nidStorage = (-0.001, 10.0]: val_4 (168.0/55.0)
|   |   nidStorage = (236.0, 248.0]
|   |   |   primaryPurposeId = val_9.0: val_3 (1.0)
|   |   |   primaryPurposeId = val_2.0: val_4 (0.0)
|   |   |   primaryPurposeId = val_10.0: val_2 (1.0)
|   |   |   primaryPurposeId = val_1.0: val_4 (0.0)
|   |   |   primaryPurposeId = val_11.0: val_4 (0.0)
|   |   |   primaryPurposeId = val_12.0: val_2 (3.0/1.0)
|   |   |   primaryPurposeId = val_5.0: val_4 (3.0)
|   |   |   primaryPurposeId = val_8.0: val_4 (0.0)
|   |   |   primaryPurposeId = val_4.0: val_4 (0.0)
|   |   |   primaryPurposeId = val_6.0: val_4 (0.0)
|   |   |   primaryPurposeId = val_7.0: val_4 (0.0)
|   |   |   primaryPurposeId = val_3.0: val_4 (0.0)
|   |   nidStorage = (670.0, 737.0]
|   |   |   primaryPurposeId = val_9.0: val_4 (1.0)
|   |   |   primaryPurposeId = val_2.0: val_3 (2.0)
|   |   |   primaryPurposeId = val_10.0: val_4 (0.0)
|   |   |   primaryPurposeId = val_1.0: val_4 (0.0)
|   |   |   primaryPurposeId = val_11.0: val_4 (0.0)
|   |   |   primaryPurposeId = val_12.0: val_4 (0.0)
|   |   |   primaryPurposeId = val_5.0: val_4 (2.0)
|   |   |   primaryPurposeId = val_8.0: val_4 (0.0)
|   |   |   primaryPurposeId = val_4.0: val_4 (0.0)
|   |   |   primaryPurposeId = val_6.0: val_4 (0.0)
|   |   |   primaryPurposeId = val_7.0: val_4 (0.0)
|   |   |   primaryPurposeId = val_3.0: val_4 (0.0)
|   |   nidStorage = (288.0, 300.0]: val_4 (6.0/3.0)
|   |   nidStorage = (32.719, 36.232]: val_4 (21.0/9.0)
|   |   nidStorage = (55.0, 56.0]: val_2 (15.0/4.0)
|   |   nidStorage = (9786.28, 17000.0]: val_4 (0.0)
|   |   nidStorage = (52.0, 53.0]: val_2 (17.0/2.0)
|   |   nidStorage = (150.0, 155.0]: val_2 (5.0/2.0)
|   |   nidStorage = (60.0, 62.0]: val_2 (18.0/7.0)
|   |   nidStorage = (80.0, 83.0]: val_2 (9.0/4.0)
|   |   nidStorage = (100.0, 101.0]: val_2 (5.0/2.0)
|   |   nidStorage = (160.0, 166.0]: val_2 (8.0/3.0)
|   |   nidStorage = (415.0, 448.0]: val_4 (8.0/3.0)
|   |   nidStorage = (1130.0, 1280.0]: val_4 (4.0)
|   |   nidStorage = (128.0, 132.0]: val_2 (8.0/3.0)
|   |   nidStorage = (224.0, 236.0]: val_4 (6.0/4.0)
|   |   nidStorage = (101.0, 105.0]: val_2 (11.0/4.0)
|   |   nidStorage = (77.0, 80.0]: val_4 (21.0/9.0)
|   |   nidStorage = (203.0, 212.171]: val_2 (4.0/1.0)
|   |   nidStorage = (83.0, 85.0]: val_2 (17.0/8.0)
|   |   nidStorage = (1700.0, 2000.0]: val_2 (2.0/1.0)
|   |   nidStorage = (448.0, 481.036]: val_4 (7.0/4.0)
|   |   nidStorage = (21.0, 25.0]: val_4 (49.0/15.0)
|   |   nidStorage = (91.0, 94.0]: val_2 (14.0/5.0)
|   |   nidStorage = (132.0, 136.0]: val_2 (6.0/3.0)
|   |   nidStorage = (70.0, 71.432]: val_2 (3.0)
|   |   nidStorage = (94.0, 96.0]
|   |   |   normalStorage = (64.0, 66.0]: val_2 (0.0)
|   |   |   normalStorage = (16.0, 18.0]: val_2 (0.0)
|   |   |   normalStorage = (83.0, 86.0]: val_2 (2.0)
|   |   |   normalStorage = (6228.13, 11146.147]: val_2 (0.0)
|   |   |   normalStorage = (35.228, 37.0]: val_2 (0.0)
|   |   |   normalStorage = (30.8, 32.0]: val_2 (0.0)
|   |   |   normalStorage = (154.0, 164.0]: val_2 (0.0)
|   |   |   normalStorage = (187.0, 200.0]: val_2 (0.0)
|   |   |   normalStorage = (109.0, 114.0]: val_2 (0.0)
|   |   |   normalStorage = (96.0, 100.0]: val_2 (0.0)
|   |   |   normalStorage = (26.0, 27.401]: val_2 (0.0)
|   |   |   normalStorage = (139.0, 147.0]: val_2 (0.0)
|   |   |   normalStorage = (175.0, 187.0]: val_2 (0.0)
|   |   |   normalStorage = (18.0, 19.0]: val_2 (0.0)
|   |   |   normalStorage = (-48.001, 0.0]: val_2 (0.0)
|   |   |   normalStorage = (40.0, 41.0]: val_2 (0.0)
|   |   |   normalStorage = (59.0, 60.0]: val_2 (0.0)
|   |   |   normalStorage = (3630.96, 6228.13]: val_2 (0.0)
|   |   |   normalStorage = (41.0, 42.0]: val_2 (0.0)
|   |   |   normalStorage = (54.0, 56.0]: val_2 (0.0)
|   |   |   normalStorage = (627.0, 768.0]: val_2 (0.0)
|   |   |   normalStorage = (277.0, 305.0]: val_2 (0.0)
|   |   |   normalStorage = (24.0, 25.0]: val_2 (0.0)
|   |   |   normalStorage = (768.0, 957.0]: val_2 (0.0)
|   |   |   normalStorage = (78.0, 80.0]: val_2 (5.0/2.0)
|   |   |   normalStorage = (57.0, 59.0]: val_2 (0.0)
|   |   |   normalStorage = (230.0, 250.0]: val_2 (0.0)
|   |   |   normalStorage = (9.3, 11.8]: val_2 (0.0)
|   |   |   normalStorage = (72.5, 75.0]: val_2 (0.0)
|   |   |   normalStorage = (100.0, 104.0]: val_2 (0.0)
|   |   |   normalStorage = (29.0, 30.0]: val_2 (0.0)
|   |   |   normalStorage = (210.0, 230.0]: val_2 (0.0)
|   |   |   normalStorage = (25.0, 26.0]: val_2 (0.0)
|   |   |   normalStorage = (131.0, 139.0]: val_2 (0.0)
|   |   |   normalStorage = (6.0, 9.3]: val_2 (0.0)
|   |   |   normalStorage = (20248.84, 75097.13]: val_2 (0.0)
|   |   |   normalStorage = (114.0, 120.0]: val_2 (0.0)
|   |   |   normalStorage = (396.0, 454.92]: val_2 (0.0)
|   |   |   normalStorage = (38.0, 40.0]: val_2 (0.0)
|   |   |   normalStorage = (19.0, 20.0]: val_2 (0.0)
|   |   |   normalStorage = (27.401, 29.0]: val_2 (0.0)
|   |   |   normalStorage = (90.0, 92.6]: val_2 (0.0)
|   |   |   normalStorage = (46.0, 48.0]: val_2 (0.0)
|   |   |   normalStorage = (51.0, 53.0]: val_2 (0.0)
|   |   |   normalStorage = (2400.0, 3630.96]: val_2 (0.0)
|   |   |   normalStorage = (13.0, 15.0]: val_2 (0.0)
|   |   |   normalStorage = (1700.0, 2400.0]: val_2 (0.0)
|   |   |   normalStorage = (34.0, 35.228]: val_2 (0.0)
|   |   |   normalStorage = (20.0, 21.0]: val_2 (0.0)
|   |   |   normalStorage = (104.0, 109.0]: val_2 (0.0)
|   |   |   normalStorage = (528.0, 627.0]: val_2 (0.0)
|   |   |   normalStorage = (66.0, 68.0]: val_2 (0.0)
|   |   |   normalStorage = (21.0, 23.0]: val_2 (0.0)
|   |   |   normalStorage = (11.8, 13.0]: val_2 (0.0)
|   |   |   normalStorage = (53.0, 54.0]: val_2 (0.0)
|   |   |   normalStorage = (125.0, 131.0]: val_2 (0.0)
|   |   |   normalStorage = (48.0, 49.5]: val_2 (0.0)
|   |   |   normalStorage = (56.0, 57.0]: val_2 (0.0)
|   |   |   normalStorage = (147.0, 154.0]: val_2 (0.0)
|   |   |   normalStorage = (957.0, 1230.45]: val_2 (0.0)
|   |   |   normalStorage = (75097.13, 277540000.0]: val_2 (0.0)
|   |   |   normalStorage = (11146.147, 20248.84]: val_2 (0.0)
|   |   |   normalStorage = (68.0, 70.0]: val_2 (0.0)
|   |   |   normalStorage = (305.0, 347.0]: val_2 (0.0)
|   |   |   normalStorage = (347.0, 396.0]: val_2 (0.0)
|   |   |   normalStorage = (37.0, 38.0]: val_2 (0.0)
|   |   |   normalStorage = (62.0, 64.0]: val_2 (0.0)
|   |   |   normalStorage = (80.0, 83.0]: val_2 (0.0)
|   |   |   normalStorage = (32.0, 33.0]: val_2 (0.0)
|   |   |   normalStorage = (250.0, 277.0]: val_2 (0.0)
|   |   |   normalStorage = (49.5, 50.0]: val_2 (0.0)
|   |   |   normalStorage = (86.0, 90.0]: val_2 (0.0)
|   |   |   normalStorage = (44.0, 45.0]: val_2 (0.0)
|   |   |   normalStorage = (42.0, 44.0]: val_2 (1.0)
|   |   |   normalStorage = (1230.45, 1700.0]: val_2 (0.0)
|   |   |   normalStorage = (92.6, 96.0]: val_3 (1.0)
|   |   |   normalStorage = (70.0, 72.5]: val_4 (1.0)
|   |   |   normalStorage = (1.446, 6.0]: val_2 (0.0)
|   |   |   normalStorage = (164.0, 175.0]: val_2 (0.0)
|   |   |   normalStorage = (60.0, 62.0]: val_2 (0.0)
|   |   |   normalStorage = (33.0, 34.0]: val_2 (0.0)
|   |   |   normalStorage = (75.0, 78.0]: val_4 (2.0)
|   |   |   normalStorage = (45.0, 46.0]: val_2 (0.0)
|   |   |   normalStorage = (50.0, 51.0]: val_2 (0.0)
|   |   |   normalStorage = (0.0, 1.446]: val_2 (0.0)
|   |   |   normalStorage = (454.92, 528.0]: val_2 (0.0)
|   |   |   normalStorage = (23.0, 24.0]: val_2 (0.0)
|   |   |   normalStorage = (120.0, 125.0]: val_2 (0.0)
|   |   |   normalStorage = (200.0, 210.0]: val_2 (0.0)
|   |   |   normalStorage = (15.0, 16.0]: val_2 (0.0)
|   |   |   normalStorage = (30.0, 30.8]: val_2 (0.0)
|   |   nidStorage = (10.0, 17.451]: val_4 (119.0/42.0)
|   |   nidStorage = (108.0, 110.0]: val_2 (8.0/2.0)
|   |   nidStorage = (67.0, 68.0]
|   |   |   maxDischarge = (10826.32, 16252.94]: val_2 (0.0)
|   |   |   maxDischarge = (263.0, 300.0]: val_2 (0.0)
|   |   |   maxDischarge = (3274.94, 4000.0]: val_2 (0.0)
|   |   |   maxDischarge = (6206.0, 8423.08]: val_2 (3.0/1.0)
|   |   |   maxDischarge = (236.0, 263.0]: val_2 (0.0)
|   |   |   maxDischarge = (120.0, 140.0]: val_2 (0.0)
|   |   |   maxDischarge = (790.0, 864.0]: val_2 (0.0)
|   |   |   maxDischarge = (864.0, 960.0]: val_2 (0.0)
|   |   |   maxDischarge = (82.0, 100.0]: val_2 (1.0)
|   |   |   maxDischarge = (400.0, 448.0]: val_2 (0.0)
|   |   |   maxDischarge = (100.0, 120.0]: val_2 (0.0)
|   |   |   maxDischarge = (2757.8, 3274.94]: val_2 (0.0)
|   |   |   maxDischarge = (140.0, 161.0]: val_2 (0.0)
|   |   |   maxDischarge = (8423.08, 10826.32]: val_2 (0.0)
|   |   |   maxDischarge = (29433.0, 75980.0]: val_2 (0.0)
|   |   |   maxDischarge = (1040.0, 1160.0]: val_2 (0.0)
|   |   |   maxDischarge = (1801.0, 2051.46]: val_2 (0.0)
|   |   |   maxDischarge = (540.0, 600.0]: val_2 (0.0)
|   |   |   maxDischarge = (327.0, 362.0]: val_2 (0.0)
|   |   |   maxDischarge = (1425.0, 1600.0]: val_2 (0.0)
|   |   |   maxDischarge = (64.0, 82.0]: val_2 (1.0)
|   |   |   maxDischarge = (161.0, 185.0]: val_2 (0.0)
|   |   |   maxDischarge = (-0.001, 1.0]: val_2 (0.0)
|   |   |   maxDischarge = (2051.46, 2380.0]: val_2 (0.0)
|   |   |   maxDischarge = (16252.94, 29433.0]: val_2 (0.0)
|   |   |   maxDischarge = (1275.0, 1425.0]: val_2 (0.0)
|   |   |   maxDischarge = (75980.0, 3707516.0]: val_2 (0.0)
|   |   |   maxDischarge = (300.0, 327.0]: val_2 (0.0)
|   |   |   maxDischarge = (495.0, 540.0]: val_2 (0.0)
|   |   |   maxDischarge = (17.502, 30.0]: val_3 (1.0)
|   |   |   maxDischarge = (960.0, 1040.0]: val_2 (0.0)
|   |   |   maxDischarge = (5.394, 17.502]: val_2 (0.0)
|   |   |   maxDischarge = (2380.0, 2757.8]: val_2 (0.0)
|   |   |   maxDischarge = (713.0, 790.0]: val_2 (0.0)
|   |   |   maxDischarge = (362.0, 400.0]: val_2 (0.0)
|   |   |   maxDischarge = (48.0, 64.0]: val_4 (2.0)
|   |   |   maxDischarge = (600.0, 650.0]: val_2 (0.0)
|   |   |   maxDischarge = (4900.0, 6206.0]: val_2 (0.0)
|   |   |   maxDischarge = (1.0, 5.394]: val_2 (0.0)
|   |   |   maxDischarge = (1600.0, 1801.0]: val_2 (0.0)
|   |   |   maxDischarge = (209.0, 236.0]: val_2 (0.0)
|   |   |   maxDischarge = (448.0, 495.0]: val_2 (0.0)
|   |   |   maxDischarge = (30.0, 48.0]: val_2 (0.0)
|   |   |   maxDischarge = (650.0, 713.0]: val_2 (0.0)
|   |   |   maxDischarge = (1160.0, 1275.0]: val_2 (0.0)
|   |   |   maxDischarge = (4000.0, 4900.0]: val_2 (0.0)
|   |   |   maxDischarge = (185.0, 209.0]: val_3 (1.0)
|   |   nidStorage = (62.0, 63.8]: val_2 (5.0/2.0)
|   |   nidStorage = (166.0, 173.697]: val_2 (10.0/5.0)
|   |   nidStorage = (145.0, 150.0]: val_2 (6.0/2.0)
|   nidHeightId = val_2: val_4 (121.0/29.0)
|   nidHeightId = val_1: val_4 (29.0)
|   nidHeightId = val_5
|   |   primaryPurposeId = val_9.0: val_3 (11.0/3.0)
|   |   primaryPurposeId = val_2.0: val_4 (8.0/3.0)
|   |   primaryPurposeId = val_10.0: val_4 (2.0)
|   |   primaryPurposeId = val_1.0: val_3 (1.0)
|   |   primaryPurposeId = val_11.0: val_4 (0.0)
|   |   primaryPurposeId = val_12.0: val_4 (130.0/37.0)
|   |   primaryPurposeId = val_5.0: val_4 (25.0/4.0)
|   |   primaryPurposeId = val_8.0: val_4 (3.0/1.0)
|   |   primaryPurposeId = val_4.0: val_4 (5.0/1.0)
|   |   primaryPurposeId = val_6.0: val_4 (0.0)
|   |   primaryPurposeId = val_7.0: val_3 (7.0/1.0)
|   |   primaryPurposeId = val_3.0: val_4 (0.0)
state = Indiana
|   nidStorage = (2880.0, 3586.0]: val_4 (12.0/4.0)
|   nidStorage = (57.5, 59.0]: val_2 (9.0)
|   nidStorage = (341.0, 362.0]
|   |   nidHeightId = val_3: val_4 (3.0/1.0)
|   |   nidHeightId = val_4: val_2 (4.0/1.0)
|   |   nidHeightId = val_2: val_2 (1.0)
|   |   nidHeightId = val_1: val_2 (0.0)
|   |   nidHeightId = val_5: val_2 (0.0)
|   nidStorage = (53.0, 55.0]: val_2 (14.0/8.0)
|   nidStorage = (63.8, 65.0]: val_4 (10.0/6.0)
|   nidStorage = (29.0, 32.719]: val_2 (4.0/2.0)
|   nidStorage = (1000.0, 1130.0]: val_4 (3.0/1.0)
|   nidStorage = (248.0, 259.0]
|   |   primaryOwnerTypeId = val_5: val_2 (3.0)
|   |   primaryOwnerTypeId = val_1: val_3 (4.0/2.0)
|   |   primaryOwnerTypeId = val_3: val_2 (0.0)
|   |   primaryOwnerTypeId = val_4: val_2 (0.0)
|   |   primaryOwnerTypeId = val_6: val_2 (0.0)
|   |   primaryOwnerTypeId = val_2: val_2 (0.0)
|   |   primaryOwnerTypeId = val_7: val_2 (0.0)
|   nidStorage = (180.0, 188.888]: val_3 (3.0/1.0)
|   nidStorage = (110.0, 114.0]: val_2 (9.0/5.0)
|   nidStorage = (140.0, 145.0]: val_3 (5.0/2.0)
|   nidStorage = (44.2, 48.517]: val_4 (9.0/4.0)
|   nidStorage = (188.888, 197.0]: val_3 (8.0/4.0)
|   nidStorage = (300.0, 320.0]
|   |   nidHeightId = val_3: val_4 (6.0/3.0)
|   |   nidHeightId = val_4: val_2 (9.0/4.0)
|   |   nidHeightId = val_2: val_4 (0.0)
|   |   nidHeightId = val_1: val_4 (0.0)
|   |   nidHeightId = val_5: val_4 (0.0)
|   nidStorage = (272.0, 288.0]: val_3 (8.0/4.0)
|   nidStorage = (1280.0, 1470.0]: val_4 (12.0/2.0)
|   nidStorage = (259.0, 272.0]: val_3 (9.0/1.0)
|   nidStorage = (73.0, 75.0]: val_2 (6.0/3.0)
|   nidStorage = (114.0, 118.0]
|   |   foundationTypeIds__1 = T: val_4 (2.0/1.0)
|   |   foundationTypeIds__1 = F: val_2 (6.0/2.0)
|   nidStorage = (6413.3, 9786.28]: val_4 (13.0/6.0)
|   nidStorage = (56.0, 57.5]: val_2 (3.0/1.0)
|   nidStorage = (48.517, 50.0]: val_3 (11.0/6.0)
|   nidStorage = (611.0, 670.0]
|   |   normalStorage = (64.0, 66.0]: val_4 (0.0)
|   |   normalStorage = (16.0, 18.0]: val_4 (0.0)
|   |   normalStorage = (83.0, 86.0]: val_4 (0.0)
|   |   normalStorage = (6228.13, 11146.147]: val_4 (0.0)
|   |   normalStorage = (35.228, 37.0]: val_4 (0.0)
|   |   normalStorage = (30.8, 32.0]: val_4 (0.0)
|   |   normalStorage = (154.0, 164.0]: val_4 (0.0)
|   |   normalStorage = (187.0, 200.0]: val_4 (0.0)
|   |   normalStorage = (109.0, 114.0]: val_4 (0.0)
|   |   normalStorage = (96.0, 100.0]: val_4 (0.0)
|   |   normalStorage = (26.0, 27.401]: val_4 (0.0)
|   |   normalStorage = (139.0, 147.0]: val_4 (0.0)
|   |   normalStorage = (175.0, 187.0]: val_4 (0.0)
|   |   normalStorage = (18.0, 19.0]: val_4 (0.0)
|   |   normalStorage = (-48.001, 0.0]: val_2 (1.0)
|   |   normalStorage = (40.0, 41.0]: val_4 (0.0)
|   |   normalStorage = (59.0, 60.0]: val_4 (0.0)
|   |   normalStorage = (3630.96, 6228.13]: val_4 (0.0)
|   |   normalStorage = (41.0, 42.0]: val_4 (0.0)
|   |   normalStorage = (54.0, 56.0]: val_4 (0.0)
|   |   normalStorage = (627.0, 768.0]: val_4 (0.0)
|   |   normalStorage = (277.0, 305.0]: val_4 (1.0)
|   |   normalStorage = (24.0, 25.0]: val_4 (0.0)
|   |   normalStorage = (768.0, 957.0]: val_4 (0.0)
|   |   normalStorage = (78.0, 80.0]: val_4 (0.0)
|   |   normalStorage = (57.0, 59.0]: val_4 (0.0)
|   |   normalStorage = (230.0, 250.0]: val_4 (0.0)
|   |   normalStorage = (9.3, 11.8]: val_4 (0.0)
|   |   normalStorage = (72.5, 75.0]: val_4 (0.0)
|   |   normalStorage = (100.0, 104.0]: val_4 (0.0)
|   |   normalStorage = (29.0, 30.0]: val_4 (0.0)
|   |   normalStorage = (210.0, 230.0]: val_4 (0.0)
|   |   normalStorage = (25.0, 26.0]: val_4 (0.0)
|   |   normalStorage = (131.0, 139.0]: val_4 (0.0)
|   |   normalStorage = (6.0, 9.3]: val_4 (0.0)
|   |   normalStorage = (20248.84, 75097.13]: val_4 (0.0)
|   |   normalStorage = (114.0, 120.0]: val_4 (0.0)
|   |   normalStorage = (396.0, 454.92]: val_4 (2.0)
|   |   normalStorage = (38.0, 40.0]: val_4 (0.0)
|   |   normalStorage = (19.0, 20.0]: val_4 (0.0)
|   |   normalStorage = (27.401, 29.0]: val_4 (0.0)
|   |   normalStorage = (90.0, 92.6]: val_4 (0.0)
|   |   normalStorage = (46.0, 48.0]: val_2 (1.0)
|   |   normalStorage = (51.0, 53.0]: val_4 (0.0)
|   |   normalStorage = (2400.0, 3630.96]: val_4 (0.0)
|   |   normalStorage = (13.0, 15.0]: val_4 (0.0)
|   |   normalStorage = (1700.0, 2400.0]: val_4 (0.0)
|   |   normalStorage = (34.0, 35.228]: val_4 (0.0)
|   |   normalStorage = (20.0, 21.0]: val_4 (0.0)
|   |   normalStorage = (104.0, 109.0]: val_4 (0.0)
|   |   normalStorage = (528.0, 627.0]: val_4 (0.0)
|   |   normalStorage = (66.0, 68.0]: val_4 (0.0)
|   |   normalStorage = (21.0, 23.0]: val_4 (0.0)
|   |   normalStorage = (11.8, 13.0]: val_4 (0.0)
|   |   normalStorage = (53.0, 54.0]: val_4 (0.0)
|   |   normalStorage = (125.0, 131.0]: val_4 (0.0)
|   |   normalStorage = (48.0, 49.5]: val_4 (0.0)
|   |   normalStorage = (56.0, 57.0]: val_4 (0.0)
|   |   normalStorage = (147.0, 154.0]: val_4 (0.0)
|   |   normalStorage = (957.0, 1230.45]: val_4 (0.0)
|   |   normalStorage = (75097.13, 277540000.0]: val_4 (0.0)
|   |   normalStorage = (11146.147, 20248.84]: val_4 (0.0)
|   |   normalStorage = (68.0, 70.0]: val_4 (0.0)
|   |   normalStorage = (305.0, 347.0]: val_4 (1.0)
|   |   normalStorage = (347.0, 396.0]: val_2 (1.0)
|   |   normalStorage = (37.0, 38.0]: val_4 (0.0)
|   |   normalStorage = (62.0, 64.0]: val_4 (0.0)
|   |   normalStorage = (80.0, 83.0]: val_4 (0.0)
|   |   normalStorage = (32.0, 33.0]: val_4 (0.0)
|   |   normalStorage = (250.0, 277.0]: val_2 (2.0/1.0)
|   |   normalStorage = (49.5, 50.0]: val_4 (0.0)
|   |   normalStorage = (86.0, 90.0]: val_4 (0.0)
|   |   normalStorage = (44.0, 45.0]: val_4 (0.0)
|   |   normalStorage = (42.0, 44.0]: val_4 (0.0)
|   |   normalStorage = (1230.45, 1700.0]: val_4 (0.0)
|   |   normalStorage = (92.6, 96.0]: val_4 (0.0)
|   |   normalStorage = (70.0, 72.5]: val_4 (1.0)
|   |   normalStorage = (1.446, 6.0]: val_4 (0.0)
|   |   normalStorage = (164.0, 175.0]: val_4 (0.0)
|   |   normalStorage = (60.0, 62.0]: val_4 (0.0)
|   |   normalStorage = (33.0, 34.0]: val_4 (0.0)
|   |   normalStorage = (75.0, 78.0]: val_4 (0.0)
|   |   normalStorage = (45.0, 46.0]: val_4 (0.0)
|   |   normalStorage = (50.0, 51.0]: val_4 (0.0)
|   |   normalStorage = (0.0, 1.446]: val_4 (0.0)
|   |   normalStorage = (454.92, 528.0]: val_2 (2.0/1.0)
|   |   normalStorage = (23.0, 24.0]: val_4 (0.0)
|   |   normalStorage = (120.0, 125.0]: val_4 (0.0)
|   |   normalStorage = (200.0, 210.0]: val_3 (2.0)
|   |   normalStorage = (15.0, 16.0]: val_4 (0.0)
|   |   normalStorage = (30.0, 30.8]: val_4 (0.0)
|   nidStorage = (155.0, 160.0]: val_2 (7.0/4.0)
|   nidStorage = (814.0, 900.0]: val_3 (10.0/4.0)
|   nidStorage = (481.036, 520.0]
|   |   primaryPurposeId = val_9.0: val_3 (5.0)
|   |   primaryPurposeId = val_2.0: val_3 (0.0)
|   |   primaryPurposeId = val_10.0: val_3 (0.0)
|   |   primaryPurposeId = val_1.0: val_3 (0.0)
|   |   primaryPurposeId = val_11.0: val_3 (0.0)
|   |   primaryPurposeId = val_12.0: val_3 (0.0)
|   |   primaryPurposeId = val_5.0: val_4 (5.0/3.0)
|   |   primaryPurposeId = val_8.0: val_4 (2.0)
|   |   primaryPurposeId = val_4.0: val_3 (0.0)
|   |   primaryPurposeId = val_6.0: val_3 (0.0)
|   |   primaryPurposeId = val_7.0: val_3 (0.0)
|   |   primaryPurposeId = val_3.0: val_3 (0.0)
|   nidStorage = (36.232, 40.0]: val_2 (10.0/5.0)
|   nidStorage = (1470.0, 1700.0]
|   |   normalStorage = (64.0, 66.0]: val_4 (0.0)
|   |   normalStorage = (16.0, 18.0]: val_4 (0.0)
|   |   normalStorage = (83.0, 86.0]: val_4 (0.0)
|   |   normalStorage = (6228.13, 11146.147]: val_4 (0.0)
|   |   normalStorage = (35.228, 37.0]: val_4 (0.0)
|   |   normalStorage = (30.8, 32.0]: val_4 (0.0)
|   |   normalStorage = (154.0, 164.0]: val_4 (0.0)
|   |   normalStorage = (187.0, 200.0]: val_4 (0.0)
|   |   normalStorage = (109.0, 114.0]: val_4 (0.0)
|   |   normalStorage = (96.0, 100.0]: val_4 (0.0)
|   |   normalStorage = (26.0, 27.401]: val_4 (0.0)
|   |   normalStorage = (139.0, 147.0]: val_4 (0.0)
|   |   normalStorage = (175.0, 187.0]: val_4 (0.0)
|   |   normalStorage = (18.0, 19.0]: val_4 (0.0)
|   |   normalStorage = (-48.001, 0.0]: val_2 (1.0)
|   |   normalStorage = (40.0, 41.0]: val_4 (0.0)
|   |   normalStorage = (59.0, 60.0]: val_4 (0.0)
|   |   normalStorage = (3630.96, 6228.13]: val_4 (0.0)
|   |   normalStorage = (41.0, 42.0]: val_4 (0.0)
|   |   normalStorage = (54.0, 56.0]: val_4 (0.0)
|   |   normalStorage = (627.0, 768.0]: val_4 (0.0)
|   |   normalStorage = (277.0, 305.0]: val_4 (0.0)
|   |   normalStorage = (24.0, 25.0]: val_4 (0.0)
|   |   normalStorage = (768.0, 957.0]: val_2 (2.0/1.0)
|   |   normalStorage = (78.0, 80.0]: val_4 (0.0)
|   |   normalStorage = (57.0, 59.0]: val_4 (0.0)
|   |   normalStorage = (230.0, 250.0]: val_4 (0.0)
|   |   normalStorage = (9.3, 11.8]: val_4 (0.0)
|   |   normalStorage = (72.5, 75.0]: val_4 (0.0)
|   |   normalStorage = (100.0, 104.0]: val_4 (0.0)
|   |   normalStorage = (29.0, 30.0]: val_4 (0.0)
|   |   normalStorage = (210.0, 230.0]: val_4 (0.0)
|   |   normalStorage = (25.0, 26.0]: val_4 (0.0)
|   |   normalStorage = (131.0, 139.0]: val_4 (0.0)
|   |   normalStorage = (6.0, 9.3]: val_4 (0.0)
|   |   normalStorage = (20248.84, 75097.13]: val_4 (0.0)
|   |   normalStorage = (114.0, 120.0]: val_4 (0.0)
|   |   normalStorage = (396.0, 454.92]: val_3 (1.0)
|   |   normalStorage = (38.0, 40.0]: val_4 (0.0)
|   |   normalStorage = (19.0, 20.0]: val_4 (0.0)
|   |   normalStorage = (27.401, 29.0]: val_4 (0.0)
|   |   normalStorage = (90.0, 92.6]: val_4 (0.0)
|   |   normalStorage = (46.0, 48.0]: val_4 (0.0)
|   |   normalStorage = (51.0, 53.0]: val_4 (0.0)
|   |   normalStorage = (2400.0, 3630.96]: val_4 (0.0)
|   |   normalStorage = (13.0, 15.0]: val_4 (0.0)
|   |   normalStorage = (1700.0, 2400.0]: val_4 (0.0)
|   |   normalStorage = (34.0, 35.228]: val_4 (0.0)
|   |   normalStorage = (20.0, 21.0]: val_4 (0.0)
|   |   normalStorage = (104.0, 109.0]: val_4 (0.0)
|   |   normalStorage = (528.0, 627.0]: val_4 (1.0)
|   |   normalStorage = (66.0, 68.0]: val_4 (0.0)
|   |   normalStorage = (21.0, 23.0]: val_4 (0.0)
|   |   normalStorage = (11.8, 13.0]: val_4 (0.0)
|   |   normalStorage = (53.0, 54.0]: val_4 (0.0)
|   |   normalStorage = (125.0, 131.0]: val_4 (0.0)
|   |   normalStorage = (48.0, 49.5]: val_4 (0.0)
|   |   normalStorage = (56.0, 57.0]: val_4 (0.0)
|   |   normalStorage = (147.0, 154.0]: val_4 (0.0)
|   |   normalStorage = (957.0, 1230.45]: val_3 (1.0)
|   |   normalStorage = (75097.13, 277540000.0]: val_4 (0.0)
|   |   normalStorage = (11146.147, 20248.84]: val_4 (0.0)
|   |   normalStorage = (68.0, 70.0]: val_4 (0.0)
|   |   normalStorage = (305.0, 347.0]: val_4 (0.0)
|   |   normalStorage = (347.0, 396.0]: val_4 (0.0)
|   |   normalStorage = (37.0, 38.0]: val_4 (0.0)
|   |   normalStorage = (62.0, 64.0]: val_4 (0.0)
|   |   normalStorage = (80.0, 83.0]: val_4 (0.0)
|   |   normalStorage = (32.0, 33.0]: val_4 (0.0)
|   |   normalStorage = (250.0, 277.0]: val_2 (1.0)
|   |   normalStorage = (49.5, 50.0]: val_4 (0.0)
|   |   normalStorage = (86.0, 90.0]: val_4 (0.0)
|   |   normalStorage = (44.0, 45.0]: val_4 (0.0)
|   |   normalStorage = (42.0, 44.0]: val_4 (0.0)
|   |   normalStorage = (1230.45, 1700.0]: val_4 (3.0)
|   |   normalStorage = (92.6, 96.0]: val_4 (0.0)
|   |   normalStorage = (70.0, 72.5]: val_4 (0.0)
|   |   normalStorage = (1.446, 6.0]: val_4 (0.0)
|   |   normalStorage = (164.0, 175.0]: val_4 (0.0)
|   |   normalStorage = (60.0, 62.0]: val_4 (0.0)
|   |   normalStorage = (33.0, 34.0]: val_4 (0.0)
|   |   normalStorage = (75.0, 78.0]: val_4 (0.0)
|   |   normalStorage = (45.0, 46.0]: val_4 (0.0)
|   |   normalStorage = (50.0, 51.0]: val_4 (0.0)
|   |   normalStorage = (0.0, 1.446]: val_4 (0.0)
|   |   normalStorage = (454.92, 528.0]: val_4 (0.0)
|   |   normalStorage = (23.0, 24.0]: val_4 (0.0)
|   |   normalStorage = (120.0, 125.0]: val_4 (0.0)
|   |   normalStorage = (200.0, 210.0]: val_4 (1.0)
|   |   normalStorage = (15.0, 16.0]: val_4 (0.0)
|   |   normalStorage = (30.0, 30.8]: val_4 (0.0)
|   nidStorage = (96.0, 100.0]: val_2 (16.0/6.0)
|   nidStorage = (85.0, 87.0]: val_2 (10.0/2.0)
|   nidStorage = (68.0, 70.0]: val_2 (14.0/4.0)
